svm_type c_svc
kernel_type intersection
nr_class 2
total_sv 93
rho 0.000121557
label 1 -1
nr_sv 48 45
SV
1 1:134 2:10 3:0 4:0 5:0 6:0 7:0 8:0 9:0 10:0 
1 1:134 2:10 3:0 4:0 5:0 6:0 7:0 8:0 9:0 10:0 
1 1:137 2:7 3:0 4:0 5:0 6:0 7:0 8:0 9:0 10:0 
1 1:137 2:7 3:0 4:0 5:0 6:0 7:0 8:0 9:0 10:0 
1 1:136 2:8 3:0 4:0 5:0 6:0 7:0 8:0 9:0 10:0 
1 1:137 2:7 3:0 4:0 5:0 6:0 7:0 8:0 9:0 10:0 
1 1:137 2:7 3:0 4:0 5:0 6:0 7:0 8:0 9:0 10:0 
1 1:135 2:9 3:0 4:0 5:0 6:0 7:0 8:0 9:0 10:0 
1 1:135 2:9 3:0 4:0 5:0 6:0 7:0 8:0 9:0 10:0 
1 1:135 2:9 3:0 4:0 5:0 6:0 7:0 8:0 9:0 10:0 
1 1:135 2:9 3:0 4:0 5:0 6:0 7:0 8:0 9:0 10:0 
1 1:135 2:9 3:0 4:0 5:0 6:0 7:0 8:0 9:0 10:0 
1 1:134 2:10 3:0 4:0 5:0 6:0 7:0 8:0 9:0 10:0 
1 1:134 2:10 3:0 4:0 5:0 6:0 7:0 8:0 9:0 10:0 
1 1:135 2:9 3:0 4:0 5:0 6:0 7:0 8:0 9:0 10:0 
1 1:134 2:10 3:0 4:0 5:0 6:0 7:0 8:0 9:0 10:0 
1 1:134 2:10 3:0 4:0 5:0 6:0 7:0 8:0 9:0 10:0 
1 1:134 2:10 3:0 4:0 5:0 6:0 7:0 8:0 9:0 10:0 
1 1:134 2:10 3:0 4:0 5:0 6:0 7:0 8:0 9:0 10:0 
0.9996353276353024 1:133 2:11 3:0 4:0 5:0 6:0 7:0 8:0 9:0 10:0 
1 1:134 2:10 3:0 4:0 5:0 6:0 7:0 8:0 9:0 10:0 
0.9995995115994962 1:131 2:13 3:0 4:0 5:0 6:0 7:0 8:0 9:0 10:0 
1 1:138 2:6 3:0 4:0 5:0 6:0 7:0 8:0 9:0 10:0 
1 1:138 2:6 3:0 4:0 5:0 6:0 7:0 8:0 9:0 10:0 
1 1:136 2:8 3:0 4:0 5:0 6:0 7:0 8:0 9:0 10:0 
1 1:135 2:9 3:0 4:0 5:0 6:0 7:0 8:0 9:0 10:0 
1 1:134 2:10 3:0 4:0 5:0 6:0 7:0 8:0 9:0 10:0 
1 1:133 2:11 3:0 4:0 5:0 6:0 7:0 8:0 9:0 10:0 
1 1:133 2:11 3:0 4:0 5:0 6:0 7:0 8:0 9:0 10:0 
1 1:133 2:11 3:0 4:0 5:0 6:0 7:0 8:0 9:0 10:0 
1 1:134 2:10 3:0 4:0 5:0 6:0 7:0 8:0 9:0 10:0 
1 1:135 2:9 3:0 4:0 5:0 6:0 7:0 8:0 9:0 10:0 
1 1:135 2:9 3:0 4:0 5:0 6:0 7:0 8:0 9:0 10:0 
1 1:134 2:10 3:0 4:0 5:0 6:0 7:0 8:0 9:0 10:0 
1 1:134 2:10 3:0 4:0 5:0 6:0 7:0 8:0 9:0 10:0 
1 1:134 2:10 3:0 4:0 5:0 6:0 7:0 8:0 9:0 10:0 
1 1:134 2:10 3:0 4:0 5:0 6:0 7:0 8:0 9:0 10:0 
1 1:133 2:11 3:0 4:0 5:0 6:0 7:0 8:0 9:0 10:0 
0.000765160765185402 1:132 2:12 3:0 4:0 5:0 6:0 7:0 8:0 9:0 10:0 
1 1:131 2:13 3:0 4:0 5:0 6:0 7:0 8:0 9:0 10:0 
1 1:133 2:11 3:0 4:0 5:0 6:0 7:0 8:0 9:0 10:0 
1 1:133 2:11 3:0 4:0 5:0 6:0 7:0 8:0 9:0 10:0 
1 1:134 2:10 3:0 4:0 5:0 6:0 7:0 8:0 9:0 10:0 
1 1:134 2:10 3:0 4:0 5:0 6:0 7:0 8:0 9:0 10:0 
1 1:134 2:10 3:0 4:0 5:0 6:0 7:0 8:0 9:0 10:0 
1 1:130 2:14 3:0 4:0 5:0 6:0 7:0 8:0 9:0 10:0 
8.599891632155021e-016 1:128 2:16 3:0 4:0 5:0 6:0 7:0 8:0 9:0 10:0 
2.647188024340608e-015 1:125 2:19 3:0 4:0 5:0 6:0 7:0 8:0 9:0 10:0 
-1 1:133 2:11 3:0 4:0 5:0 6:0 7:0 8:0 9:0 10:0 
-1 1:133 2:11 3:0 4:0 5:0 6:0 7:0 8:0 9:0 10:0 
-1 1:133 2:11 3:0 4:0 5:0 6:0 7:0 8:0 9:0 10:0 
-1 1:133 2:11 3:0 4:0 5:0 6:0 7:0 8:0 9:0 10:0 
-1 1:131 2:13 3:0 4:0 5:0 6:0 7:0 8:0 9:0 10:0 
-1 1:131 2:13 3:0 4:0 5:0 6:0 7:0 8:0 9:0 10:0 
-1 1:133 2:11 3:0 4:0 5:0 6:0 7:0 8:0 9:0 10:0 
-1 1:133 2:11 3:0 4:0 5:0 6:0 7:0 8:0 9:0 10:0 
-0.9999999999999877 1:134 2:10 3:0 4:0 5:0 6:0 7:0 8:0 9:0 10:0 
-1 1:134 2:10 3:0 4:0 5:0 6:0 7:0 8:0 9:0 10:0 
-1 1:134 2:10 3:0 4:0 5:0 6:0 7:0 8:0 9:0 10:0 
-1 1:134 2:10 3:0 4:0 5:0 6:0 7:0 8:0 9:0 10:0 
-1 1:134 2:10 3:0 4:0 5:0 6:0 7:0 8:0 9:0 10:0 
-1 1:134 2:10 3:0 4:0 5:0 6:0 7:0 8:0 9:0 10:0 
-1 1:134 2:10 3:0 4:0 5:0 6:0 7:0 8:0 9:0 10:0 
-1 1:134 2:10 3:0 4:0 5:0 6:0 7:0 8:0 9:0 10:0 
-1 1:134 2:10 3:0 4:0 5:0 6:0 7:0 8:0 9:0 10:0 
-1 1:134 2:10 3:0 4:0 5:0 6:0 7:0 8:0 9:0 10:0 
-1 1:134 2:10 3:0 4:0 5:0 6:0 7:0 8:0 9:0 10:0 
-1 1:134 2:10 3:0 4:0 5:0 6:0 7:0 8:0 9:0 10:0 
-1 1:134 2:10 3:0 4:0 5:0 6:0 7:0 8:0 9:0 10:0 
-1 1:134 2:10 3:0 4:0 5:0 6:0 7:0 8:0 9:0 10:0 
-1 1:134 2:10 3:0 4:0 5:0 6:0 7:0 8:0 9:0 10:0 
-1 1:134 2:10 3:0 4:0 5:0 6:0 7:0 8:0 9:0 10:0 
-1 1:134 2:10 3:0 4:0 5:0 6:0 7:0 8:0 9:0 10:0 
-1 1:134 2:10 3:0 4:0 5:0 6:0 7:0 8:0 9:0 10:0 
-1 1:135 2:9 3:0 4:0 5:0 6:0 7:0 8:0 9:0 10:0 
-1 1:135 2:9 3:0 4:0 5:0 6:0 7:0 8:0 9:0 10:0 
-1 1:135 2:9 3:0 4:0 5:0 6:0 7:0 8:0 9:0 10:0 
-1 1:135 2:9 3:0 4:0 5:0 6:0 7:0 8:0 9:0 10:0 
-1 1:135 2:9 3:0 4:0 5:0 6:0 7:0 8:0 9:0 10:0 
-1 1:135 2:9 3:0 4:0 5:0 6:0 7:0 8:0 9:0 10:0 
-1 1:135 2:9 3:0 4:0 5:0 6:0 7:0 8:0 9:0 10:0 
-1 1:135 2:9 3:0 4:0 5:0 6:0 7:0 8:0 9:0 10:0 
-1 1:130 2:14 3:0 4:0 5:0 6:0 7:0 8:0 9:0 10:0 
-1 1:136 2:8 3:0 4:0 5:0 6:0 7:0 8:0 9:0 10:0 
-1 1:135 2:9 3:0 4:0 5:0 6:0 7:0 8:0 9:0 10:0 
-1 1:134 2:10 3:0 4:0 5:0 6:0 7:0 8:0 9:0 10:0 
-1 1:136 2:8 3:0 4:0 5:0 6:0 7:0 8:0 9:0 10:0 
-1 1:138 2:6 3:0 4:0 5:0 6:0 7:0 8:0 9:0 10:0 
-1 1:137 2:7 3:0 4:0 5:0 6:0 7:0 8:0 9:0 10:0 
-1 1:137 2:7 3:0 4:0 5:0 6:0 7:0 8:0 9:0 10:0 
-1 1:137 2:7 3:0 4:0 5:0 6:0 7:0 8:0 9:0 10:0 
-1 1:137 2:7 3:0 4:0 5:0 6:0 7:0 8:0 9:0 10:0 
-1 1:138 2:6 3:0 4:0 5:0 6:0 7:0 8:0 9:0 10:0 
