svm_type c_svc
kernel_type intersection
nr_class 2
total_sv 24
rho -0.0331177
label 1 -1
nr_sv 11 13
SV
1 1:70 2:2 3:0 4:0 5:0 6:0 7:0 8:0 9:0 10:0 
1 1:62 2:10 3:0 4:0 5:0 6:0 7:0 8:0 9:0 10:0 
1 1:64 2:8 3:0 4:0 5:0 6:0 7:0 8:0 9:0 10:0 
1 1:65 2:7 3:0 4:0 5:0 6:0 7:0 8:0 9:0 10:0 
1 1:62 2:10 3:0 4:0 5:0 6:0 7:0 8:0 9:0 10:0 
1 1:62 2:10 3:0 4:0 5:0 6:0 7:0 8:0 9:0 10:0 
0.004115121382724075 1:45 2:16 3:10 4:1 5:0 6:0 7:0 8:0 9:0 10:0 
0.02228840271092717 1:52 2:19 3:1 4:0 5:0 6:0 7:0 8:0 9:0 10:0 
0.5122240908832259 1:60 2:12 3:0 4:0 5:0 6:0 7:0 8:0 9:0 10:0 
1 1:62 2:10 3:0 4:0 5:0 6:0 7:0 8:0 9:0 10:0 
1 1:67 2:5 3:0 4:0 5:0 6:0 7:0 8:0 9:0 10:0 
-1 1:62 2:10 3:0 4:0 5:0 6:0 7:0 8:0 9:0 10:0 
-1 1:62 2:10 3:0 4:0 5:0 6:0 7:0 8:0 9:0 10:0 
-0.001532481426095175 1:66 2:5 3:0 4:1 5:0 6:0 7:0 8:0 9:0 10:0 
-0.0008913569582323731 1:65 2:6 3:0 4:1 5:0 6:0 7:0 8:0 9:0 10:0 
-0.0003622315875385028 1:67 2:2 3:0 4:3 5:0 6:0 7:0 8:0 9:0 10:0 
-0.4104689967537399 1:61 2:10 3:1 4:0 5:0 6:0 7:0 8:0 9:0 10:0 
-0.9998226104675465 1:70 2:2 3:0 4:0 5:0 6:0 7:0 8:0 9:0 10:0 
-1 1:62 2:10 3:0 4:0 5:0 6:0 7:0 8:0 9:0 10:0 
-1 1:62 2:10 3:0 4:0 5:0 6:0 7:0 8:0 9:0 10:0 
-1 1:64 2:8 3:0 4:0 5:0 6:0 7:0 8:0 9:0 10:0 
-0.1281539276136998 1:63 2:9 3:0 4:0 5:0 6:0 7:0 8:0 9:0 10:0 
-0.9990009112345404 1:65 2:7 3:0 4:0 5:0 6:0 7:0 8:0 9:0 10:0 
-0.9983950989354843 1:67 2:5 3:0 4:0 5:0 6:0 7:0 8:0 9:0 10:0 
