svm_type c_svc
kernel_type linear
nr_class 2
total_sv 60
rho -1.27326
label 1 -1
nr_sv 29 31
SV
1 1:183 2:7 3:2 4:0 5:0 6:0 7:0 8:0 9:0 10:0 11:0 12:0 13:0 14:0 15:0 16:0 17:0 18:0 19:0 20:0 
1 1:180 2:10 3:1 4:1 5:0 6:0 7:0 8:0 9:0 10:0 11:0 12:0 13:0 14:0 15:0 16:0 17:0 18:0 19:0 20:0 
1 1:168 2:10 3:5 4:2 5:2 6:1 7:3 8:1 9:0 10:0 11:0 12:0 13:0 14:0 15:0 16:0 17:0 18:0 19:0 20:0 
0.5524392671045024 1:135 2:10 3:12 4:4 5:3 6:4 7:4 8:3 9:5 10:5 11:1 12:1 13:2 14:2 15:0 16:1 17:0 18:0 19:0 20:0 
1 1:170 2:20 3:1 4:1 5:0 6:0 7:0 8:0 9:0 10:0 11:0 12:0 13:0 14:0 15:0 16:0 17:0 18:0 19:0 20:0 
1 1:171 2:18 3:2 4:1 5:0 6:0 7:0 8:0 9:0 10:0 11:0 12:0 13:0 14:0 15:0 16:0 17:0 18:0 19:0 20:0 
0.5703190872936785 1:169 2:19 3:2 4:1 5:1 6:0 7:0 8:0 9:0 10:0 11:0 12:0 13:0 14:0 15:0 16:0 17:0 18:0 19:0 20:0 
1 1:178 2:10 3:3 4:0 5:0 6:1 7:0 8:0 9:0 10:0 11:0 12:0 13:0 14:0 15:0 16:0 17:0 18:0 19:0 20:0 
1 1:178 2:9 3:1 4:2 5:1 6:1 7:0 8:0 9:0 10:0 11:0 12:0 13:0 14:0 15:0 16:0 17:0 18:0 19:0 20:0 
1 1:178 2:8 3:2 4:1 5:2 6:1 7:0 8:0 9:0 10:0 11:0 12:0 13:0 14:0 15:0 16:0 17:0 18:0 19:0 20:0 
1 1:178 2:8 3:2 4:1 5:2 6:0 7:1 8:0 9:0 10:0 11:0 12:0 13:0 14:0 15:0 16:0 17:0 18:0 19:0 20:0 
1 1:177 2:6 3:3 4:2 5:2 6:1 7:1 8:0 9:0 10:0 11:0 12:0 13:0 14:0 15:0 16:0 17:0 18:0 19:0 20:0 
1 1:176 2:7 3:2 4:3 5:2 6:1 7:1 8:0 9:0 10:0 11:0 12:0 13:0 14:0 15:0 16:0 17:0 18:0 19:0 20:0 
1 1:176 2:4 3:5 4:0 5:4 6:3 7:0 8:0 9:0 10:0 11:0 12:0 13:0 14:0 15:0 16:0 17:0 18:0 19:0 20:0 
1 1:178 2:2 3:1 4:4 5:2 6:5 7:0 8:0 9:0 10:0 11:0 12:0 13:0 14:0 15:0 16:0 17:0 18:0 19:0 20:0 
1 1:178 2:3 3:0 4:4 5:2 6:3 7:2 8:0 9:0 10:0 11:0 12:0 13:0 14:0 15:0 16:0 17:0 18:0 19:0 20:0 
1 1:178 2:2 3:1 4:3 5:3 6:3 7:2 8:0 9:0 10:0 11:0 12:0 13:0 14:0 15:0 16:0 17:0 18:0 19:0 20:0 
1 1:178 2:2 3:0 4:5 5:2 6:1 7:3 8:1 9:0 10:0 11:0 12:0 13:0 14:0 15:0 16:0 17:0 18:0 19:0 20:0 
1 1:174 2:6 3:2 4:2 5:3 6:3 7:1 8:1 9:0 10:0 11:0 12:0 13:0 14:0 15:0 16:0 17:0 18:0 19:0 20:0 
0.6449129018207372 1:170 2:7 3:4 4:3 5:6 6:2 7:0 8:0 9:0 10:0 11:0 12:0 13:0 14:0 15:0 16:0 17:0 18:0 19:0 20:0 
1 1:171 2:4 3:6 4:6 5:3 6:1 7:0 8:1 9:0 10:0 11:0 12:0 13:0 14:0 15:0 16:0 17:0 18:0 19:0 20:0 
1 1:173 2:2 3:6 4:7 5:2 6:1 7:0 8:1 9:0 10:0 11:0 12:0 13:0 14:0 15:0 16:0 17:0 18:0 19:0 20:0 
1 1:170 2:5 3:8 4:2 5:3 6:3 7:1 8:0 9:0 10:0 11:0 12:0 13:0 14:0 15:0 16:0 17:0 18:0 19:0 20:0 
1 1:170 2:5 3:8 4:2 5:2 6:4 7:1 8:0 9:0 10:0 11:0 12:0 13:0 14:0 15:0 16:0 17:0 18:0 19:0 20:0 
0.8197847928311924 1:167 2:8 3:7 4:3 5:2 6:3 7:2 8:0 9:0 10:0 11:0 12:0 13:0 14:0 15:0 16:0 17:0 18:0 19:0 20:0 
0.0002705098961304194 1:46 2:12 3:13 4:7 5:8 6:11 7:20 8:21 9:21 10:6 11:4 12:5 13:4 14:5 15:3 16:0 17:2 18:2 19:2 20:0 
1 1:174 2:14 3:1 4:2 5:1 6:0 7:0 8:0 9:0 10:0 11:0 12:0 13:0 14:0 15:0 16:0 17:0 18:0 19:0 20:0 
1 1:181 2:8 3:3 4:0 5:0 6:0 7:0 8:0 9:0 10:0 11:0 12:0 13:0 14:0 15:0 16:0 17:0 18:0 19:0 20:0 
1 1:183 2:7 3:2 4:0 5:0 6:0 7:0 8:0 9:0 10:0 11:0 12:0 13:0 14:0 15:0 16:0 17:0 18:0 19:0 20:0 
-1 1:175 2:8 3:5 4:2 5:2 6:0 7:0 8:0 9:0 10:0 11:0 12:0 13:0 14:0 15:0 16:0 17:0 18:0 19:0 20:0 
-0.3744643978084418 1:177 2:6 3:5 4:1 5:2 6:1 7:0 8:0 9:0 10:0 11:0 12:0 13:0 14:0 15:0 16:0 17:0 18:0 19:0 20:0 
-1 1:175 2:7 3:4 4:1 5:3 6:2 7:0 8:0 9:0 10:0 11:0 12:0 13:0 14:0 15:0 16:0 17:0 18:0 19:0 20:0 
-1 1:175 2:7 3:3 4:2 5:3 6:1 7:1 8:0 9:0 10:0 11:0 12:0 13:0 14:0 15:0 16:0 17:0 18:0 19:0 20:0 
-0.2730847745693222 1:175 2:7 3:2 4:3 5:1 6:2 7:0 8:2 9:0 10:0 11:0 12:0 13:0 14:0 15:0 16:0 17:0 18:0 19:0 20:0 
-0.1163742521315542 1:172 2:12 3:0 4:0 5:4 6:2 7:0 8:0 9:0 10:2 11:0 12:0 13:0 14:0 15:0 16:0 17:0 18:0 19:0 20:0 
-1 1:172 2:12 3:0 4:0 5:5 6:1 7:0 8:0 9:0 10:2 11:0 12:0 13:0 14:0 15:0 16:0 17:0 18:0 19:0 20:0 
-0.8590214426491498 1:173 2:11 3:0 4:0 5:5 6:1 7:0 8:0 9:0 10:1 11:1 12:0 13:0 14:0 15:0 16:0 17:0 18:0 19:0 20:0 
-1 1:177 2:5 3:5 4:3 5:1 6:1 7:0 8:0 9:0 10:0 11:0 12:0 13:0 14:0 15:0 16:0 17:0 18:0 19:0 20:0 
-1 1:173 2:6 3:5 4:2 5:1 6:3 7:1 8:1 9:0 10:0 11:0 12:0 13:0 14:0 15:0 16:0 17:0 18:0 19:0 20:0 
-0.9083095344592167 1:173 2:4 3:6 4:3 5:0 6:1 7:3 8:1 9:1 10:0 11:0 12:0 13:0 14:0 15:0 16:0 17:0 18:0 19:0 20:0 
-0.743250277921881 1:179 2:3 3:2 4:6 5:1 6:1 7:0 8:0 9:0 10:0 11:0 12:0 13:0 14:0 15:0 16:0 17:0 18:0 19:0 20:0 
-1 1:174 2:7 3:2 4:0 5:4 6:3 7:1 8:1 9:0 10:0 11:0 12:0 13:0 14:0 15:0 16:0 17:0 18:0 19:0 20:0 
-1 1:168 2:10 3:1 4:5 5:0 6:1 7:2 8:2 9:2 10:0 11:0 12:1 13:0 14:0 15:0 16:0 17:0 18:0 19:0 20:0 
-1 1:175 2:6 3:4 4:1 5:2 6:1 7:3 8:0 9:0 10:0 11:0 12:0 13:0 14:0 15:0 16:0 17:0 18:0 19:0 20:0 
-1 1:173 2:8 3:1 4:4 5:1 6:1 7:3 8:0 9:0 10:0 11:0 12:0 13:0 14:1 15:0 16:0 17:0 18:0 19:0 20:0 
-0.6982290633949334 1:175 2:8 3:1 4:2 5:3 6:1 7:0 8:1 9:0 10:0 11:0 12:0 13:1 14:0 15:0 16:0 17:0 18:0 19:0 20:0 
-0.5427725643270257 1:175 2:8 3:1 4:2 5:3 6:1 7:0 8:1 9:0 10:0 11:0 12:0 13:1 14:0 15:0 16:0 17:0 18:0 19:0 20:0 
-1 1:175 2:6 3:4 4:2 5:1 6:3 7:1 8:0 9:0 10:0 11:0 12:0 13:0 14:0 15:0 16:0 17:0 18:0 19:0 20:0 
-1 1:175 2:7 3:3 4:3 5:1 6:2 7:1 8:0 9:0 10:0 11:0 12:0 13:0 14:0 15:0 16:0 17:0 18:0 19:0 20:0 
-1 1:174 2:7 3:4 4:2 5:3 6:1 7:1 8:0 9:0 10:0 11:0 12:0 13:0 14:0 15:0 16:0 17:0 18:0 19:0 20:0 
-1 1:174 2:8 3:4 4:1 5:2 6:2 7:1 8:0 9:0 10:0 11:0 12:0 13:0 14:0 15:0 16:0 17:0 18:0 19:0 20:0 
-1 1:174 2:7 3:5 4:2 5:1 6:2 7:1 8:0 9:0 10:0 11:0 12:0 13:0 14:0 15:0 16:0 17:0 18:0 19:0 20:0 
-1 1:174 2:7 3:5 4:3 5:0 6:2 7:1 8:0 9:0 10:0 11:0 12:0 13:0 14:0 15:0 16:0 17:0 18:0 19:0 20:0 
-1 1:174 2:8 3:4 4:2 5:2 6:2 7:0 8:0 9:0 10:0 11:0 12:0 13:0 14:0 15:0 16:0 17:0 18:0 19:0 20:0 
-1 1:174 2:9 3:3 4:3 5:1 6:2 7:0 8:0 9:0 10:0 11:0 12:0 13:0 14:0 15:0 16:0 17:0 18:0 19:0 20:0 
-1 1:175 2:10 3:4 4:1 5:1 6:1 7:0 8:0 9:0 10:0 11:0 12:0 13:0 14:0 15:0 16:0 17:0 18:0 19:0 20:0 
-1 1:176 2:10 3:2 4:2 5:1 6:1 7:0 8:0 9:0 10:0 11:0 12:0 13:0 14:0 15:0 16:0 17:0 18:0 19:0 20:0 
-1 1:177 2:9 3:2 4:3 5:0 6:1 7:0 8:0 9:0 10:0 11:0 12:0 13:0 14:0 15:0 16:0 17:0 18:0 19:0 20:0 
-1 1:177 2:9 3:2 4:3 5:0 6:1 7:0 8:0 9:0 10:0 11:0 12:0 13:0 14:0 15:0 16:0 17:0 18:0 19:0 20:0 
-0.07222025168471541 1:173 2:6 3:4 4:0 5:3 6:0 7:1 8:0 9:0 10:0 11:0 12:0 13:1 14:2 15:0 16:1 17:0 18:0 19:1 20:0 
