svm_type c_svc
kernel_type intersection
nr_class 2
total_sv 103
rho -1.88883
label 1 -1
nr_sv 48 55
SV
1 1:39 2:9 3:0 4:0 5:0 6:0 7:0 8:0 9:0 10:0 
1 1:35 2:9 3:4 4:0 5:0 6:0 7:0 8:0 9:0 10:0 
0.3093614338542975 1:31 2:13 3:4 4:0 5:0 6:0 7:0 8:0 9:0 10:0 
0.1438818046916392 1:33 2:10 3:5 4:0 5:0 6:0 7:0 8:0 9:0 10:0 
1 1:37 2:5 3:6 4:0 5:0 6:0 7:0 8:0 9:0 10:0 
1 1:38 2:4 3:6 4:0 5:0 6:0 7:0 8:0 9:0 10:0 
1 1:37 2:5 3:6 4:0 5:0 6:0 7:0 8:0 9:0 10:0 
1 1:37 2:5 3:6 4:0 5:0 6:0 7:0 8:0 9:0 10:0 
0.9065596600638728 1:34 2:9 3:5 4:0 5:0 6:0 7:0 8:0 9:0 10:0 
0.7809333338863005 1:36 2:6 3:6 4:0 5:0 6:0 7:0 8:0 9:0 10:0 
1 1:36 2:6 3:6 4:0 5:0 6:0 7:0 8:0 9:0 10:0 
1 1:36 2:6 3:6 4:0 5:0 6:0 7:0 8:0 9:0 10:0 
0.2165773305342503 1:36 2:5 3:7 4:0 5:0 6:0 7:0 8:0 9:0 10:0 
1 1:43 2:5 3:0 4:0 5:0 6:0 7:0 8:0 9:0 10:0 
1 1:45 2:3 3:0 4:0 5:0 6:0 7:0 8:0 9:0 10:0 
1 1:45 2:2 3:1 4:0 5:0 6:0 7:0 8:0 9:0 10:0 
1 1:38 2:10 3:0 4:0 5:0 6:0 7:0 8:0 9:0 10:0 
1 1:38 2:7 3:3 4:0 5:0 6:0 7:0 8:0 9:0 10:0 
1 1:38 2:4 3:6 4:0 5:0 6:0 7:0 8:0 9:0 10:0 
1 1:34 2:12 3:2 4:0 5:0 6:0 7:0 8:0 9:0 10:0 
1 1:38 2:10 3:0 4:0 5:0 6:0 7:0 8:0 9:0 10:0 
1 1:40 2:8 3:0 4:0 5:0 6:0 7:0 8:0 9:0 10:0 
1 1:41 2:7 3:0 4:0 5:0 6:0 7:0 8:0 9:0 10:0 
1 1:46 2:2 3:0 4:0 5:0 6:0 7:0 8:0 9:0 10:0 
1 1:41 2:7 3:0 4:0 5:0 6:0 7:0 8:0 9:0 10:0 
1 1:40 2:7 3:1 4:0 5:0 6:0 7:0 8:0 9:0 10:0 
1 1:39 2:7 3:2 4:0 5:0 6:0 7:0 8:0 9:0 10:0 
1 1:38 2:8 3:2 4:0 5:0 6:0 7:0 8:0 9:0 10:0 
0.6537378425358517 1:35 2:8 3:5 4:0 5:0 6:0 7:0 8:0 9:0 10:0 
1 1:37 2:5 3:6 4:0 5:0 6:0 7:0 8:0 9:0 10:0 
1 1:38 2:4 3:6 4:0 5:0 6:0 7:0 8:0 9:0 10:0 
1 1:38 2:4 3:6 4:0 5:0 6:0 7:0 8:0 9:0 10:0 
1 1:38 2:4 3:6 4:0 5:0 6:0 7:0 8:0 9:0 10:0 
1 1:38 2:4 3:6 4:0 5:0 6:0 7:0 8:0 9:0 10:0 
1 1:38 2:4 3:6 4:0 5:0 6:0 7:0 8:0 9:0 10:0 
1 1:37 2:3 3:8 4:0 5:0 6:0 7:0 8:0 9:0 10:0 
0.0795086608511443 1:37 2:2 3:9 4:0 5:0 6:0 7:0 8:0 9:0 10:0 
0.6038721818471187 1:36 2:7 3:5 4:0 5:0 6:0 7:0 8:0 9:0 10:0 
0.9731211713903412 1:36 2:7 3:5 4:0 5:0 6:0 7:0 8:0 9:0 10:0 
1 1:37 2:6 3:5 4:0 5:0 6:0 7:0 8:0 9:0 10:0 
1 1:37 2:6 3:5 4:0 5:0 6:0 7:0 8:0 9:0 10:0 
1 1:37 2:6 3:5 4:0 5:0 6:0 7:0 8:0 9:0 10:0 
1 1:37 2:6 3:5 4:0 5:0 6:0 7:0 8:0 9:0 10:0 
1 1:35 2:10 3:3 4:0 5:0 6:0 7:0 8:0 9:0 10:0 
1 1:37 2:9 3:2 4:0 5:0 6:0 7:0 8:0 9:0 10:0 
1 1:38 2:7 3:3 4:0 5:0 6:0 7:0 8:0 9:0 10:0 
1 1:38 2:7 3:3 4:0 5:0 6:0 7:0 8:0 9:0 10:0 
1 1:43 2:5 3:0 4:0 5:0 6:0 7:0 8:0 9:0 10:0 
-1 1:41 2:7 3:0 4:0 5:0 6:0 7:0 8:0 9:0 10:0 
-1 1:38 2:3 3:7 4:0 5:0 6:0 7:0 8:0 9:0 10:0 
-1 1:37 2:5 3:6 4:0 5:0 6:0 7:0 8:0 9:0 10:0 
-1 1:40 2:8 3:0 4:0 5:0 6:0 7:0 8:0 9:0 10:0 
-0.4984177075701838 1:38 2:9 3:1 4:0 5:0 6:0 7:0 8:0 9:0 10:0 
-1 1:35 2:10 3:3 4:0 5:0 6:0 7:0 8:0 9:0 10:0 
-1 1:37 2:5 3:6 4:0 5:0 6:0 7:0 8:0 9:0 10:0 
-0.2131636510618176 1:37 2:6 3:5 4:0 5:0 6:0 7:0 8:0 9:0 10:0 
-1 1:37 2:6 3:5 4:0 5:0 6:0 7:0 8:0 9:0 10:0 
-1 1:37 2:6 3:5 4:0 5:0 6:0 7:0 8:0 9:0 10:0 
-1 1:37 2:6 3:5 4:0 5:0 6:0 7:0 8:0 9:0 10:0 
-1 1:37 2:6 3:5 4:0 5:0 6:0 7:0 8:0 9:0 10:0 
-1 1:37 2:6 3:5 4:0 5:0 6:0 7:0 8:0 9:0 10:0 
-1 1:36 2:10 3:2 4:0 5:0 6:0 7:0 8:0 9:0 10:0 
-1 1:37 2:6 3:5 4:0 5:0 6:0 7:0 8:0 9:0 10:0 
-0.7372104247104223 1:35 2:9 3:4 4:0 5:0 6:0 7:0 8:0 9:0 10:0 
-0.9062094185827682 1:34 2:10 3:4 4:0 5:0 6:0 7:0 8:0 9:0 10:0 
-0.9157900375298187 1:35 2:9 3:4 4:0 5:0 6:0 7:0 8:0 9:0 10:0 
-0.9994237524290366 1:38 2:9 3:1 4:0 5:0 6:0 7:0 8:0 9:0 10:0 
-1 1:41 2:7 3:0 4:0 5:0 6:0 7:0 8:0 9:0 10:0 
-1 1:34 2:12 3:2 4:0 5:0 6:0 7:0 8:0 9:0 10:0 
-1 1:37 2:5 3:6 4:0 5:0 6:0 7:0 8:0 9:0 10:0 
-1 1:37 2:6 3:5 4:0 5:0 6:0 7:0 8:0 9:0 10:0 
-0.453778453843563 1:36 2:7 3:4 4:1 5:0 6:0 7:0 8:0 9:0 10:0 
-1 1:36 2:6 3:6 4:0 5:0 6:0 7:0 8:0 9:0 10:0 
-0.1403562959773923 1:38 2:4 3:6 4:0 5:0 6:0 7:0 8:0 9:0 10:0 
-1 1:38 2:4 3:6 4:0 5:0 6:0 7:0 8:0 9:0 10:0 
-1 1:38 2:4 3:6 4:0 5:0 6:0 7:0 8:0 9:0 10:0 
-1 1:38 2:4 3:6 4:0 5:0 6:0 7:0 8:0 9:0 10:0 
-1 1:38 2:4 3:6 4:0 5:0 6:0 7:0 8:0 9:0 10:0 
-1 1:38 2:4 3:6 4:0 5:0 6:0 7:0 8:0 9:0 10:0 
-1 1:36 2:10 3:2 4:0 5:0 6:0 7:0 8:0 9:0 10:0 
-0.2971837624501009 1:36 2:8 3:4 4:0 5:0 6:0 7:0 8:0 9:0 10:0 
-0.2881532148183512 1:43 2:5 3:0 4:0 5:0 6:0 7:0 8:0 9:0 10:0 
-1 1:38 2:4 3:6 4:0 5:0 6:0 7:0 8:0 9:0 10:0 
-0.2492669381240509 1:39 2:2 3:7 4:0 5:0 6:0 7:0 8:0 9:0 10:0 
-1 1:38 2:4 3:6 4:0 5:0 6:0 7:0 8:0 9:0 10:0 
-0.2089252976975443 1:40 2:2 3:6 4:0 5:0 6:0 7:0 8:0 9:0 10:0 
-1 1:43 2:5 3:0 4:0 5:0 6:0 7:0 8:0 9:0 10:0 
-0.3551086178257823 1:45 2:3 3:0 4:0 5:0 6:0 7:0 8:0 9:0 10:0 
-1 1:41 2:7 3:0 4:0 5:0 6:0 7:0 8:0 9:0 10:0 
-0.3041362001959748 1:39 2:8 3:1 4:0 5:0 6:0 7:0 8:0 9:0 10:0 
-1 1:38 2:4 3:6 4:0 5:0 6:0 7:0 8:0 9:0 10:0 
-0.7568350994859662 1:36 2:9 3:3 4:0 5:0 6:0 7:0 8:0 9:0 10:0 
-1 1:38 2:7 3:3 4:0 5:0 6:0 7:0 8:0 9:0 10:0 
-1 1:38 2:7 3:3 4:0 5:0 6:0 7:0 8:0 9:0 10:0 
-0.85990980779771 1:45 2:3 3:0 4:0 5:0 6:0 7:0 8:0 9:0 10:0 
-0.9303172972971527 1:43 2:5 3:0 4:0 5:0 6:0 7:0 8:0 9:0 10:0 
-0.2430802178741448 1:38 2:7 3:3 4:0 5:0 6:0 7:0 8:0 9:0 10:0 
-0.0523971362083529 1:38 2:8 3:2 4:0 5:0 6:0 7:0 8:0 9:0 10:0 
-0.6351696083838991 1:46 2:2 3:0 4:0 5:0 6:0 7:0 8:0 9:0 10:0 
-0.6753621159280147 1:46 2:2 3:0 4:0 5:0 6:0 7:0 8:0 9:0 10:0 
-1 1:39 2:8 3:1 4:0 5:0 6:0 7:0 8:0 9:0 10:0 
-0.2446911196911195 1:39 2:7 3:2 4:0 5:0 6:0 7:0 8:0 9:0 10:0 
-0.7026672441716491 1:39 2:7 3:2 4:0 5:0 6:0 7:0 8:0 9:0 10:0 
