svm_type c_svc
kernel_type intersection
nr_class 2
total_sv 124
rho -0.000229241
label 1 -1
nr_sv 63 61
SV
1 1:42 2:6 3:0 4:0 5:0 6:0 7:0 8:0 9:0 10:0 
0.9629298941798934 1:38 2:10 3:0 4:0 5:0 6:0 7:0 8:0 9:0 10:0 
1 1:38 2:10 3:0 4:0 5:0 6:0 7:0 8:0 9:0 10:0 
1 1:38 2:10 3:0 4:0 5:0 6:0 7:0 8:0 9:0 10:0 
1 1:38 2:10 3:0 4:0 5:0 6:0 7:0 8:0 9:0 10:0 
1 1:41 2:7 3:0 4:0 5:0 6:0 7:0 8:0 9:0 10:0 
1 1:41 2:7 3:0 4:0 5:0 6:0 7:0 8:0 9:0 10:0 
1 1:42 2:6 3:0 4:0 5:0 6:0 7:0 8:0 9:0 10:0 
1 1:42 2:6 3:0 4:0 5:0 6:0 7:0 8:0 9:0 10:0 
1 1:42 2:6 3:0 4:0 5:0 6:0 7:0 8:0 9:0 10:0 
1 1:42 2:6 3:0 4:0 5:0 6:0 7:0 8:0 9:0 10:0 
1 1:42 2:6 3:0 4:0 5:0 6:0 7:0 8:0 9:0 10:0 
1 1:42 2:6 3:0 4:0 5:0 6:0 7:0 8:0 9:0 10:0 
1 1:40 2:8 3:0 4:0 5:0 6:0 7:0 8:0 9:0 10:0 
1 1:38 2:10 3:0 4:0 5:0 6:0 7:0 8:0 9:0 10:0 
1 1:38 2:10 3:0 4:0 5:0 6:0 7:0 8:0 9:0 10:0 
0.0001430501898995013 1:30 2:17 3:1 4:0 5:0 6:0 7:0 8:0 9:0 10:0 
0.3526126452810222 1:39 2:9 3:0 4:0 5:0 6:0 7:0 8:0 9:0 10:0 
1 1:42 2:6 3:0 4:0 5:0 6:0 7:0 8:0 9:0 10:0 
1 1:42 2:6 3:0 4:0 5:0 6:0 7:0 8:0 9:0 10:0 
1 1:40 2:8 3:0 4:0 5:0 6:0 7:0 8:0 9:0 10:0 
1 1:40 2:8 3:0 4:0 5:0 6:0 7:0 8:0 9:0 10:0 
1 1:39 2:9 3:0 4:0 5:0 6:0 7:0 8:0 9:0 10:0 
1 1:42 2:6 3:0 4:0 5:0 6:0 7:0 8:0 9:0 10:0 
1 1:42 2:6 3:0 4:0 5:0 6:0 7:0 8:0 9:0 10:0 
1 1:43 2:5 3:0 4:0 5:0 6:0 7:0 8:0 9:0 10:0 
1 1:44 2:4 3:0 4:0 5:0 6:0 7:0 8:0 9:0 10:0 
1 1:42 2:6 3:0 4:0 5:0 6:0 7:0 8:0 9:0 10:0 
1 1:44 2:4 3:0 4:0 5:0 6:0 7:0 8:0 9:0 10:0 
1 1:44 2:4 3:0 4:0 5:0 6:0 7:0 8:0 9:0 10:0 
1 1:43 2:5 3:0 4:0 5:0 6:0 7:0 8:0 9:0 10:0 
1 1:43 2:5 3:0 4:0 5:0 6:0 7:0 8:0 9:0 10:0 
1 1:42 2:6 3:0 4:0 5:0 6:0 7:0 8:0 9:0 10:0 
1 1:42 2:6 3:0 4:0 5:0 6:0 7:0 8:0 9:0 10:0 
1 1:39 2:9 3:0 4:0 5:0 6:0 7:0 8:0 9:0 10:0 
1 1:39 2:9 3:0 4:0 5:0 6:0 7:0 8:0 9:0 10:0 
1 1:39 2:9 3:0 4:0 5:0 6:0 7:0 8:0 9:0 10:0 
1 1:39 2:9 3:0 4:0 5:0 6:0 7:0 8:0 9:0 10:0 
1 1:39 2:9 3:0 4:0 5:0 6:0 7:0 8:0 9:0 10:0 
1 1:39 2:9 3:0 4:0 5:0 6:0 7:0 8:0 9:0 10:0 
1 1:39 2:9 3:0 4:0 5:0 6:0 7:0 8:0 9:0 10:0 
1 1:38 2:10 3:0 4:0 5:0 6:0 7:0 8:0 9:0 10:0 
1 1:39 2:9 3:0 4:0 5:0 6:0 7:0 8:0 9:0 10:0 
1 1:41 2:7 3:0 4:0 5:0 6:0 7:0 8:0 9:0 10:0 
1 1:45 2:3 3:0 4:0 5:0 6:0 7:0 8:0 9:0 10:0 
1 1:45 2:3 3:0 4:0 5:0 6:0 7:0 8:0 9:0 10:0 
1 1:39 2:9 3:0 4:0 5:0 6:0 7:0 8:0 9:0 10:0 
1 1:38 2:10 3:0 4:0 5:0 6:0 7:0 8:0 9:0 10:0 
1 1:42 2:6 3:0 4:0 5:0 6:0 7:0 8:0 9:0 10:0 
1 1:42 2:6 3:0 4:0 5:0 6:0 7:0 8:0 9:0 10:0 
0.9782671486232811 1:38 2:10 3:0 4:0 5:0 6:0 7:0 8:0 9:0 10:0 
0.0586599070069249 1:32 2:15 3:1 4:0 5:0 6:0 7:0 8:0 9:0 10:0 
1 1:40 2:8 3:0 4:0 5:0 6:0 7:0 8:0 9:0 10:0 
1 1:42 2:6 3:0 4:0 5:0 6:0 7:0 8:0 9:0 10:0 
1 1:42 2:6 3:0 4:0 5:0 6:0 7:0 8:0 9:0 10:0 
1 1:42 2:6 3:0 4:0 5:0 6:0 7:0 8:0 9:0 10:0 
1 1:41 2:7 3:0 4:0 5:0 6:0 7:0 8:0 9:0 10:0 
1 1:41 2:7 3:0 4:0 5:0 6:0 7:0 8:0 9:0 10:0 
1 1:39 2:9 3:0 4:0 5:0 6:0 7:0 8:0 9:0 10:0 
1 1:39 2:9 3:0 4:0 5:0 6:0 7:0 8:0 9:0 10:0 
1 1:39 2:9 3:0 4:0 5:0 6:0 7:0 8:0 9:0 10:0 
1 1:39 2:9 3:0 4:0 5:0 6:0 7:0 8:0 9:0 10:0 
1 1:39 2:9 3:0 4:0 5:0 6:0 7:0 8:0 9:0 10:0 
-1 1:39 2:9 3:0 4:0 5:0 6:0 7:0 8:0 9:0 10:0 
-1 1:39 2:9 3:0 4:0 5:0 6:0 7:0 8:0 9:0 10:0 
-1 1:39 2:9 3:0 4:0 5:0 6:0 7:0 8:0 9:0 10:0 
-1 1:39 2:9 3:0 4:0 5:0 6:0 7:0 8:0 9:0 10:0 
-1 1:39 2:9 3:0 4:0 5:0 6:0 7:0 8:0 9:0 10:0 
-1 1:39 2:9 3:0 4:0 5:0 6:0 7:0 8:0 9:0 10:0 
-1 1:39 2:9 3:0 4:0 5:0 6:0 7:0 8:0 9:0 10:0 
-1 1:39 2:9 3:0 4:0 5:0 6:0 7:0 8:0 9:0 10:0 
-1 1:45 2:3 3:0 4:0 5:0 6:0 7:0 8:0 9:0 10:0 
-1 1:39 2:9 3:0 4:0 5:0 6:0 7:0 8:0 9:0 10:0 
-1 1:39 2:9 3:0 4:0 5:0 6:0 7:0 8:0 9:0 10:0 
-1 1:45 2:3 3:0 4:0 5:0 6:0 7:0 8:0 9:0 10:0 
-1 1:38 2:10 3:0 4:0 5:0 6:0 7:0 8:0 9:0 10:0 
-1 1:38 2:10 3:0 4:0 5:0 6:0 7:0 8:0 9:0 10:0 
-1 1:38 2:10 3:0 4:0 5:0 6:0 7:0 8:0 9:0 10:0 
-1 1:38 2:10 3:0 4:0 5:0 6:0 7:0 8:0 9:0 10:0 
-1 1:38 2:10 3:0 4:0 5:0 6:0 7:0 8:0 9:0 10:0 
-1 1:38 2:10 3:0 4:0 5:0 6:0 7:0 8:0 9:0 10:0 
-1 1:38 2:10 3:0 4:0 5:0 6:0 7:0 8:0 9:0 10:0 
-1 1:38 2:10 3:0 4:0 5:0 6:0 7:0 8:0 9:0 10:0 
-1 1:38 2:10 3:0 4:0 5:0 6:0 7:0 8:0 9:0 10:0 
-1 1:39 2:9 3:0 4:0 5:0 6:0 7:0 8:0 9:0 10:0 
-0.7056354863618968 1:39 2:8 3:1 4:0 5:0 6:0 7:0 8:0 9:0 10:0 
-1 1:39 2:9 3:0 4:0 5:0 6:0 7:0 8:0 9:0 10:0 
-1 1:39 2:9 3:0 4:0 5:0 6:0 7:0 8:0 9:0 10:0 
-1 1:39 2:9 3:0 4:0 5:0 6:0 7:0 8:0 9:0 10:0 
-1 1:40 2:8 3:0 4:0 5:0 6:0 7:0 8:0 9:0 10:0 
-1 1:40 2:8 3:0 4:0 5:0 6:0 7:0 8:0 9:0 10:0 
-1 1:40 2:8 3:0 4:0 5:0 6:0 7:0 8:0 9:0 10:0 
-1 1:40 2:8 3:0 4:0 5:0 6:0 7:0 8:0 9:0 10:0 
-0.6469771589191263 1:40 2:8 3:0 4:0 5:0 6:0 7:0 8:0 9:0 10:0 
-1 1:41 2:7 3:0 4:0 5:0 6:0 7:0 8:0 9:0 10:0 
-1 1:41 2:7 3:0 4:0 5:0 6:0 7:0 8:0 9:0 10:0 
-1 1:44 2:4 3:0 4:0 5:0 6:0 7:0 8:0 9:0 10:0 
-1 1:44 2:4 3:0 4:0 5:0 6:0 7:0 8:0 9:0 10:0 
-1 1:42 2:6 3:0 4:0 5:0 6:0 7:0 8:0 9:0 10:0 
-1 1:42 2:6 3:0 4:0 5:0 6:0 7:0 8:0 9:0 10:0 
-1 1:42 2:6 3:0 4:0 5:0 6:0 7:0 8:0 9:0 10:0 
-1 1:42 2:6 3:0 4:0 5:0 6:0 7:0 8:0 9:0 10:0 
-1 1:44 2:4 3:0 4:0 5:0 6:0 7:0 8:0 9:0 10:0 
-1 1:43 2:5 3:0 4:0 5:0 6:0 7:0 8:0 9:0 10:0 
-1 1:42 2:6 3:0 4:0 5:0 6:0 7:0 8:0 9:0 10:0 
-1 1:42 2:6 3:0 4:0 5:0 6:0 7:0 8:0 9:0 10:0 
-1 1:42 2:6 3:0 4:0 5:0 6:0 7:0 8:0 9:0 10:0 
-1 1:42 2:6 3:0 4:0 5:0 6:0 7:0 8:0 9:0 10:0 
-1 1:42 2:6 3:0 4:0 5:0 6:0 7:0 8:0 9:0 10:0 
-1 1:42 2:6 3:0 4:0 5:0 6:0 7:0 8:0 9:0 10:0 
-1 1:42 2:6 3:0 4:0 5:0 6:0 7:0 8:0 9:0 10:0 
-1 1:42 2:6 3:0 4:0 5:0 6:0 7:0 8:0 9:0 10:0 
-1 1:42 2:6 3:0 4:0 5:0 6:0 7:0 8:0 9:0 10:0 
-1 1:42 2:6 3:0 4:0 5:0 6:0 7:0 8:0 9:0 10:0 
-1 1:42 2:6 3:0 4:0 5:0 6:0 7:0 8:0 9:0 10:0 
-1 1:41 2:7 3:0 4:0 5:0 6:0 7:0 8:0 9:0 10:0 
-1 1:41 2:7 3:0 4:0 5:0 6:0 7:0 8:0 9:0 10:0 
-0.999999999999999 1:41 2:7 3:0 4:0 5:0 6:0 7:0 8:0 9:0 10:0 
-1 1:42 2:6 3:0 4:0 5:0 6:0 7:0 8:0 9:0 10:0 
-1 1:42 2:6 3:0 4:0 5:0 6:0 7:0 8:0 9:0 10:0 
-1 1:42 2:6 3:0 4:0 5:0 6:0 7:0 8:0 9:0 10:0 
-1 1:42 2:6 3:0 4:0 5:0 6:0 7:0 8:0 9:0 10:0 
-1 1:43 2:5 3:0 4:0 5:0 6:0 7:0 8:0 9:0 10:0 
-0.999999999999999 1:43 2:5 3:0 4:0 5:0 6:0 7:0 8:0 9:0 10:0 
