svm_type c_svc
kernel_type intersection
nr_class 2
total_sv 288
rho -0.343583
label 1 -1
nr_sv 145 143
SV
1 1:357 2:3 3:0 4:0 5:0 6:0 7:0 8:0 9:0 10:0 
1 1:350 2:10 3:0 4:0 5:0 6:0 7:0 8:0 9:0 10:0 
1 1:351 2:9 3:0 4:0 5:0 6:0 7:0 8:0 9:0 10:0 
1 1:357 2:3 3:0 4:0 5:0 6:0 7:0 8:0 9:0 10:0 
1 1:352 2:8 3:0 4:0 5:0 6:0 7:0 8:0 9:0 10:0 
1 1:356 2:4 3:0 4:0 5:0 6:0 7:0 8:0 9:0 10:0 
0.2942896072407207 1:349 2:11 3:0 4:0 5:0 6:0 7:0 8:0 9:0 10:0 
1 1:349 2:11 3:0 4:0 5:0 6:0 7:0 8:0 9:0 10:0 
1 1:352 2:8 3:0 4:0 5:0 6:0 7:0 8:0 9:0 10:0 
1 1:353 2:7 3:0 4:0 5:0 6:0 7:0 8:0 9:0 10:0 
1 1:356 2:4 3:0 4:0 5:0 6:0 7:0 8:0 9:0 10:0 
1 1:351 2:9 3:0 4:0 5:0 6:0 7:0 8:0 9:0 10:0 
1 1:349 2:11 3:0 4:0 5:0 6:0 7:0 8:0 9:0 10:0 
1 1:353 2:7 3:0 4:0 5:0 6:0 7:0 8:0 9:0 10:0 
1 1:356 2:4 3:0 4:0 5:0 6:0 7:0 8:0 9:0 10:0 
1 1:353 2:7 3:0 4:0 5:0 6:0 7:0 8:0 9:0 10:0 
1 1:350 2:10 3:0 4:0 5:0 6:0 7:0 8:0 9:0 10:0 
1 1:357 2:3 3:0 4:0 5:0 6:0 7:0 8:0 9:0 10:0 
1 1:355 2:5 3:0 4:0 5:0 6:0 7:0 8:0 9:0 10:0 
1 1:349 2:11 3:0 4:0 5:0 6:0 7:0 8:0 9:0 10:0 
1 1:349 2:11 3:0 4:0 5:0 6:0 7:0 8:0 9:0 10:0 
1 1:350 2:10 3:0 4:0 5:0 6:0 7:0 8:0 9:0 10:0 
1 1:350 2:10 3:0 4:0 5:0 6:0 7:0 8:0 9:0 10:0 
1 1:352 2:8 3:0 4:0 5:0 6:0 7:0 8:0 9:0 10:0 
1 1:351 2:9 3:0 4:0 5:0 6:0 7:0 8:0 9:0 10:0 
1 1:349 2:11 3:0 4:0 5:0 6:0 7:0 8:0 9:0 10:0 
1 1:352 2:8 3:0 4:0 5:0 6:0 7:0 8:0 9:0 10:0 
1 1:352 2:8 3:0 4:0 5:0 6:0 7:0 8:0 9:0 10:0 
1 1:352 2:8 3:0 4:0 5:0 6:0 7:0 8:0 9:0 10:0 
1 1:352 2:8 3:0 4:0 5:0 6:0 7:0 8:0 9:0 10:0 
1 1:349 2:11 3:0 4:0 5:0 6:0 7:0 8:0 9:0 10:0 
1 1:349 2:11 3:0 4:0 5:0 6:0 7:0 8:0 9:0 10:0 
1 1:351 2:9 3:0 4:0 5:0 6:0 7:0 8:0 9:0 10:0 
1 1:351 2:9 3:0 4:0 5:0 6:0 7:0 8:0 9:0 10:0 
1 1:349 2:11 3:0 4:0 5:0 6:0 7:0 8:0 9:0 10:0 
1 1:351 2:9 3:0 4:0 5:0 6:0 7:0 8:0 9:0 10:0 
1 1:352 2:8 3:0 4:0 5:0 6:0 7:0 8:0 9:0 10:0 
1 1:352 2:8 3:0 4:0 5:0 6:0 7:0 8:0 9:0 10:0 
1 1:351 2:9 3:0 4:0 5:0 6:0 7:0 8:0 9:0 10:0 
1 1:349 2:11 3:0 4:0 5:0 6:0 7:0 8:0 9:0 10:0 
1 1:350 2:10 3:0 4:0 5:0 6:0 7:0 8:0 9:0 10:0 
1 1:350 2:10 3:0 4:0 5:0 6:0 7:0 8:0 9:0 10:0 
1 1:350 2:10 3:0 4:0 5:0 6:0 7:0 8:0 9:0 10:0 
1 1:349 2:11 3:0 4:0 5:0 6:0 7:0 8:0 9:0 10:0 
1 1:350 2:10 3:0 4:0 5:0 6:0 7:0 8:0 9:0 10:0 
1 1:349 2:11 3:0 4:0 5:0 6:0 7:0 8:0 9:0 10:0 
1 1:354 2:6 3:0 4:0 5:0 6:0 7:0 8:0 9:0 10:0 
1 1:354 2:6 3:0 4:0 5:0 6:0 7:0 8:0 9:0 10:0 
1 1:353 2:7 3:0 4:0 5:0 6:0 7:0 8:0 9:0 10:0 
1 1:355 2:5 3:0 4:0 5:0 6:0 7:0 8:0 9:0 10:0 
1 1:353 2:7 3:0 4:0 5:0 6:0 7:0 8:0 9:0 10:0 
1 1:350 2:10 3:0 4:0 5:0 6:0 7:0 8:0 9:0 10:0 
1 1:349 2:10 3:1 4:0 5:0 6:0 7:0 8:0 9:0 10:0 
1 1:348 2:11 3:1 4:0 5:0 6:0 7:0 8:0 9:0 10:0 
1 1:346 2:11 3:3 4:0 5:0 6:0 7:0 8:0 9:0 10:0 
0.0761055443812115 1:345 2:12 3:3 4:0 5:0 6:0 7:0 8:0 9:0 10:0 
1 1:349 2:11 3:0 4:0 5:0 6:0 7:0 8:0 9:0 10:0 
1 1:353 2:7 3:0 4:0 5:0 6:0 7:0 8:0 9:0 10:0 
1 1:355 2:5 3:0 4:0 5:0 6:0 7:0 8:0 9:0 10:0 
1 1:357 2:3 3:0 4:0 5:0 6:0 7:0 8:0 9:0 10:0 
1 1:356 2:4 3:0 4:0 5:0 6:0 7:0 8:0 9:0 10:0 
1 1:352 2:8 3:0 4:0 5:0 6:0 7:0 8:0 9:0 10:0 
1 1:349 2:11 3:0 4:0 5:0 6:0 7:0 8:0 9:0 10:0 
1 1:349 2:11 3:0 4:0 5:0 6:0 7:0 8:0 9:0 10:0 
1 1:349 2:11 3:0 4:0 5:0 6:0 7:0 8:0 9:0 10:0 
1 1:349 2:11 3:0 4:0 5:0 6:0 7:0 8:0 9:0 10:0 
1 1:349 2:11 3:0 4:0 5:0 6:0 7:0 8:0 9:0 10:0 
1 1:349 2:11 3:0 4:0 5:0 6:0 7:0 8:0 9:0 10:0 
1 1:350 2:10 3:0 4:0 5:0 6:0 7:0 8:0 9:0 10:0 
1 1:349 2:11 3:0 4:0 5:0 6:0 7:0 8:0 9:0 10:0 
1 1:351 2:9 3:0 4:0 5:0 6:0 7:0 8:0 9:0 10:0 
1 1:351 2:9 3:0 4:0 5:0 6:0 7:0 8:0 9:0 10:0 
1 1:352 2:8 3:0 4:0 5:0 6:0 7:0 8:0 9:0 10:0 
1 1:353 2:7 3:0 4:0 5:0 6:0 7:0 8:0 9:0 10:0 
1 1:352 2:8 3:0 4:0 5:0 6:0 7:0 8:0 9:0 10:0 
1 1:351 2:9 3:0 4:0 5:0 6:0 7:0 8:0 9:0 10:0 
1 1:352 2:8 3:0 4:0 5:0 6:0 7:0 8:0 9:0 10:0 
1 1:352 2:8 3:0 4:0 5:0 6:0 7:0 8:0 9:0 10:0 
1 1:355 2:5 3:0 4:0 5:0 6:0 7:0 8:0 9:0 10:0 
1 1:356 2:4 3:0 4:0 5:0 6:0 7:0 8:0 9:0 10:0 
1 1:355 2:5 3:0 4:0 5:0 6:0 7:0 8:0 9:0 10:0 
1 1:355 2:5 3:0 4:0 5:0 6:0 7:0 8:0 9:0 10:0 
1 1:355 2:5 3:0 4:0 5:0 6:0 7:0 8:0 9:0 10:0 
1 1:352 2:8 3:0 4:0 5:0 6:0 7:0 8:0 9:0 10:0 
1 1:350 2:10 3:0 4:0 5:0 6:0 7:0 8:0 9:0 10:0 
1 1:349 2:11 3:0 4:0 5:0 6:0 7:0 8:0 9:0 10:0 
1 1:350 2:10 3:0 4:0 5:0 6:0 7:0 8:0 9:0 10:0 
1 1:350 2:10 3:0 4:0 5:0 6:0 7:0 8:0 9:0 10:0 
1 1:351 2:9 3:0 4:0 5:0 6:0 7:0 8:0 9:0 10:0 
1 1:349 2:11 3:0 4:0 5:0 6:0 7:0 8:0 9:0 10:0 
1 1:350 2:10 3:0 4:0 5:0 6:0 7:0 8:0 9:0 10:0 
1 1:350 2:10 3:0 4:0 5:0 6:0 7:0 8:0 9:0 10:0 
1 1:351 2:9 3:0 4:0 5:0 6:0 7:0 8:0 9:0 10:0 
1 1:351 2:9 3:0 4:0 5:0 6:0 7:0 8:0 9:0 10:0 
1 1:350 2:10 3:0 4:0 5:0 6:0 7:0 8:0 9:0 10:0 
1 1:350 2:10 3:0 4:0 5:0 6:0 7:0 8:0 9:0 10:0 
1 1:349 2:11 3:0 4:0 5:0 6:0 7:0 8:0 9:0 10:0 
1 1:349 2:11 3:0 4:0 5:0 6:0 7:0 8:0 9:0 10:0 
0.06150084413976631 1:348 2:12 3:0 4:0 5:0 6:0 7:0 8:0 9:0 10:0 
1 1:350 2:10 3:0 4:0 5:0 6:0 7:0 8:0 9:0 10:0 
1 1:351 2:9 3:0 4:0 5:0 6:0 7:0 8:0 9:0 10:0 
1 1:350 2:10 3:0 4:0 5:0 6:0 7:0 8:0 9:0 10:0 
1 1:348 2:12 3:0 4:0 5:0 6:0 7:0 8:0 9:0 10:0 
1 1:348 2:12 3:0 4:0 5:0 6:0 7:0 8:0 9:0 10:0 
1 1:348 2:12 3:0 4:0 5:0 6:0 7:0 8:0 9:0 10:0 
1 1:348 2:12 3:0 4:0 5:0 6:0 7:0 8:0 9:0 10:0 
1 1:348 2:12 3:0 4:0 5:0 6:0 7:0 8:0 9:0 10:0 
0.1123133108101217 1:344 2:14 3:2 4:0 5:0 6:0 7:0 8:0 9:0 10:0 
1 1:348 2:12 3:0 4:0 5:0 6:0 7:0 8:0 9:0 10:0 
1 1:349 2:11 3:0 4:0 5:0 6:0 7:0 8:0 9:0 10:0 
1 1:348 2:12 3:0 4:0 5:0 6:0 7:0 8:0 9:0 10:0 
1 1:349 2:11 3:0 4:0 5:0 6:0 7:0 8:0 9:0 10:0 
1 1:348 2:12 3:0 4:0 5:0 6:0 7:0 8:0 9:0 10:0 
1 1:348 2:12 3:0 4:0 5:0 6:0 7:0 8:0 9:0 10:0 
1 1:348 2:12 3:0 4:0 5:0 6:0 7:0 8:0 9:0 10:0 
1 1:350 2:10 3:0 4:0 5:0 6:0 7:0 8:0 9:0 10:0 
1 1:352 2:8 3:0 4:0 5:0 6:0 7:0 8:0 9:0 10:0 
1 1:352 2:8 3:0 4:0 5:0 6:0 7:0 8:0 9:0 10:0 
1 1:350 2:10 3:0 4:0 5:0 6:0 7:0 8:0 9:0 10:0 
1 1:350 2:10 3:0 4:0 5:0 6:0 7:0 8:0 9:0 10:0 
1 1:350 2:10 3:0 4:0 5:0 6:0 7:0 8:0 9:0 10:0 
1 1:350 2:10 3:0 4:0 5:0 6:0 7:0 8:0 9:0 10:0 
1 1:350 2:10 3:0 4:0 5:0 6:0 7:0 8:0 9:0 10:0 
1 1:350 2:10 3:0 4:0 5:0 6:0 7:0 8:0 9:0 10:0 
1 1:350 2:10 3:0 4:0 5:0 6:0 7:0 8:0 9:0 10:0 
1 1:355 2:5 3:0 4:0 5:0 6:0 7:0 8:0 9:0 10:0 
1 1:349 2:11 3:0 4:0 5:0 6:0 7:0 8:0 9:0 10:0 
1 1:349 2:11 3:0 4:0 5:0 6:0 7:0 8:0 9:0 10:0 
1 1:349 2:11 3:0 4:0 5:0 6:0 7:0 8:0 9:0 10:0 
1 1:348 2:12 3:0 4:0 5:0 6:0 7:0 8:0 9:0 10:0 
1 1:348 2:12 3:0 4:0 5:0 6:0 7:0 8:0 9:0 10:0 
1 1:352 2:8 3:0 4:0 5:0 6:0 7:0 8:0 9:0 10:0 
1 1:355 2:5 3:0 4:0 5:0 6:0 7:0 8:0 9:0 10:0 
1 1:354 2:6 3:0 4:0 5:0 6:0 7:0 8:0 9:0 10:0 
1 1:352 2:8 3:0 4:0 5:0 6:0 7:0 8:0 9:0 10:0 
1 1:346 2:13 3:1 4:0 5:0 6:0 7:0 8:0 9:0 10:0 
0.75 1:347 2:13 3:0 4:0 5:0 6:0 7:0 8:0 9:0 10:0 
1 1:349 2:11 3:0 4:0 5:0 6:0 7:0 8:0 9:0 10:0 
1 1:348 2:12 3:0 4:0 5:0 6:0 7:0 8:0 9:0 10:0 
0.5996148522698741 1:347 2:13 3:0 4:0 5:0 6:0 7:0 8:0 9:0 10:0 
1.686919534928444e-005 1:324 2:34 3:2 4:0 5:0 6:0 7:0 8:0 9:0 10:0 
1 1:350 2:10 3:0 4:0 5:0 6:0 7:0 8:0 9:0 10:0 
1 1:350 2:10 3:0 4:0 5:0 6:0 7:0 8:0 9:0 10:0 
1 1:353 2:7 3:0 4:0 5:0 6:0 7:0 8:0 9:0 10:0 
1 1:355 2:5 3:0 4:0 5:0 6:0 7:0 8:0 9:0 10:0 
-1 1:348 2:12 3:0 4:0 5:0 6:0 7:0 8:0 9:0 10:0 
-1 1:349 2:11 3:0 4:0 5:0 6:0 7:0 8:0 9:0 10:0 
-1 1:346 2:12 3:2 4:0 5:0 6:0 7:0 8:0 9:0 10:0 
-1 1:347 2:13 3:0 4:0 5:0 6:0 7:0 8:0 9:0 10:0 
-1 1:349 2:11 3:0 4:0 5:0 6:0 7:0 8:0 9:0 10:0 
-1 1:349 2:11 3:0 4:0 5:0 6:0 7:0 8:0 9:0 10:0 
-1 1:349 2:11 3:0 4:0 5:0 6:0 7:0 8:0 9:0 10:0 
-1 1:349 2:11 3:0 4:0 5:0 6:0 7:0 8:0 9:0 10:0 
-1 1:349 2:11 3:0 4:0 5:0 6:0 7:0 8:0 9:0 10:0 
-1 1:348 2:12 3:0 4:0 5:0 6:0 7:0 8:0 9:0 10:0 
-1 1:349 2:11 3:0 4:0 5:0 6:0 7:0 8:0 9:0 10:0 
-1 1:349 2:11 3:0 4:0 5:0 6:0 7:0 8:0 9:0 10:0 
-1 1:349 2:11 3:0 4:0 5:0 6:0 7:0 8:0 9:0 10:0 
-1 1:349 2:11 3:0 4:0 5:0 6:0 7:0 8:0 9:0 10:0 
-1 1:349 2:11 3:0 4:0 5:0 6:0 7:0 8:0 9:0 10:0 
-1 1:349 2:11 3:0 4:0 5:0 6:0 7:0 8:0 9:0 10:0 
-1 1:349 2:11 3:0 4:0 5:0 6:0 7:0 8:0 9:0 10:0 
-1 1:349 2:11 3:0 4:0 5:0 6:0 7:0 8:0 9:0 10:0 
-1 1:348 2:12 3:0 4:0 5:0 6:0 7:0 8:0 9:0 10:0 
-1 1:349 2:11 3:0 4:0 5:0 6:0 7:0 8:0 9:0 10:0 
-0.1990984505245492 1:348 2:11 3:1 4:0 5:0 6:0 7:0 8:0 9:0 10:0 
-1 1:349 2:11 3:0 4:0 5:0 6:0 7:0 8:0 9:0 10:0 
-1 1:348 2:12 3:0 4:0 5:0 6:0 7:0 8:0 9:0 10:0 
-1 1:348 2:12 3:0 4:0 5:0 6:0 7:0 8:0 9:0 10:0 
-1 1:348 2:12 3:0 4:0 5:0 6:0 7:0 8:0 9:0 10:0 
-1 1:349 2:11 3:0 4:0 5:0 6:0 7:0 8:0 9:0 10:0 
-1 1:349 2:11 3:0 4:0 5:0 6:0 7:0 8:0 9:0 10:0 
-0.4998330899896317 1:350 2:10 3:0 4:0 5:0 6:0 7:0 8:0 9:0 10:0 
-1 1:350 2:10 3:0 4:0 5:0 6:0 7:0 8:0 9:0 10:0 
-1 1:350 2:10 3:0 4:0 5:0 6:0 7:0 8:0 9:0 10:0 
-1 1:350 2:10 3:0 4:0 5:0 6:0 7:0 8:0 9:0 10:0 
-1 1:350 2:10 3:0 4:0 5:0 6:0 7:0 8:0 9:0 10:0 
-1 1:350 2:10 3:0 4:0 5:0 6:0 7:0 8:0 9:0 10:0 
-1 1:350 2:10 3:0 4:0 5:0 6:0 7:0 8:0 9:0 10:0 
-1 1:350 2:10 3:0 4:0 5:0 6:0 7:0 8:0 9:0 10:0 
-1 1:350 2:10 3:0 4:0 5:0 6:0 7:0 8:0 9:0 10:0 
-1 1:350 2:10 3:0 4:0 5:0 6:0 7:0 8:0 9:0 10:0 
-1 1:348 2:12 3:0 4:0 5:0 6:0 7:0 8:0 9:0 10:0 
-1 1:348 2:12 3:0 4:0 5:0 6:0 7:0 8:0 9:0 10:0 
-1 1:350 2:10 3:0 4:0 5:0 6:0 7:0 8:0 9:0 10:0 
-1 1:349 2:11 3:0 4:0 5:0 6:0 7:0 8:0 9:0 10:0 
-1 1:350 2:10 3:0 4:0 5:0 6:0 7:0 8:0 9:0 10:0 
-1 1:350 2:10 3:0 4:0 5:0 6:0 7:0 8:0 9:0 10:0 
-1 1:350 2:10 3:0 4:0 5:0 6:0 7:0 8:0 9:0 10:0 
-1 1:350 2:10 3:0 4:0 5:0 6:0 7:0 8:0 9:0 10:0 
-1 1:350 2:10 3:0 4:0 5:0 6:0 7:0 8:0 9:0 10:0 
-1 1:350 2:10 3:0 4:0 5:0 6:0 7:0 8:0 9:0 10:0 
-1 1:349 2:11 3:0 4:0 5:0 6:0 7:0 8:0 9:0 10:0 
-1 1:347 2:13 3:0 4:0 5:0 6:0 7:0 8:0 9:0 10:0 
-1 1:348 2:12 3:0 4:0 5:0 6:0 7:0 8:0 9:0 10:0 
-1 1:349 2:11 3:0 4:0 5:0 6:0 7:0 8:0 9:0 10:0 
-1 1:349 2:11 3:0 4:0 5:0 6:0 7:0 8:0 9:0 10:0 
-1 1:349 2:11 3:0 4:0 5:0 6:0 7:0 8:0 9:0 10:0 
-1 1:348 2:12 3:0 4:0 5:0 6:0 7:0 8:0 9:0 10:0 
-1 1:350 2:10 3:0 4:0 5:0 6:0 7:0 8:0 9:0 10:0 
-1 1:350 2:10 3:0 4:0 5:0 6:0 7:0 8:0 9:0 10:0 
-1 1:349 2:11 3:0 4:0 5:0 6:0 7:0 8:0 9:0 10:0 
-0.389652558785933 1:349 2:8 3:3 4:0 5:0 6:0 7:0 8:0 9:0 10:0 
-1 1:348 2:11 3:1 4:0 5:0 6:0 7:0 8:0 9:0 10:0 
-1 1:348 2:11 3:1 4:0 5:0 6:0 7:0 8:0 9:0 10:0 
-1 1:348 2:11 3:1 4:0 5:0 6:0 7:0 8:0 9:0 10:0 
-1 1:347 2:12 3:1 4:0 5:0 6:0 7:0 8:0 9:0 10:0 
-6.551906708169436e-005 1:349 2:6 3:5 4:0 5:0 6:0 7:0 8:0 9:0 10:0 
-1 1:350 2:10 3:0 4:0 5:0 6:0 7:0 8:0 9:0 10:0 
-1 1:350 2:10 3:0 4:0 5:0 6:0 7:0 8:0 9:0 10:0 
-1 1:351 2:9 3:0 4:0 5:0 6:0 7:0 8:0 9:0 10:0 
-1 1:351 2:9 3:0 4:0 5:0 6:0 7:0 8:0 9:0 10:0 
-1 1:350 2:10 3:0 4:0 5:0 6:0 7:0 8:0 9:0 10:0 
-1 1:351 2:9 3:0 4:0 5:0 6:0 7:0 8:0 9:0 10:0 
-1 1:351 2:9 3:0 4:0 5:0 6:0 7:0 8:0 9:0 10:0 
-1 1:350 2:10 3:0 4:0 5:0 6:0 7:0 8:0 9:0 10:0 
-1 1:349 2:11 3:0 4:0 5:0 6:0 7:0 8:0 9:0 10:0 
-1 1:351 2:9 3:0 4:0 5:0 6:0 7:0 8:0 9:0 10:0 
-1 1:351 2:9 3:0 4:0 5:0 6:0 7:0 8:0 9:0 10:0 
-1 1:350 2:10 3:0 4:0 5:0 6:0 7:0 8:0 9:0 10:0 
-1 1:351 2:9 3:0 4:0 5:0 6:0 7:0 8:0 9:0 10:0 
-1 1:351 2:9 3:0 4:0 5:0 6:0 7:0 8:0 9:0 10:0 
-1 1:351 2:9 3:0 4:0 5:0 6:0 7:0 8:0 9:0 10:0 
-1 1:350 2:10 3:0 4:0 5:0 6:0 7:0 8:0 9:0 10:0 
-1 1:349 2:11 3:0 4:0 5:0 6:0 7:0 8:0 9:0 10:0 
-1 1:351 2:9 3:0 4:0 5:0 6:0 7:0 8:0 9:0 10:0 
-1 1:351 2:9 3:0 4:0 5:0 6:0 7:0 8:0 9:0 10:0 
-1 1:351 2:9 3:0 4:0 5:0 6:0 7:0 8:0 9:0 10:0 
-1 1:348 2:12 3:0 4:0 5:0 6:0 7:0 8:0 9:0 10:0 
-1 1:350 2:10 3:0 4:0 5:0 6:0 7:0 8:0 9:0 10:0 
-1 1:351 2:9 3:0 4:0 5:0 6:0 7:0 8:0 9:0 10:0 
-1 1:350 2:10 3:0 4:0 5:0 6:0 7:0 8:0 9:0 10:0 
-1 1:350 2:10 3:0 4:0 5:0 6:0 7:0 8:0 9:0 10:0 
-1 1:349 2:11 3:0 4:0 5:0 6:0 7:0 8:0 9:0 10:0 
-1 1:349 2:11 3:0 4:0 5:0 6:0 7:0 8:0 9:0 10:0 
-1 1:351 2:9 3:0 4:0 5:0 6:0 7:0 8:0 9:0 10:0 
-1 1:353 2:7 3:0 4:0 5:0 6:0 7:0 8:0 9:0 10:0 
-1 1:353 2:7 3:0 4:0 5:0 6:0 7:0 8:0 9:0 10:0 
-1 1:353 2:7 3:0 4:0 5:0 6:0 7:0 8:0 9:0 10:0 
-1 1:353 2:7 3:0 4:0 5:0 6:0 7:0 8:0 9:0 10:0 
-1 1:353 2:7 3:0 4:0 5:0 6:0 7:0 8:0 9:0 10:0 
-1 1:352 2:8 3:0 4:0 5:0 6:0 7:0 8:0 9:0 10:0 
-1 1:352 2:8 3:0 4:0 5:0 6:0 7:0 8:0 9:0 10:0 
-1 1:352 2:8 3:0 4:0 5:0 6:0 7:0 8:0 9:0 10:0 
-1 1:352 2:8 3:0 4:0 5:0 6:0 7:0 8:0 9:0 10:0 
-1 1:352 2:8 3:0 4:0 5:0 6:0 7:0 8:0 9:0 10:0 
-1 1:352 2:8 3:0 4:0 5:0 6:0 7:0 8:0 9:0 10:0 
-1 1:352 2:8 3:0 4:0 5:0 6:0 7:0 8:0 9:0 10:0 
-1 1:352 2:8 3:0 4:0 5:0 6:0 7:0 8:0 9:0 10:0 
-1 1:352 2:8 3:0 4:0 5:0 6:0 7:0 8:0 9:0 10:0 
-1 1:352 2:8 3:0 4:0 5:0 6:0 7:0 8:0 9:0 10:0 
-1 1:352 2:8 3:0 4:0 5:0 6:0 7:0 8:0 9:0 10:0 
-1 1:352 2:8 3:0 4:0 5:0 6:0 7:0 8:0 9:0 10:0 
-1 1:352 2:8 3:0 4:0 5:0 6:0 7:0 8:0 9:0 10:0 
-1 1:352 2:8 3:0 4:0 5:0 6:0 7:0 8:0 9:0 10:0 
-1 1:352 2:8 3:0 4:0 5:0 6:0 7:0 8:0 9:0 10:0 
-1 1:352 2:8 3:0 4:0 5:0 6:0 7:0 8:0 9:0 10:0 
-1 1:352 2:8 3:0 4:0 5:0 6:0 7:0 8:0 9:0 10:0 
-1 1:353 2:7 3:0 4:0 5:0 6:0 7:0 8:0 9:0 10:0 
-1 1:353 2:7 3:0 4:0 5:0 6:0 7:0 8:0 9:0 10:0 
-1 1:352 2:8 3:0 4:0 5:0 6:0 7:0 8:0 9:0 10:0 
-1 1:350 2:10 3:0 4:0 5:0 6:0 7:0 8:0 9:0 10:0 
-1 1:350 2:10 3:0 4:0 5:0 6:0 7:0 8:0 9:0 10:0 
-1 1:350 2:10 3:0 4:0 5:0 6:0 7:0 8:0 9:0 10:0 
-1 1:353 2:7 3:0 4:0 5:0 6:0 7:0 8:0 9:0 10:0 
-0.8053224478040187 1:352 2:8 3:0 4:0 5:0 6:0 7:0 8:0 9:0 10:0 
-1 1:356 2:4 3:0 4:0 5:0 6:0 7:0 8:0 9:0 10:0 
-1 1:357 2:3 3:0 4:0 5:0 6:0 7:0 8:0 9:0 10:0 
-1 1:356 2:4 3:0 4:0 5:0 6:0 7:0 8:0 9:0 10:0 
-1 1:356 2:4 3:0 4:0 5:0 6:0 7:0 8:0 9:0 10:0 
-1 1:356 2:4 3:0 4:0 5:0 6:0 7:0 8:0 9:0 10:0 
-0.999950934441685 1:356 2:4 3:0 4:0 5:0 6:0 7:0 8:0 9:0 10:0 
-1 1:357 2:3 3:0 4:0 5:0 6:0 7:0 8:0 9:0 10:0 
-1 1:357 2:3 3:0 4:0 5:0 6:0 7:0 8:0 9:0 10:0 
-1 1:355 2:5 3:0 4:0 5:0 6:0 7:0 8:0 9:0 10:0 
-1 1:355 2:5 3:0 4:0 5:0 6:0 7:0 8:0 9:0 10:0 
-1 1:355 2:5 3:0 4:0 5:0 6:0 7:0 8:0 9:0 10:0 
-1 1:355 2:5 3:0 4:0 5:0 6:0 7:0 8:0 9:0 10:0 
-1 1:355 2:5 3:0 4:0 5:0 6:0 7:0 8:0 9:0 10:0 
-1 1:355 2:5 3:0 4:0 5:0 6:0 7:0 8:0 9:0 10:0 
-1 1:355 2:5 3:0 4:0 5:0 6:0 7:0 8:0 9:0 10:0 
-1 1:355 2:5 3:0 4:0 5:0 6:0 7:0 8:0 9:0 10:0 
-1 1:355 2:5 3:0 4:0 5:0 6:0 7:0 8:0 9:0 10:0 
-1 1:354 2:6 3:0 4:0 5:0 6:0 7:0 8:0 9:0 10:0 
-1 1:357 2:3 3:0 4:0 5:0 6:0 7:0 8:0 9:0 10:0 
-1 1:354 2:6 3:0 4:0 5:0 6:0 7:0 8:0 9:0 10:0 
-1 1:355 2:5 3:0 4:0 5:0 6:0 7:0 8:0 9:0 10:0 
-0.9999180274241443 1:354 2:6 3:0 4:0 5:0 6:0 7:0 8:0 9:0 10:0 
