svm_type c_svc
kernel_type rbf
gamma 0.00520833
nr_class 3
total_sv 100
rho -0.849911 -0.848383 0.81548
label 1 0 -1
nr_sv 39 28 33
SV
0.9212206520268784 0.8018176898906951 1:0.77834 2:0.036561 3:0.26776 4:0.22373 5:0.48825 6:0.71501 7:0.59473 8:0.76894 9:0.31895 10:0.77262 11:0.99077 12:0.096617 13:0.90943 14:0.73646 15:0.99404 16:0.7445 17:0.25745 18:0.22718 19:0.18068 20:0.25907 21:0.53097 22:0.32042 23:0.23427 24:0.13919 25:0.79516 26:0.13238 27:0.42069 28:0.63579 29:0.54725 30:0.4862 31:0.76783 32:0.058829 33:0.51411 34:0.17435 35:0.0036877 36:0.63301 37:0.64983 38:0.35051 39:0.81894 40:0.8546 41:0.81886 42:0.35388 43:0.0077761 44:0.18873 45:0.2679 46:0.45878 47:0.2051 48:0.84162 49:0.51783 50:0.46857 51:0.4606 52:0.60926 53:0.87247 54:0.93532 55:0.81719 56:0.35971 57:0.46213 58:0.72934 59:0.95208 60:0.22734 61:0.024567 62:0.17915 63:0.58586 64:0.83783 65:0.77049 66:0.29213 67:0.82166 68:0.97315 69:0.075819 70:0.28395 71:0.24196 72:0.11789 73:0.44056 74:0.21777 75:0.22879 76:0.57751 77:0.13743 78:0.60965 79:0.61213 80:0.4812 81:0.55548 82:0.72198 83:0.77885 84:0.12678 85:0.25021 86:0.31312 87:0.67122 88:0.41312 89:0.18825 90:0.50667 91:0.44588 92:0.60268 93:0.04102 94:0.66126 95:0.11088 96:0.74241 97:0.26861 98:0.10016 99:0.7402 100:0.28667 101:0.68855 102:0.99095 103:0.01114 104:0.61788 105:0.20163 106:0.46602 107:0.43199 108:0.16439 109:0.19218 110:0.060421 111:0.52949 112:0.11955 113:0.038194 114:0.70339 115:0.34604 116:0.052377 117:0.55026 118:0.39412 119:0.0059449 120:0.71469 121:0.25358 122:0.54129 123:0.66148 124:0.29699 125:0.1748 126:0.13455 127:0.038363 128:0.77741 129:0.70685 130:0.84724 131:0.46749 132:0.50724 133:0.36589 134:0.96953 135:0.04636 136:0.47868 137:0.5236 138:0.7636 139:0.22633 140:0.13964 141:0.10148 142:0.12389 143:0.039879 144:0.66755 145:0.29553 146:0.026319 147:0.72526 148:0.38596 149:0.79977 150:0.1521 151:0.31803 152:0.6596 153:0.90966 154:0.439 155:0.036198 156:0.61142 157:0.36212 158:0.85116 159:0.45238 160:0.50292 161:0.049431 162:0.13512 163:0.60918 164:0.23981 165:0.13989 166:0.61296 167:0.58714 168:0.75984 169:0.19227 170:0.035753 171:0.61161 172:0.39133 173:0.868 174:0.068798 175:0.47625 176:0.14879 177:0.29197 178:0.37194 179:0.33189 180:0.76601 181:0.4734 182:0.49282 183:0.22614 184:0.60465 185:0.93842 186:0.024502 187:0.42159 188:0.91172 189:0.033546 190:0.95689 191:0.79996 192:0.60541 
0.9207033879157672 1 1:0.87172 2:0.15486 3:0.043276 4:0.16268 5:0.39099 6:0.20651 7:0.1281 8:0.68611 9:0.84947 10:0.4002 11:0.63939 12:0.64599 13:0.50167 14:0.31349 15:0.43279 16:0.27854 17:0.88851 18:0.38189 19:0.27867 20:0.19343 21:0.1238 22:0.79499 23:0.47161 24:0.037108 25:0.21594 26:0.66312 27:0.019139 28:0.45794 29:0.23221 30:0.21598 31:0.29262 32:0.89283 33:0.28289 34:0.78518 35:0.83955 36:0.30033 37:0.07647 38:0.43622 39:0.48952 40:0.49603 41:0.53356 42:0.08414 43:0.76919 44:0.67536 45:0.55204 46:0.45822 47:0.64768 48:0.69505 49:0.37756 50:0.027524 51:0.49325 52:0.56697 53:0.50135 54:0.26483 55:0.31456 56:0.62636 57:0.64396 58:0.41901 59:0.65275 60:0.088094 61:0.51822 62:0.17172 63:0.71041 64:0.00082966 65:0.22875 66:0.42987 67:0.38792 68:0.55252 69:0.083455 70:0.20783 71:0.05548 72:0.48197 73:0.97566 74:0.27404 75:0.24361 76:0.36435 77:0.25045 78:0.21276 79:0.13258 80:0.13317 81:0.60792 82:0.9279 83:0.27031 84:0.36983 85:0.90348 86:0.020728 87:0.46993 88:0.36606 89:0.088075 90:0.27241 91:0.88862 92:0.10088 93:0.41703 94:0.066442 95:0.8863 96:0.036595 97:0.087939 98:0.68135 99:0.68614 100:0.70264 101:0.77114 102:0.012261 103:0.53935 104:0.49028 105:0.31565 106:0.18563 107:0.051501 108:0.80414 109:0.21542 110:0.92631 111:0.077409 112:0.94969 113:0.81424 114:0.073212 115:0.11216 116:0.29179 117:0.37944 118:0.44046 119:0.20765 120:0.11763 121:0.22257 122:0.54676 123:0.29439 124:0.14716 125:0.7479 126:0.88697 127:0.3507 128:0.87142 129:0.063434 130:0.10116 131:0.60749 132:0.8173 133:0.71698 134:0.51015 135:0.83182 136:0.46256 137:0.93934 138:0.080292 139:0.79998 140:0.7257 141:0.87192 142:0.35328 143:0.67968 144:0.60589 145:0.47563 146:0.93921 147:0.25599 148:0.5551 149:0.50291 150:0.92323 151:0.20259 152:0.11018 153:0.017339 154:0.16339 155:0.10837 156:0.37154 157:0.99584 158:0.87941 159:0.25281 160:0.59641 161:0.31662 162:0.81606 163:0.21758 164:0.090714 165:0.17662 166:0.67567 167:0.34668 168:0.49919 169:0.73907 170:0.66971 171:0.14912 172:0.32672 173:0.88606 174:0.77287 175:0.85289 176:0.017143 177:0.11105 178:0.22049 179:0.76566 180:0.85529 181:0.15495 182:0.57337 183:0.74866 184:0.91912 185:0.73907 186:0.044954 187:0.12391 188:0.090226 189:0.463 190:0.54419 191:0.8722 192:0.66295 
0.8349710830219486 1 1:0.045191 2:0.42415 3:0.29384 4:0.74204 5:0.5727 6:0.93406 7:0.8834 8:0.17042 9:0.97953 10:0.033845 11:0.046173 12:0.75583 13:0.43494 14:0.32418 15:0.27405 16:0.049074 17:0.79927 18:0.84339 19:0.31586 20:0.5511 21:0.19188 22:0.8356 23:0.03491 24:0.33929 25:0.32471 26:0.82843 27:0.66326 28:0.49235 29:0.51113 30:0.39141 31:0.51229 32:0.39934 33:0.58808 34:0.20086 35:0.9758 36:0.46045 37:0.80471 38:0.3233 39:0.65404 40:0.17561 41:0.88095 42:0.35838 43:0.55663 44:0.32747 45:0.85651 46:0.55979 47:0.38502 48:0.63448 49:0.92502 50:0.53959 51:0.30691 52:0.79485 53:0.3778 54:0.80177 55:0.091526 56:0.468 57:0.7421 58:0.3734 59:0.60371 60:0.25766 61:0.74319 62:0.23553 63:0.37635 64:0.3777 65:0.32758 66:0.80397 67:0.16584 68:0.23736 69:0.56149 70:0.91944 71:0.66864 72:0.85318 73:0.83887 74:0.80451 75:0.12733 76:0.046918 77:0.43177 78:0.27859 79:0.49893 80:0.070455 81:0.57299 82:0.88213 83:0.19067 84:0.61934 85:0.62574 86:0.76233 87:0.80688 88:0.61808 89:0.78738 90:0.79598 91:0.049904 92:0.052715 93:0.47592 94:0.75413 95:0.14588 96:0.58301 97:0.60989 98:0.11449 99:0.10786 100:0.55624 101:0.56467 102:0.09259 103:0.58911 104:0.44407 105:0.70619 106:0.47834 107:0.72864 108:0.038465 109:0.34608 110:0.81595 111:0.19336 112:0.079478 113:0.099505 114:0.89617 115:0.95051 116:0.23957 117:0.95473 118:0.1251 119:0.10649 120:0.49625 121:0.45734 122:0.79951 123:0.44574 124:0.0021005 125:0.59578 126:0.44813 127:0.57412 128:0.083489 129:0.044219 130:0.30905 131:0.7334 132:0.1934 133:0.49912 134:0.17448 135:0.25927 136:0.46637 137:0.38266 138:0.6316 139:0.41172 140:0.93131 141:0.013691 142:0.64267 143:0.72408 144:0.97473 145:0.9513 146:0.26118 147:0.43332 148:0.67575 149:0.078276 150:0.45622 151:0.35134 152:0.84703 153:0.89037 154:0.67698 155:0.37632 156:0.99486 157:0.8742 158:0.57005 159:0.91589 160:0.33516 161:0.48357 162:0.94714 163:0.40505 164:0.21034 165:0.16557 166:0.27805 167:0.92639 168:0.93566 169:0.49246 170:0.87515 171:0.37839 172:0.71074 173:0.74113 174:0.9275 175:0.43401 176:0.024608 177:0.96751 178:0.75872 179:0.016922 180:0.64012 181:0.074348 182:0.48742 183:0.20302 184:0.18195 185:0.21816 186:0.23818 187:0.46531 188:0.87819 189:0.80279 190:0.87721 191:0.82989 192:0.014562 
0.726500273610045 1 1:0.26918 2:0.25755 3:0.03686 4:0.95436 5:0.62382 6:0.37462 7:0.55083 8:0.80387 9:0.76409 10:0.34339 11:0.92004 12:0.42992 13:0.79313 14:0.7535 15:0.84162 16:0.042818 17:0.71226 18:0.11631 19:0.46335 20:0.098389 21:0.73147 22:0.16808 23:0.47261 24:0.10638 25:0.20454 26:0.13355 27:0.42033 28:0.048661 29:0.96711 30:0.030223 31:0.11783 32:0.84983 33:0.5996 34:0.88888 35:0.88408 36:0.8196 37:0.35355 38:0.145 39:0.235 40:0.49558 41:0.1268 42:0.8912 43:0.30985 44:0.34358 45:0.34258 46:0.61076 47:0.56461 48:0.09498 49:0.17854 50:0.56896 51:0.55383 52:0.80576 53:0.67558 54:0.05171 55:0.40648 56:0.080564 57:0.68551 58:0.67796 59:0.51701 60:0.039177 61:0.95873 62:0.66927 63:0.619 64:0.73489 65:0.3689 66:0.68697 67:0.02499 68:0.11326 69:0.93711 70:0.89623 71:0.2585 72:0.10402 73:0.028124 74:0.094127 75:0.6086 76:0.11547 77:0.31134 78:0.78277 79:0.044697 80:0.10576 81:0.70488 82:0.16024 83:0.16186 84:0.86165 85:0.48169 86:0.87204 87:0.35109 88:0.2847 89:0.15103 90:0.076922 91:0.90769 92:0.055866 93:0.65947 94:0.67929 95:0.50679 96:0.059763 97:0.95851 98:0.5294 99:0.43303 100:0.94441 101:0.0051225 102:0.53425 103:0.13766 104:0.86503 105:0.98693 106:0.82791 107:0.52087 108:0.31141 109:0.55739 110:0.15306 111:0.18484 112:0.95207 113:0.12817 114:0.32381 115:0.14839 116:0.41477 117:0.98765 118:0.54091 119:0.75614 120:0.59256 121:0.70207 122:0.52893 123:0.054732 124:0.44038 125:0.67266 126:0.27379 127:0.46625 128:0.58198 129:0.76186 130:0.096109 131:0.9905 132:0.34924 133:0.25225 134:0.93476 135:0.048406 136:0.48062 137:0.50551 138:0.79317 139:0.47329 140:0.0070693 141:0.2875 142:0.91089 143:0.53107 144:0.87289 145:0.81897 146:0.77156 147:0.86624 148:0.35785 149:0.28127 150:0.47456 151:0.12523 152:0.3462 153:0.37088 154:0.32141 155:0.97734 156:0.31542 157:0.85141 158:0.14291 159:0.72252 160:0.38807 161:0.085385 162:0.55632 163:0.79899 164:0.71001 165:0.91133 166:0.61826 167:0.25444 168:0.0060399 169:0.95628 170:0.99619 171:0.79385 172:0.5123 173:0.66712 174:0.46619 175:0.072758 176:0.99672 177:0.96639 178:0.39698 179:0.38544 180:0.79336 181:0.08071 182:0.16385 183:0.49617 184:0.027086 185:0.89265 186:0.56948 187:0.69031 188:0.76443 189:0.17271 190:0.92439 191:0.15775 192:0.92594 
1 1 1:0.6967 2:0.03347 3:0.95031 4:0.24988 5:0.0116 6:0.42018 7:0.69935 8:0.11882 9:0.3723 10:0.042071 11:0.53733 12:0.18078 13:0.70197 14:0.32944 15:0.44112 16:0.63577 17:0.29311 18:0.0623 19:0.14565 20:0.86437 21:0.70284 22:0.49022 23:0.3272 24:0.91667 25:0.99893 26:0.65089 27:0.48746 28:0.69811 29:0.10868 30:0.26571 31:0.045748 32:0.50273 33:0.41674 34:0.3682 35:0.39196 36:0.69449 37:0.63911 38:0.14087 39:0.29912 40:0.19918 41:0.26881 42:0.49044 43:0.71597 44:0.20084 45:0.069745 46:0.53957 47:0.32507 48:0.39293 49:0.47721 50:0.16263 51:0.5266 52:0.52353 53:0.025132 54:0.88819 55:0.97389 56:0.12743 57:0.24745 58:0.27068 59:0.22639 60:0.6423 61:0.95784 62:0.095701 63:0.42899 64:0.24792 65:0.5704 66:0.13504 67:0.20804 68:0.40911 69:0.80624 70:0.68696 71:0.73775 72:0.31674 73:0.57465 74:0.34127 75:0.58201 76:0.37455 77:0.73946 78:0.84963 79:0.21131 80:0.083332 81:0.18083 82:0.040792 83:0.46384 84:0.61668 85:0.23014 86:0.72386 87:0.94161 88:0.53066 89:0.81002 90:0.52411 91:0.49395 92:0.58432 93:0.68325 94:0.64747 95:0.95123 96:0.56262 97:0.34664 98:0.79624 99:0.12767 100:0.32731 101:0.91938 102:0.74643 103:0.85154 104:0.61512 105:0.91508 106:0.91657 107:0.50374 108:0.22515 109:0.60251 110:0.67332 111:0.48915 112:0.031671 113:0.012032 114:0.76241 115:0.96532 116:0.6683 117:0.68119 118:0.83187 119:0.50969 120:0.79124 121:0.61041 122:0.3136 123:0.70334 124:0.59013 125:0.3285 126:0.14237 127:0.53111 128:0.36892 129:0.80639 130:0.93384 131:0.23866 132:0.50677 133:0.37484 134:0.12785 135:0.77574 136:0.54039 137:0.40375 138:0.35003 139:0.56042 140:0.59691 141:0.8705 142:0.017245 143:0.54091 144:0.12491 145:0.84171 146:0.94481 147:0.1904 148:0.072969 149:0.012779 150:0.57251 151:0.88569 152:0.37562 153:0.29059 154:0.17698 155:0.34322 156:0.39577 157:0.59857 158:0.90353 159:0.27573 160:0.51402 161:0.4276 162:0.18996 163:0.66464 164:0.77373 165:0.19073 166:0.87745 167:0.7398 168:0.11889 169:0.89132 170:0.59748 171:0.64352 172:0.44004 173:0.60684 174:0.86835 175:0.14602 176:0.82478 177:0.84559 178:0.4997 179:0.84785 180:0.19434 181:0.52373 182:0.6247 183:0.14948 184:0.44495 185:0.20817 186:0.05944 187:0.83001 188:0.39077 189:0.66238 190:0.64029 191:0.99126 192:0.04872 
0 0.3107951821790764 1:0.88991 2:0.040282 3:0.5637 4:0.96774 5:0.1007 6:0.52338 7:0.71273 8:0.40926 9:0.87306 10:0.8286 11:0.87737 12:0.45207 13:0.2673 14:0.43977 15:0.44079 16:0.83554 17:0.15915 18:0.69708 19:0.72878 20:0.94754 21:0.18096 22:0.1027 23:0.34676 24:0.69123 25:0.015217 26:0.45495 27:0.93974 28:0.77744 29:0.72736 30:0.43044 31:0.92361 32:0.30654 33:0.85519 34:0.66375 35:0.8159 36:0.4454 37:0.98753 38:0.67839 39:0.0059004 40:0.43199 41:0.53516 42:0.56629 43:0.24473 44:0.32558 45:0.35028 46:0.83859 47:0.14335 48:0.87302 49:0.72229 50:0.91037 51:0.02194 52:0.83465 53:0.60093 54:0.96198 55:0.76392 56:0.46192 57:0.86913 58:0.44969 59:0.81167 60:0.97371 61:0.17824 62:0.69222 63:0.69467 64:0.69736 65:0.11176 66:0.048512 67:0.16724 68:0.19113 69:0.1371 70:0.79009 71:0.28135 72:0.83667 73:0.024461 74:0.1656 75:0.69227 76:0.33611 77:0.41441 78:0.31248 79:0.73632 80:0.4727 81:0.98814 82:0.17306 83:0.69658 84:0.05248 85:0.25802 86:0.88767 87:0.6377 88:0.8369 89:0.11632 90:0.93321 91:0.45502 92:0.75086 93:0.39211 94:0.38703 95:0.53675 96:0.83946 97:0.18757 98:0.68606 99:0.36166 100:0.0099419 101:0.36778 102:0.46155 103:0.13801 104:0.47761 105:0.22246 106:0.11754 107:0.68004 108:0.0056922 109:0.32263 110:0.56336 111:0.27313 112:0.99667 113:0.96082 114:0.60148 115:0.72516 116:0.56601 117:0.93815 118:0.39391 119:0.40421 120:0.48161 121:0.18485 122:0.09024 123:0.76573 124:0.5572 125:0.89811 126:0.12284 127:0.12177 128:0.78813 129:0.47287 130:0.91688 131:0.44004 132:0.051759 133:0.31158 134:0.52662 135:0.80382 136:0.63213 137:0.73857 138:0.68783 139:0.62697 140:0.90547 141:0.31428 142:0.60945 143:0.20572 144:0.18335 145:0.79981 146:0.24252 147:0.17781 148:0.25687 149:0.34878 150:0.4299 151:0.35498 152:0.81036 153:0.86515 154:0.99332 155:0.34498 156:0.29116 157:0.61227 158:0.24361 159:0.59495 160:0.93427 161:0.38585 162:0.30012 163:0.13928 164:0.31435 165:0.58578 166:0.85742 167:0.33458 168:0.085867 169:0.55093 170:0.5558 171:0.27782 172:0.58843 173:0.87054 174:0.66816 175:0.76331 176:0.50153 177:0.4412 178:0.45078 179:0.73888 180:0.85731 181:0.48189 182:0.89535 183:0.057709 184:0.070676 185:0.85854 186:0.25058 187:0.69662 188:0.77952 189:0.048933 190:0.99866 191:0.50111 192:0.63094 
0.387517513659477 0.6439278294179764 1:0.544 2:0.22569 3:0.73731 4:0.24588 5:0.95546 6:0.40475 7:0.57528 8:0.74675 9:0.49829 10:0.95394 11:0.063564 12:0.39457 13:0.031057 14:0.24316 15:0.52857 16:0.74692 17:0.068434 18:0.497 19:0.30395 20:0.89588 21:0.25947 22:0.86361 23:0.34466 24:0.29451 25:0.62079 26:0.93898 27:0.14285 28:0.94915 29:0.81228 30:0.54768 31:0.78482 32:0.34999 33:0.25808 34:0.42921 35:0.29975 36:0.61194 37:0.3817 38:0.52126 39:0.43635 40:0.069415 41:0.0031791 42:0.027282 43:0.7568 44:0.80779 45:0.75656 46:0.42375 47:0.36648 48:0.94347 49:0.14868 50:0.34949 51:0.95761 52:0.49435 53:0.52478 54:0.85374 55:0.7507 56:0.033609 57:0.21809 58:0.20971 59:0.59253 60:0.88574 61:0.073273 62:0.44591 63:0.83876 64:0.62165 65:0.2252 66:0.2333 67:0.82827 68:0.31016 69:0.28151 70:0.68471 71:0.54798 72:0.12659 73:0.34375 74:0.086083 75:0.34493 76:0.69987 77:0.90763 78:0.72717 79:0.45995 80:0.90125 81:0.21143 82:0.75031 83:0.61366 84:0.52932 85:0.55569 86:0.11808 87:0.59608 88:0.88299 89:0.67112 90:0.30095 91:0.19628 92:0.61249 93:0.13892 94:0.71609 95:0.29271 96:0.5464 97:0.15419 98:0.51284 99:0.48341 100:0.47597 101:0.59372 102:0.60522 103:0.91529 104:0.58141 105:0.25543 106:0.88121 107:0.93703 108:0.76713 109:0.75385 110:0.4243 111:0.72359 112:0.61836 113:0.63757 114:0.58504 115:0.039565 116:0.89746 117:0.89162 118:0.50395 119:0.56754 120:0.13898 121:0.73241 122:0.20848 123:0.88847 124:0.017938 125:0.52307 126:0.27815 127:0.97029 128:0.22645 129:0.70329 130:0.63625 131:0.73501 132:0.38096 133:0.51106 134:0.45424 135:0.63309 136:0.84246 137:0.87304 138:0.16292 139:0.49956 140:0.19465 141:0.10071 142:0.96308 143:0.39833 144:0.30264 145:0.18596 146:0.42899 147:0.5933 148:0.23623 149:0.57307 150:0.72546 151:0.35084 152:0.078614 153:0.8046 154:0.94765 155:0.08118 156:0.3768 157:0.91042 158:0.64077 159:0.3162 160:0.25945 161:0.68772 162:0.11398 163:0.38251 164:0.23869 165:0.91136 166:0.27466 167:0.42863 168:0.92644 169:0.75186 170:0.35204 171:0.70098 172:0.038136 173:0.89585 174:0.38487 175:0.40145 176:0.060866 177:0.62588 178:0.44565 179:0.69309 180:0.71159 181:0.075196 182:0.043986 183:0.34728 184:0.82357 185:0.80531 186:0.81234 187:0.88698 188:0.95362 189:0.19447 190:0.26475 191:0.035983 192:0.93762 
1 1 1:0.25612 2:0.59733 3:0.92324 4:0.30933 5:0.76944 6:0.44272 7:0.78434 8:0.55936 9:0.7694 10:0.85505 11:0.18729 12:0.38412 13:0.46322 14:0.67808 15:0.36272 16:0.17322 17:0.53406 18:0.13367 19:0.30859 20:0.69999 21:0.15332 22:0.070787 23:0.7755 24:0.66608 25:0.51865 26:0.9598 27:0.70595 28:0.88862 29:0.029153 30:0.3422 31:0.84298 32:0.8843 33:0.44699 34:0.5535 35:0.030004 36:0.92445 37:0.44023 38:0.84266 39:0.43669 40:0.69164 41:0.81419 42:0.26839 43:0.76052 44:0.82559 45:0.28532 46:0.34271 47:0.2368 48:0.099182 49:0.075597 50:0.44673 51:0.47496 52:0.41366 53:0.20064 54:0.54847 55:0.36111 56:0.26693 57:0.6372 58:0.28321 59:0.78232 60:0.96328 61:0.047589 62:0.35691 63:0.87266 64:0.22228 65:0.093821 66:0.81237 67:0.27621 68:0.9508 69:0.14301 70:0.62212 71:0.92797 72:0.54698 73:0.054973 74:0.6454 75:0.17992 76:0.77932 77:0.47007 78:0.41376 79:0.95393 80:0.6816 81:0.73682 82:0.9483 83:0.9852 84:0.28811 85:0.80953 86:0.53373 87:0.41376 88:0.36899 89:0.98848 90:0.42191 91:0.11551 92:0.80623 93:0.93772 94:0.86051 95:0.077987 96:0.18807 97:0.87765 98:0.37186 99:0.73486 100:0.66239 101:0.80375 102:0.44853 103:0.43068 104:0.021468 105:0.044021 106:0.4765 107:0.4714 108:0.47468 109:0.30985 110:0.25745 111:0.4115 112:0.17663 113:0.099779 114:0.90911 115:0.39289 116:0.91933 117:0.37443 118:0.31724 119:0.013739 120:0.86052 121:0.85049 122:0.47298 123:0.34279 124:0.15409 125:0.20739 126:0.25312 127:0.57636 128:0.99377 129:0.20145 130:0.19958 131:0.98434 132:0.020139 133:0.50393 134:0.11609 135:0.93464 136:0.47648 137:0.47168 138:0.21787 139:0.19276 140:0.85949 141:0.53843 142:0.50217 143:0.3595 144:0.9959 145:0.14435 146:0.28159 147:0.17684 148:0.96033 149:0.84077 150:0.74753 151:0.79631 152:0.7537 153:0.047569 154:0.15452 155:0.7834 156:0.60572 157:0.13827 158:0.30805 159:0.60705 160:0.04718 161:0.88237 162:0.89972 163:0.71191 164:0.86118 165:0.99168 166:0.55218 167:0.76321 168:0.22609 169:0.10948 170:0.95394 171:0.50069 172:0.52154 173:0.96033 174:0.67819 175:0.72485 176:0.44882 177:0.66045 178:0.9217 179:0.71401 180:0.53536 181:0.57963 182:0.27946 183:0.64428 184:0.72465 185:0.083177 186:0.64139 187:0.77767 188:0.70454 189:0.8266 190:0.15287 191:0.24142 192:0.26723 
1 1 1:0.37355 2:0.96399 3:0.88664 4:0.28086 5:0.41518 6:0.63825 7:0.34831 8:0.92986 9:0.96305 10:0.8619 11:0.37095 12:0.65309 13:0.45978 14:0.21871 15:0.76934 16:0.38612 17:0.88286 18:0.1328 19:0.82325 20:0.026602 21:0.85014 22:0.90677 23:0.38438 24:0.057539 25:0.56673 26:0.78862 27:0.37128 28:0.71582 29:0.82367 30:0.35218 31:0.26931 32:0.25294 33:0.60446 34:0.9738 35:0.022607 36:0.80215 37:0.44076 38:0.53188 39:0.75679 40:0.98108 41:0.022606 42:0.05793 43:0.10894 44:0.82287 45:0.16083 46:0.247 47:0.40897 48:0.11094 49:0.34858 50:0.73496 51:0.547 52:0.98739 53:0.73364 54:0.88643 55:0.58811 56:0.68794 57:0.99554 58:0.5697 59:0.40383 60:0.21266 61:0.83685 62:0.85745 63:0.16552 64:0.25383 65:0.59036 66:0.13054 67:0.26037 68:0.8491 69:0.85537 70:0.16762 71:0.79736 72:0.83714 73:0.70761 74:0.73064 75:0.54996 76:0.6814 77:0.48024 78:0.011225 79:0.44477 80:0.4009 81:0.23975 82:0.49245 83:0.65014 84:0.59776 85:0.74347 86:0.60906 87:0.21937 88:0.55723 89:0.60018 90:0.72147 91:0.088544 92:0.80611 93:0.080154 94:0.31521 95:0.71954 96:0.85489 97:0.35872 98:0.29005 99:0.30183 100:0.36885 101:0.89727 102:0.078508 103:0.37712 104:0.78293 105:0.78275 106:0.21654 107:0.72887 108:0.40186 109:0.90421 110:0.21787 111:0.51091 112:0.75054 113:0.045924 114:0.53477 115:0.58006 116:0.68595 117:0.3043 118:0.15729 119:0.7005 120:0.46115 121:0.49204 122:0.26736 123:0.78053 124:0.73982 125:0.91594 126:0.17768 127:0.429 128:0.25263 129:0.046454 130:0.7124 131:0.5486 132:0.0088355 133:0.24361 134:0.93603 135:0.54985 136:0.012257 137:0.72116 138:0.21853 139:0.40499 140:0.0090472 141:0.74774 142:0.33242 143:0.91365 144:0.85111 145:0.28266 146:0.98836 147:0.036293 148:0.28961 149:0.86803 150:0.4781 151:0.17462 152:0.019494 153:0.47717 154:0.7416 155:0.82916 156:0.0408 157:0.15128 158:0.28241 159:0.24283 160:0.92078 161:0.71674 162:0.39306 163:0.5887 164:0.23141 165:0.17241 166:0.38047 167:0.065054 168:0.93452 169:0.95991 170:0.50358 171:0.63647 172:0.33086 173:0.44957 174:0.41184 175:0.59639 176:0.70892 177:0.32911 178:0.38987 179:0.91236 180:0.7051 181:0.70696 182:0.094899 183:0.79373 184:0.24394 185:0.43305 186:0.74623 187:0.31318 188:0.81313 189:0.84878 190:0.29042 191:0.58135 192:0.31831 
1 1 1:0.67055 2:0.85036 3:0.51151 4:0.53175 5:0.92202 6:0.30221 7:0.095711 8:0.3152 9:0.7119 10:0.9724 11:0.55071 12:0.95393 13:0.031181 14:0.59817 15:0.94503 16:0.4332 17:0.44379 18:0.47175 19:0.84998 20:0.24207 21:0.40629 22:0.82267 23:0.14254 24:0.61596 25:0.20158 26:0.41619 27:0.80079 28:0.82987 29:0.96921 30:0.81876 31:0.80924 32:0.58849 33:0.40004 34:0.13308 35:0.30716 36:0.68612 37:0.26234 38:0.43128 39:0.94543 40:0.52591 41:0.92353 42:0.76031 43:0.17087 44:0.35776 45:0.96983 46:0.48878 47:0.9847 48:0.025137 49:0.13889 50:0.90077 51:0.91865 52:0.94036 53:0.18956 54:0.84336 55:0.9064 56:0.2753 57:0.66371 58:0.87788 59:0.54872 60:0.42326 61:0.51628 62:0.28262 63:0.081748 64:0.9994 65:0.88695 66:0.27597 67:0.53878 68:0.099564 69:0.089216 70:0.11435 71:0.45222 72:0.01498 73:0.18818 74:0.26096 75:0.5802 76:0.093165 77:0.82088 78:0.52599 79:0.78046 80:0.79555 81:0.56575 82:0.328 83:0.32178 84:0.76577 85:0.54914 86:0.55622 87:0.27006 88:0.53894 89:0.19043 90:0.35691 91:0.60495 92:0.97055 93:0.12529 94:0.48789 95:0.80494 96:0.95486 97:0.56075 98:0.70942 99:0.33682 100:0.15286 101:0.33683 102:0.32345 103:0.079358 104:0.44034 105:0.10751 106:0.6455 107:0.21629 108:0.79751 109:0.18662 110:0.97752 111:0.43853 112:0.25742 113:0.35105 114:0.19715 115:0.20562 116:0.058459 117:0.54315 118:0.049971 119:0.0064131 120:0.67499 121:0.043787 122:0.18729 123:0.081017 124:0.75185 125:0.13089 126:0.10269 127:0.41432 128:0.63192 129:0.27684 130:0.58802 131:0.67166 132:0.88466 133:0.92647 134:0.34529 135:0.26949 136:0.33215 137:0.72292 138:0.3588 139:0.61343 140:0.066405 141:0.34687 142:0.63518 143:0.26408 144:0.054273 145:0.030277 146:0.29524 147:0.44285 148:0.27692 149:0.80741 150:0.02414 151:0.91251 152:0.27915 153:0.51484 154:0.79051 155:0.23857 156:0.11674 157:0.34351 158:0.0047355 159:0.35206 160:0.58329 161:0.53733 162:0.85003 163:0.52166 164:0.2169 165:0.90733 166:0.50949 167:0.02079 168:0.74283 169:0.34292 170:0.29081 171:0.12202 172:0.64221 173:0.30204 174:0.8054 175:0.26781 176:0.53144 177:0.083814 178:0.62344 179:0.13736 180:0.65978 181:0.69248 182:0.36265 183:0.37213 184:0.87659 185:0.73049 186:0.049221 187:0.85574 188:0.4322 189:0.87047 190:0.51937 191:0.61592 192:0.23171 
1 1 1:0.28988 2:0.043331 3:0.6751 4:0.42686 5:0.81238 6:0.65207 7:0.34939 8:0.87268 9:0.43691 10:0.74733 11:0.36748 12:0.84718 13:0.83144 14:0.20195 15:0.74813 16:0.61309 17:0.37409 18:0.79691 19:0.69991 20:0.26449 21:0.48447 22:0.59011 23:0.55947 24:0.50395 25:0.14637 26:0.84437 27:0.99328 28:0.045399 29:0.70524 30:0.13736 31:0.88879 32:0.47434 33:0.98425 34:0.45633 35:0.064878 36:0.15268 37:0.92366 38:0.89227 39:0.89628 40:0.35986 41:0.83566 42:0.28207 43:0.32174 44:0.92362 45:0.60744 46:0.89351 47:0.27613 48:0.030991 49:0.47663 50:0.41523 51:0.81159 52:0.2657 53:0.20578 54:0.42166 55:0.13574 56:0.94426 57:0.86431 58:0.69393 59:0.14178 60:0.1059 61:0.16453 62:0.25255 63:0.093461 64:0.033046 65:0.28053 66:0.3396 67:0.38579 68:0.43681 69:0.93622 70:0.58904 71:0.97511 72:0.29091 73:0.59204 74:0.29482 75:0.70368 76:0.11955 77:0.50643 78:0.64991 79:0.24411 80:0.59416 81:0.92914 82:0.82054 83:0.22235 84:0.91993 85:0.07787 86:0.31065 87:0.49765 88:0.55995 89:0.082919 90:0.35717 91:0.60487 92:0.18359 93:0.35271 94:0.75451 95:0.47394 96:0.92246 97:0.64902 98:0.25998 99:0.2963 100:0.32544 101:0.2612 102:0.68015 103:0.11468 104:0.12437 105:0.92294 106:0.82045 107:0.63618 108:0.13048 109:0.9581 110:0.40735 111:0.9612 112:0.2789 113:0.59502 114:0.92523 115:0.83628 116:0.070432 117:0.38479 118:0.088867 119:0.32153 120:0.72044 121:0.51741 122:0.99409 123:0.66336 124:0.32974 125:0.48219 126:0.063564 127:0.27445 128:0.84084 129:0.9646 130:0.74028 131:0.78691 132:0.48291 133:0.26112 134:0.10653 135:0.9399 136:0.84936 137:0.51196 138:0.04481 139:0.18286 140:0.42881 141:0.77839 142:0.9422 143:0.53149 144:0.40835 145:0.10918 146:0.72688 147:0.15702 148:0.59624 149:0.12178 150:0.34617 151:0.98755 152:0.72211 153:0.38269 154:0.025132 155:0.58199 156:0.53462 157:0.75918 158:0.98052 159:0.61872 160:0.54527 161:0.0052082 162:0.95493 163:0.3615 164:0.39455 165:0.94249 166:0.75596 167:0.90592 168:0.54013 169:0.24375 170:0.69601 171:0.019324 172:0.34215 173:0.45682 174:0.11341 175:0.75837 176:0.16947 177:0.43268 178:0.39627 179:0.51383 180:0.53298 181:0.069951 182:0.41064 183:0.70972 184:0.11417 185:0.99031 186:0.79596 187:0.25874 188:0.53287 189:0.92845 190:0.14568 191:0.027915 192:0.66039 
1 0.1739285488874152 1:0.8197 2:0.97126 3:0.69818 4:0.80158 5:0.98691 6:0.39813 7:0.54528 8:0.14997 9:0.33565 10:0.8542 11:0.41818 12:0.026256 13:0.51273 14:0.8196 15:0.047398 16:0.80301 17:0.15937 18:0.69485 19:0.26894 20:0.71655 21:0.22588 22:0.74912 23:0.29432 24:0.25781 25:0.098833 26:0.12066 27:0.10061 28:0.073955 29:0.15217 30:0.8597 31:0.40282 32:0.11069 33:0.15326 34:0.8041 35:0.97911 36:0.85112 37:0.35506 38:0.98429 39:0.92447 40:0.19592 41:0.40939 42:0.72844 43:0.16328 44:0.88308 45:0.088788 46:0.11458 47:0.14843 48:0.74181 49:0.51551 50:0.72299 51:0.80919 52:0.0080476 53:0.54561 54:0.063795 55:0.30002 56:0.57618 57:0.19279 58:0.7844 59:0.89542 60:0.32572 61:0.26945 62:0.37156 63:0.5222 64:0.47999 65:0.18799 66:0.47192 67:0.70331 68:0.6366 69:0.97373 70:0.5263 71:0.12883 72:0.75463 73:0.63258 74:0.86904 75:0.50336 76:0.038734 77:0.45996 78:0.76048 79:0.87572 80:0.75996 81:0.1292 82:0.073351 83:0.5708 84:0.62484 85:0.62206 86:0.55712 87:0.8728 88:0.54339 89:0.8224 90:0.66827 91:0.089137 92:0.57803 93:0.51734 94:0.5348 95:0.86503 96:0.44326 97:0.41292 98:0.19277 99:0.98029 100:0.80708 101:0.091202 102:0.96609 103:0.403 104:0.26608 105:0.81438 106:0.98356 107:0.58076 108:0.87712 109:0.71402 110:0.60467 111:0.11853 112:0.37507 113:0.39657 114:0.8184 115:0.61395 116:0.021032 117:0.10286 118:0.9886 119:0.96152 120:0.37755 121:0.79955 122:0.58327 123:0.52261 124:0.87927 125:0.61121 126:0.30252 127:0.2507 128:0.88932 129:0.26618 130:0.35706 131:0.73746 132:0.30305 133:0.27326 134:0.4694 135:0.2237 136:0.18067 137:0.51505 138:0.42634 139:0.69496 140:0.47362 141:0.07992 142:0.067035 143:0.60764 144:0.7559 145:0.94483 146:0.3943 147:0.64939 148:0.72625 149:0.93689 150:0.051397 151:0.21253 152:0.027824 153:0.84275 154:0.293 155:0.20753 156:0.92618 157:0.84037 158:0.35066 159:0.22544 160:0.65509 161:0.30049 162:0.17378 163:0.84423 164:0.17654 165:0.44483 166:0.74686 167:0.12396 168:0.89525 169:0.47332 170:0.3243 171:0.382 172:0.70495 173:0.042397 174:0.98583 175:0.78665 176:0.81183 177:0.63803 178:0.47271 179:0.57156 180:0.89637 181:0.86493 182:0.60215 183:0.60496 184:0.45434 185:0.3102 186:0.59011 187:0.41016 188:0.93471 189:0.25642 190:0.91734 191:0.28802 192:0.098301 
1 1 1:0.94508 2:0.45341 3:0.73868 4:0.20278 5:0.60034 6:0.068833 7:0.18666 8:0.50689 9:0.24006 10:0.27471 11:0.8868 12:0.49023 13:0.69422 14:0.93016 15:0.30292 16:0.95645 17:0.32297 18:0.43445 19:0.26547 20:0.96673 21:0.38027 22:0.67417 23:0.73973 24:0.59704 25:0.96992 26:0.42005 27:0.15656 28:0.95908 29:0.57743 30:0.80819 31:0.54657 32:0.26728 33:0.93853 34:0.55169 35:0.15726 36:0.77342 37:0.26041 38:0.35639 39:0.09606 40:0.77653 41:0.7007 42:0.54118 43:0.60238 44:0.14705 45:0.89007 46:0.52959 47:0.6002 48:0.64068 49:0.79917 50:0.95262 51:0.34751 52:0.51588 53:0.50925 54:0.47295 55:0.82024 56:0.90359 57:0.48377 58:0.35885 59:0.42392 60:0.58502 61:0.04296 62:0.48689 63:0.068814 64:0.25948 65:0.79923 66:0.56789 67:0.28818 68:0.44561 69:0.44214 70:0.60184 71:0.58564 72:0.60822 73:0.64237 74:0.079771 75:0.93713 76:0.75037 77:0.87938 78:0.37008 79:0.7225 80:0.99837 81:0.57237 82:0.12245 83:0.98525 84:0.62838 85:0.82635 86:0.70845 87:0.48149 88:0.63446 89:0.99832 90:0.59799 91:0.75435 92:0.63626 93:0.97079 94:0.44041 95:0.7307 96:0.33365 97:0.54227 98:0.69354 99:0.10349 100:0.93257 101:0.044562 102:0.54115 103:0.50353 104:0.18081 105:0.36071 106:0.91626 107:0.23099 108:0.016715 109:0.016135 110:0.018047 111:0.79081 112:0.84858 113:0.74044 114:0.023439 115:0.39552 116:0.048925 117:0.58964 118:0.84977 119:0.37569 120:0.049051 121:0.65009 122:0.29868 123:0.39828 124:0.84135 125:0.94963 126:0.58054 127:0.99127 128:0.68166 129:0.48221 130:0.71803 131:0.019394 132:0.41757 133:0.4904 134:0.12307 135:0.58596 136:0.0047599 137:0.94503 138:0.54718 139:0.62581 140:0.35975 141:0.89444 142:0.52073 143:0.81367 144:0.12199 145:0.81343 146:0.021638 147:0.63038 148:0.89111 149:0.69545 150:0.13376 151:0.061141 152:0.50938 153:0.086031 154:0.69096 155:0.39715 156:0.44719 157:0.97434 158:0.63314 159:0.58095 160:0.48642 161:0.5985 162:0.16616 163:0.040053 164:0.52678 165:0.82398 166:0.7859 167:0.85875 168:0.84087 169:0.88804 170:0.45031 171:0.50347 172:0.57058 173:0.55143 174:0.027624 175:0.052064 176:0.69124 177:0.58929 178:0.24859 179:0.53658 180:0.80752 181:0.4038 182:0.41271 183:0.31371 184:0.52029 185:0.15011 186:0.078747 187:0.54992 188:0.81632 189:0.17285 190:0.4334 191:0.23007 192:0.46873 
0.4917682355888193 0.5898013251232959 1:0.047855 2:0.079369 3:0.31615 4:0.35996 5:0.08449 6:0.32239 7:0.73948 8:0.74858 9:0.74992 10:0.92643 11:0.35893 12:0.94345 13:0.7621 14:0.37755 15:0.2037 16:0.13933 17:0.45919 18:0.76302 19:0.091749 20:0.1826 21:0.065641 22:0.6641 23:0.54061 24:0.13184 25:0.080602 26:0.49025 27:0.99963 28:0.85994 29:0.78878 30:0.15394 31:0.097352 32:0.47673 33:0.56851 34:0.66073 35:0.040065 36:0.7138 37:0.37158 38:0.64676 39:0.35702 40:0.10415 41:0.73941 42:0.52945 43:0.42481 44:0.063193 45:0.062345 46:0.36329 47:0.84319 48:0.98455 49:0.66478 50:0.36356 51:0.20936 52:0.95186 53:0.75635 54:0.61668 55:0.13388 56:0.85372 57:0.73611 58:0.19671 59:0.11731 60:0.40463 61:0.6463 62:0.73307 63:0.3744 64:0.092731 65:0.70662 66:0.12689 67:0.63702 68:0.94981 69:0.76708 70:0.70344 71:0.21777 72:0.59116 73:0.57757 74:0.91965 75:0.78488 76:0.66902 77:0.59222 78:0.077432 79:0.68676 80:0.77817 81:0.81921 82:0.71702 83:0.021249 84:0.61203 85:0.33236 86:0.016533 87:0.083353 88:0.54499 89:0.88814 90:0.36029 91:0.78416 92:0.084019 93:0.60434 94:0.96171 95:0.23489 96:0.59238 97:0.78691 98:0.4249 99:0.95188 100:0.20046 101:0.79946 102:0.24783 103:0.2358 104:0.49315 105:0.48602 106:0.39232 107:0.4851 108:0.36423 109:0.5244 110:0.48699 111:0.50192 112:0.26467 113:0.7921 114:0.20452 115:0.82464 116:0.59551 117:0.088987 118:0.39058 119:0.91706 120:0.17546 121:0.90153 122:0.30187 123:0.42478 124:0.97626 125:0.28314 126:0.56134 127:0.80208 128:0.54958 129:0.47003 130:0.76433 131:0.65851 132:0.29717 133:0.061246 134:0.28499 135:0.08681 136:0.73536 137:0.90214 138:0.91932 139:0.75506 140:0.054229 141:0.66706 142:0.43724 143:0.085088 144:0.62923 145:0.73668 146:0.22534 147:0.24657 148:0.18092 149:0.44674 150:0.40087 151:0.90079 152:0.79741 153:0.41653 154:0.79366 155:0.53167 156:0.89347 157:0.74349 158:0.60885 159:0.33483 160:0.8263 161:0.28475 162:0.55025 163:0.49019 164:0.45789 165:0.17214 166:0.86826 167:0.89798 168:0.28416 169:0.93827 170:0.16142 171:0.86442 172:0.8717 173:0.46081 174:0.90552 175:0.48028 176:0.84724 177:0.50358 178:0.32121 179:0.84281 180:0.72239 181:0.47149 182:0.97905 183:0.88272 184:0.05211 185:0.92096 186:0.67686 187:0.96001 188:0.0091467 189:0.85938 190:0.28515 191:0.37184 192:0.91578 
1 1 1:0.39398 2:0.88019 3:0.77201 4:0.65888 5:0.76216 6:0.79298 7:0.93149 8:0.17664 9:0.33044 10:0.78904 11:0.7324 12:0.81564 13:0.88309 14:0.63667 15:0.93784 16:0.33727 17:0.95886 18:0.48383 19:0.3039 20:0.073983 21:0.40672 22:0.56812 23:0.36297 24:0.66301 25:0.62931 26:0.71063 27:0.14401 28:0.81711 29:0.091021 30:0.76434 31:0.86245 32:0.5576 33:0.61955 34:0.33613 35:0.4139 36:0.15428 37:0.14757 38:0.08128 39:0.5139 40:0.87127 41:0.62959 42:0.33249 43:0.16867 44:0.94047 45:0.052707 46:0.81434 47:0.57491 48:0.61425 49:0.72315 50:0.10585 51:0.30985 52:0.45325 53:0.23968 54:0.53038 55:0.47257 56:0.44453 57:0.19005 58:0.65042 59:0.67962 60:0.064032 61:0.88378 62:0.17035 63:0.34146 64:0.92024 65:0.38721 66:0.87034 67:0.45844 68:0.4633 69:0.14833 70:0.98221 71:0.094283 72:0.77852 73:0.83516 74:0.095033 75:0.057898 76:0.38313 77:0.52969 78:0.83106 79:0.54926 80:0.012539 81:0.34048 82:0.45679 83:0.53958 84:0.16454 85:0.28052 86:0.10991 87:0.61397 88:0.0082955 89:0.64678 90:0.32406 91:0.79653 92:0.24619 93:0.32736 94:0.19812 95:0.55624 96:0.079192 97:0.0095952 98:0.034598 99:0.74732 100:0.84004 101:0.46994 102:0.91527 103:0.010751 104:0.0085766 105:0.63143 106:0.50976 107:0.12491 108:0.47131 109:0.40632 110:0.2499 111:0.58966 112:0.42726 113:0.10482 114:0.85739 115:0.87144 116:0.75742 117:0.92933 118:0.60403 119:0.096049 120:0.61612 121:0.77629 122:0.76277 123:0.68092 124:0.50897 125:0.22247 126:0.7529 127:0.39644 128:0.80366 129:0.41571 130:0.84192 131:0.97044 132:0.5296 133:0.44973 134:0.65233 135:0.46216 136:0.60789 137:0.31393 138:0.97294 139:0.58907 140:0.24983 141:0.84257 142:0.29691 143:0.40041 144:0.75923 145:0.94777 146:0.66614 147:0.12189 148:0.61328 149:0.95572 150:0.1342 151:0.24484 152:0.36074 153:0.40239 154:0.26741 155:0.60105 156:0.65238 157:0.71709 158:0.75159 159:0.43926 160:0.6549 161:0.821 162:0.46604 163:0.40739 164:0.94289 165:0.42246 166:0.57343 167:0.53038 168:0.56124 169:0.008061 170:0.53439 171:0.13397 172:0.39254 173:0.36687 174:0.35375 175:0.7913 176:0.99372 177:0.51731 178:0.75173 179:0.14461 180:0.8168 181:0.32904 182:0.6667 183:0.60863 184:0.025886 185:0.026434 186:0.96474 187:0.86861 188:0.9226 189:0.83498 190:0.59124 191:0.020922 192:0.83398 
1 1 1:0.8847 2:0.64866 3:0.79394 4:0.3691 5:0.80535 6:0.30836 7:0.93615 8:0.92587 9:0.80955 10:0.20959 11:0.87872 12:0.89353 13:0.81399 14:0.060551 15:0.99627 16:0.36859 17:0.35189 18:0.36063 19:0.68198 20:0.17891 21:0.055377 22:0.018872 23:0.84701 24:0.22635 25:0.41808 26:0.14805 27:0.71536 28:0.052588 29:0.851 30:0.01629 31:0.58596 32:0.82067 33:0.33719 34:0.67786 35:0.36827 36:0.24252 37:0.54088 38:0.55584 39:0.9202 40:0.33849 41:0.81397 42:0.26078 43:0.43325 44:0.7249 45:0.12046 46:0.22732 47:0.43376 48:0.66894 49:0.24398 50:0.2235 51:0.045484 52:0.044756 53:0.83874 54:0.45753 55:0.96143 56:0.090811 57:0.3257 58:0.1554 59:0.038111 60:0.71036 61:0.68066 62:0.68194 63:0.99353 64:0.29006 65:0.88306 66:0.073295 67:0.69993 68:0.33603 69:0.49505 70:0.86352 71:0.40546 72:0.59893 73:0.10509 74:0.63904 75:0.33009 76:0.46198 77:0.96348 78:0.64583 79:0.84766 80:0.62878 81:0.02152 82:0.34465 83:0.4412 84:0.76818 85:0.052424 86:0.61079 87:0.35383 88:0.51731 89:0.89262 90:0.98089 91:0.9702 92:0.35758 93:0.42419 94:0.83219 95:0.48196 96:0.042986 97:0.47861 98:0.61604 99:0.26088 100:0.098301 101:0.40875 102:0.20297 103:0.31372 104:0.2284 105:0.037576 106:0.97318 107:0.94061 108:0.65537 109:0.5618 110:0.52702 111:0.66407 112:0.70616 113:0.41221 114:0.34509 115:0.46347 116:0.40203 117:0.30823 118:0.25487 119:0.31414 120:0.42155 121:0.049085 122:0.33674 123:0.55393 124:0.096688 125:0.14296 126:0.38992 127:0.49345 128:0.6072 129:0.4192 130:0.44789 131:0.70949 132:0.75362 133:0.74548 134:0.50593 135:0.52142 136:0.074293 137:0.30616 138:0.68595 139:0.7628 140:0.90335 141:0.83058 142:0.72204 143:0.33501 144:0.07975 145:0.28161 146:0.2657 147:0.64418 148:0.27523 149:0.61869 150:0.19602 151:0.93311 152:0.29083 153:0.16615 154:0.20459 155:0.00024377 156:0.21813 157:0.86975 158:0.11119 159:0.95987 160:0.96562 161:0.60775 162:0.08523 163:0.23145 164:0.23434 165:0.45505 166:0.92004 167:0.087939 168:0.48264 169:0.19653 170:0.12173 171:0.87063 172:0.97122 173:0.34876 174:0.70212 175:0.4175 176:0.57565 177:0.99532 178:0.75281 179:0.44368 180:0.047987 181:0.26035 182:0.98049 183:0.58265 184:0.63682 185:0.54767 186:0.32367 187:0.61306 188:0.51746 189:0.11161 190:0.17988 191:0.67347 192:0.38549 
1 1 1:0.74422 2:0.89361 3:0.96341 4:0.12032 5:0.35947 6:0.050173 7:0.8503 8:0.054518 9:0.070061 10:0.60218 11:0.64686 12:0.67644 13:0.8285 14:0.035221 15:0.4567 16:0.45607 17:0.089002 18:0.58116 19:0.61915 20:0.83244 21:0.16587 22:0.50231 23:0.4324 24:0.14272 25:0.33049 26:0.59282 27:0.80807 28:0.25237 29:0.41383 30:0.1027 31:0.88908 32:0.9654 33:0.84632 34:0.055554 35:0.30087 36:0.40586 37:0.83938 38:0.28702 39:0.49898 40:0.41695 41:0.54756 42:0.45371 43:0.75059 44:0.21874 45:0.18134 46:0.32584 47:0.92573 48:0.79058 49:0.25583 50:0.47229 51:0.5426 52:0.044095 53:0.37331 54:0.41865 55:0.79681 56:0.34666 57:0.095729 58:0.84468 59:0.53997 60:0.23814 61:0.54719 62:0.22484 63:0.20235 64:0.87691 65:0.96784 66:0.93265 67:0.51451 68:0.45569 69:0.016429 70:0.4858 71:0.4354 72:0.5609 73:0.16363 74:0.51353 75:0.55146 76:0.58238 77:0.86282 78:0.67167 79:0.37456 80:0.88167 81:0.33882 82:0.6985 83:0.34654 84:0.1861 85:0.64136 86:0.55793 87:0.074445 88:0.50698 89:0.86041 90:0.43004 91:0.66942 92:0.50648 93:0.16612 94:0.2421 95:0.21207 96:0.63184 97:0.89642 98:0.93247 99:0.77681 100:0.45085 101:0.62454 102:0.72629 103:0.81813 104:0.91641 105:0.99959 106:0.35471 107:0.30174 108:0.047824 109:0.026309 110:0.49875 111:0.6634 112:0.73199 113:0.49024 114:0.92389 115:0.56098 116:0.38916 117:0.63941 118:0.39147 119:0.20704 120:0.76831 121:0.50242 122:0.62664 123:0.98492 124:0.43054 125:0.19028 126:0.33857 127:0.79374 128:0.15341 129:0.36342 130:0.19363 131:0.77434 132:0.51417 133:0.32432 134:0.35426 135:0.42927 136:0.67145 137:0.049808 138:0.32856 139:0.84677 140:0.049053 141:0.41114 142:0.3246 143:0.52875 144:0.9476 145:0.70929 146:0.76524 147:0.73336 148:0.30872 149:0.85271 150:0.2898 151:0.21527 152:0.75284 153:0.91117 154:0.88516 155:0.78308 156:0.49589 157:0.03437 158:0.65977 159:0.90338 160:0.32683 161:0.36432 162:0.48552 163:0.47269 164:0.54538 165:0.53422 166:0.85289 167:0.12967 168:0.92341 169:0.47453 170:0.91608 171:0.64011 172:0.65616 173:0.41752 174:0.71472 175:0.11604 176:0.92097 177:0.87676 178:0.040372 179:0.012206 180:0.18899 181:0.95702 182:0.96447 183:0.79044 184:0.597 185:0.32585 186:0.17528 187:0.72109 188:0.85689 189:0.067382 190:0.24678 191:0.98885 192:0.68907 
0.2086136974446183 0.5181699028840194 1:0.4727 2:0.17272 3:0.54839 4:0.13369 5:0.95418 6:0.57804 7:0.1939 8:0.36159 9:0.80337 10:0.91995 11:0.59497 12:0.43834 13:0.6689 14:0.062934 15:0.10647 16:0.11765 17:0.26838 18:0.99545 19:0.46934 20:0.15447 21:0.52748 22:0.12744 23:0.93208 24:0.54914 25:0.10916 26:0.2293 27:0.44101 28:0.56349 29:0.17115 30:0.15428 31:0.3482 32:0.008665 33:0.24491 34:0.59994 35:0.47936 36:0.95681 37:0.79054 38:0.83732 39:0.26975 40:0.93768 41:0.99039 42:0.50221 43:0.57275 44:0.045025 45:0.25864 46:0.36049 47:0.68216 48:0.026515 49:0.88673 50:0.54836 51:0.19815 52:0.79106 53:0.7902 54:0.47176 55:0.47239 56:0.40284 57:0.72485 58:0.2901 59:0.21392 60:0.011986 61:0.65332 62:0.83303 63:0.11297 64:0.85827 65:0.90354 66:0.24084 67:0.77334 68:0.45579 69:0.11988 70:0.61395 71:0.32711 72:0.8626 73:0.40413 74:0.64716 75:0.77853 76:0.47474 77:0.5569 78:0.71802 79:0.081545 80:0.99864 81:0.21211 82:0.06306 83:0.83134 84:0.54405 85:0.66318 86:0.064196 87:0.45416 88:0.74852 89:0.035758 90:0.62365 91:0.038355 92:0.7814 93:0.44266 94:0.61603 95:0.098177 96:0.26593 97:0.63491 98:0.2463 99:0.57997 100:0.44754 101:0.55336 102:0.88873 103:0.1887 104:0.72083 105:0.9923 106:0.79657 107:0.64901 108:0.31783 109:0.92889 110:0.64969 111:0.61037 112:0.63466 113:0.41805 114:0.8736 115:0.073774 116:0.57745 117:0.31848 118:0.067845 119:0.078974 120:0.73632 121:0.89939 122:0.2847 123:0.51834 124:0.28853 125:0.58925 126:0.19129 127:0.53787 128:0.061494 129:0.20545 130:0.98672 131:0.62409 132:0.23133 133:0.033702 134:0.91609 135:0.87357 136:0.51362 137:0.7049 138:0.90577 139:0.11313 140:0.85716 141:0.23568 142:0.75198 143:0.41381 144:0.11883 145:0.9275 146:0.15566 147:0.94642 148:0.30863 149:0.69621 150:0.84048 151:0.48799 152:0.85201 153:0.97018 154:0.088079 155:0.56301 156:0.60475 157:0.87537 158:0.47539 159:0.58662 160:0.89692 161:0.53203 162:0.60198 163:0.86829 164:0.9163 165:0.86147 166:0.43506 167:0.05497 168:0.45419 169:0.37452 170:0.99506 171:0.31081 172:0.57187 173:0.75913 174:0.88114 175:0.33452 176:0.58294 177:0.1013 178:0.4327 179:0.51709 180:0.46031 181:0.59919 182:0.29915 183:0.19924 184:0.78267 185:0.7442 186:0.061 187:0.46666 188:0.048984 189:0.60679 190:0.37809 191:0.24731 192:0.69055 
0.4402472323779971 0.4851258459391854 1:0.14103 2:0.304 3:0.37986 4:0.37067 5:0.08732 6:0.91112 7:0.84369 8:0.64374 9:0.60621 10:0.1576 11:0.95976 12:0.3757 13:0.10576 14:0.096637 15:0.30781 16:0.38296 17:0.62169 18:0.89766 19:0.84211 20:0.08616 21:0.96161 22:0.766 23:0.93375 24:0.81553 25:0.35964 26:0.42339 27:0.45831 28:0.83712 29:0.060423 30:0.63072 31:0.091244 32:0.53375 33:0.32459 34:0.42029 35:0.33343 36:0.71375 37:0.068744 38:0.30702 39:0.29011 40:0.87851 41:0.71945 42:0.080844 43:0.1584 44:0.33732 45:0.78638 46:0.07439 47:0.49668 48:0.17916 49:0.043658 50:0.10091 51:0.36501 52:0.20113 53:0.5916 54:0.62955 55:0.16009 56:0.0070034 57:0.64197 58:0.099808 59:0.62724 60:0.60292 61:0.5774 62:0.50429 63:0.032575 64:0.1587 65:0.25874 66:0.94158 67:0.77995 68:0.035861 69:0.29685 70:0.80745 71:0.031544 72:0.011251 73:0.67499 74:0.15449 75:0.92266 76:0.31167 77:0.39393 78:0.10467 79:0.60076 80:0.75728 81:0.65912 82:0.78149 83:0.42394 84:0.92767 85:0.82906 86:0.79327 87:0.42825 88:0.6822 89:0.20655 90:0.64906 91:0.62575 92:0.85821 93:0.89249 94:0.69764 95:0.91085 96:0.75871 97:0.47179 98:0.31858 99:0.14306 100:0.33865 101:0.92651 102:0.99623 103:0.87391 104:0.51998 105:0.50085 106:0.5538 107:0.65642 108:0.29954 109:0.54604 110:0.68772 111:0.99259 112:0.89307 113:0.54877 114:0.050525 115:0.54693 116:0.37913 117:0.029972 118:0.92994 119:0.4525 120:0.0099751 121:0.66674 122:0.13111 123:0.50774 124:0.70563 125:0.3641 126:0.3906 127:0.57817 128:0.14144 129:0.79481 130:0.94767 131:0.35228 132:0.33835 133:0.074846 134:0.37768 135:0.78283 136:0.59787 137:0.97547 138:0.038833 139:0.07578 140:0.47386 141:0.52371 142:0.93782 143:0.57716 144:0.90517 145:0.66018 146:0.75832 147:0.3464 148:0.49035 149:0.20715 150:0.41408 151:0.89623 152:0.98375 153:0.58135 154:0.23701 155:0.011888 156:0.38317 157:0.67822 158:0.38766 159:0.91205 160:0.6369 161:0.55576 162:0.55793 163:0.35828 164:0.32121 165:0.43556 166:0.57827 167:0.68059 168:0.27393 169:0.53134 170:0.37846 171:0.87675 172:0.68879 173:0.0048388 174:0.52638 175:0.745 176:0.65198 177:0.19567 178:0.073202 179:0.054721 180:0.92693 181:0.61915 182:0.012985 183:0.68943 184:0.80193 185:0.015742 186:0.92347 187:0.51872 188:0.86161 189:0.72881 190:0.72325 191:0.097999 192:0.34788 
0.5776507880745232 0.9267818712595282 1:0.85543 2:0.18139 3:0.73955 4:0.39963 5:0.52138 6:0.5769 7:0.51818 8:0.18663 9:0.79164 10:0.21851 11:0.74152 12:0.1624 13:0.27406 14:0.99838 15:0.40929 16:0.7786 17:0.76551 18:0.10724 19:0.94473 20:0.31675 21:0.43849 22:0.5747 23:0.18552 24:0.46756 25:0.82974 26:0.33224 27:0.66498 28:0.84956 29:0.20358 30:0.54169 31:0.29302 32:0.20284 33:0.5714 34:0.40501 35:0.73092 36:0.98999 37:0.36739 38:0.76176 39:0.8569 40:0.047969 41:0.35797 42:0.59035 43:0.066181 44:0.3064 45:0.36789 46:0.8637 47:0.98895 48:0.44826 49:0.60064 50:0.26611 51:0.29138 52:0.23216 53:0.70527 54:0.40126 55:0.5703 56:0.1272 57:0.31835 58:0.58482 59:0.96911 60:0.69491 61:0.19474 62:0.75007 63:0.69925 64:0.24987 65:0.2654 66:0.56111 67:0.79838 68:0.59099 69:0.7123 70:0.8401 71:0.98592 72:0.053157 73:0.20014 74:0.83654 75:0.38547 76:0.87787 77:0.8653 78:0.048265 79:0.54875 80:0.39381 81:0.63504 82:0.62691 83:0.57919 84:0.93322 85:0.49138 86:0.83003 87:0.56838 88:0.14892 89:0.5937 90:0.86812 91:0.044002 92:0.64763 93:0.4497 94:0.63495 95:0.85934 96:0.52912 97:0.86206 98:0.42856 99:0.015727 100:0.11701 101:0.47644 102:0.39035 103:0.94308 104:0.63866 105:0.55094 106:0.50479 107:0.56261 108:0.24356 109:0.64449 110:0.25982 111:0.69806 112:0.28864 113:0.41138 114:0.64505 115:0.18563 116:0.73009 117:0.51078 118:0.079213 119:0.078165 120:0.58664 121:0.6036 122:0.41429 123:0.93551 124:0.07193 125:0.39557 126:0.41583 127:0.30868 128:0.45634 129:0.83845 130:0.47668 131:0.27384 132:0.89896 133:0.14339 134:0.76511 135:0.52345 136:0.03381 137:0.45553 138:0.19253 139:0.21798 140:0.20027 141:0.55234 142:0.39292 143:0.56506 144:0.31811 145:0.33407 146:0.88269 147:0.1834 148:0.198 149:0.85905 150:0.73049 151:0.86459 152:0.27371 153:0.86731 154:0.42139 155:0.014831 156:0.56916 157:0.8241 158:0.15034 159:0.17857 160:0.013241 161:0.04342 162:0.94914 163:0.89489 164:0.91518 165:0.89745 166:0.51628 167:0.66579 168:0.098071 169:0.25666 170:0.78052 171:0.58274 172:0.92511 173:0.90405 174:0.24601 175:0.71323 176:0.4372 177:0.29075 178:0.11411 179:0.18659 180:0.61126 181:0.87654 182:0.63185 183:0.36456 184:0.25396 185:0.70459 186:0.64877 187:0.58846 188:0.29157 189:0.17408 190:0.9641 191:0.1138 192:0.21477 
0.5893885689365596 1 1:0.7493 2:0.64029 3:0.9775 4:0.6206 5:0.72817 6:0.69994 7:0.37143 8:0.29405 9:0.94033 10:0.95037 11:0.34754 12:0.45847 13:0.77466 14:0.24393 15:0.34591 16:0.9001 17:0.51 18:0.72279 19:0.86426 20:0.97197 21:0.047833 22:0.56047 23:0.31487 24:0.26174 25:0.75333 26:0.46106 27:0.22906 28:0.55298 29:0.46862 30:0.34272 31:0.13207 32:0.64981 33:0.75768 34:0.88232 35:0.67046 36:0.6057 37:0.97369 38:0.02334 39:0.83605 40:0.70141 41:0.86586 42:0.2414 43:0.67321 44:0.0076113 45:0.49804 46:0.69197 47:0.71045 48:0.17593 49:0.12039 50:0.55389 51:0.35121 52:0.36231 53:0.63105 54:0.57368 55:0.053805 56:0.44981 57:0.75228 58:0.048373 59:0.59622 60:0.10196 61:0.94443 62:0.89977 63:0.34156 64:0.55172 65:0.41025 66:0.4153 67:0.55617 68:0.35272 69:0.95148 70:0.077308 71:0.053615 72:0.28418 73:0.54048 74:0.19505 75:0.20223 76:0.89578 77:0.48517 78:0.7602 79:0.096955 80:0.87876 81:0.96501 82:0.21828 83:0.67147 84:0.74576 85:0.63412 86:0.64388 87:0.44792 88:0.62603 89:0.28319 90:0.27471 91:0.62905 92:0.95257 93:0.96298 94:0.070138 95:0.09148 96:0.31915 97:0.80074 98:0.14001 99:0.14818 100:0.52033 101:0.69075 102:0.85633 103:0.73572 104:0.43215 105:0.83068 106:0.37212 107:0.83807 108:0.4483 109:0.69538 110:0.77989 111:0.31609 112:0.36405 113:0.54511 114:0.77947 115:0.35894 116:0.38554 117:0.55313 118:0.057488 119:0.75668 120:0.94349 121:0.96304 122:0.5368 123:0.58175 124:0.7093 125:0.82886 126:0.50634 127:0.10089 128:0.59381 129:0.15354 130:0.92435 131:0.80561 132:0.18257 133:0.12105 134:0.13975 135:0.24233 136:0.16447 137:0.76272 138:0.13769 139:0.2038 140:0.59157 141:0.5651 142:0.80669 143:0.16034 144:0.96612 145:0.085475 146:0.33072 147:0.4053 148:0.38972 149:0.97887 150:0.064571 151:0.08196 152:0.79669 153:0.030447 154:0.52619 155:0.87039 156:0.62155 157:0.14061 158:0.34788 159:0.15555 160:0.57955 161:0.94042 162:0.74965 163:0.419 164:0.39812 165:0.86665 166:0.36525 167:0.15122 168:0.95772 169:0.6723 170:0.17078 171:0.57652 172:0.70916 173:0.90594 174:0.28429 175:0.053654 176:0.76265 177:0.89245 178:0.87126 179:0.67598 180:0.016012 181:0.55698 182:0.63561 183:0.71288 184:0.77862 185:0.70567 186:0.24171 187:0.17826 188:0.68005 189:0.39962 190:0.95319 191:0.17869 192:0.49345 
0 1 1:0.30169 2:0.072825 3:0.088586 4:0.026006 5:0.88002 6:0.47466 7:0.19287 8:0.91254 9:0.45243 10:0.63414 11:0.12012 12:0.36142 13:0.96588 14:0.038851 15:0.92522 16:0.85787 17:0.18411 18:0.98571 19:0.12615 20:0.96877 21:0.87627 22:0.017883 23:0.36123 24:0.4641 25:0.74821 26:0.050412 27:0.48213 28:0.96095 29:0.63535 30:0.78446 31:0.6633 32:0.1269 33:0.10197 34:0.69024 35:0.58949 36:0.027326 37:0.92375 38:0.36278 39:0.93299 40:0.18846 41:0.25569 42:0.29663 43:0.66723 44:0.95782 45:0.56612 46:0.18982 47:0.91675 48:0.7824 49:0.075193 50:0.98301 51:0.71703 52:0.61953 53:0.35873 54:0.39425 55:0.38104 56:0.31018 57:0.48392 58:0.79044 59:0.40737 60:0.3118 61:0.82885 62:0.071047 63:0.98602 64:0.98439 65:0.34396 66:0.425 67:0.58078 68:0.055592 69:0.92306 70:0.65289 71:0.17105 72:0.68624 73:0.44421 74:0.26892 75:0.053894 76:0.44923 77:0.38985 78:0.1692 79:0.91436 80:0.75976 81:0.27032 82:0.52645 83:0.49945 84:0.85382 85:0.22479 86:0.60774 87:0.22459 88:0.42043 89:0.080363 90:0.87538 91:0.86722 92:0.62113 93:0.088435 94:0.41279 95:0.094451 96:0.035052 97:0.20524 98:0.59422 99:0.1047 100:0.0030583 101:0.44587 102:0.056532 103:0.3139 104:0.44793 105:0.20193 106:0.69358 107:0.33359 108:0.8842 109:0.19521 110:0.78442 111:0.6977 112:0.44774 113:0.35268 114:0.54167 115:0.5717 116:0.68629 117:0.57887 118:0.90173 119:0.78886 120:0.22358 121:0.9797 122:0.18605 123:0.79042 124:0.77006 125:0.46188 126:0.23104 127:0.15685 128:0.14528 129:0.37504 130:0.76222 131:0.6703 132:0.5239 133:0.71049 134:0.33274 135:0.95121 136:0.80543 137:0.61326 138:0.25588 139:0.77542 140:0.0028411 141:0.99508 142:0.11149 143:0.35857 144:0.71502 145:0.71293 146:0.59847 147:0.97288 148:0.87759 149:0.46995 150:0.77193 151:0.72343 152:0.77947 153:0.83585 154:0.78716 155:0.85187 156:0.35232 157:0.55194 158:0.76935 159:0.36445 160:0.10508 161:0.27335 162:0.38797 163:0.70038 164:0.4899 165:0.076953 166:0.8712 167:0.37256 168:0.3917 169:0.93215 170:0.38358 171:0.65094 172:0.19342 173:0.69829 174:0.56553 175:0.57711 176:0.040588 177:0.94895 178:0.7673 179:0.97971 180:0.32914 181:0.10738 182:0.92872 183:0.7711 184:0.30154 185:0.51556 186:0.36929 187:0.83577 188:0.12694 189:0.37513 190:0.77235 191:0.93971 192:0.46444 
1 1 1:0.97286 2:0.18912 3:0.16803 4:0.99732 5:0.26101 6:0.8883 7:0.33229 8:0.5375 9:0.28416 10:0.61753 11:0.75366 12:0.63824 13:0.20771 14:0.85554 15:0.54768 16:0.61601 17:0.8226 18:0.18235 19:0.52793 20:0.54046 21:0.16604 22:0.37101 23:0.43976 24:0.47369 25:0.63418 26:0.40652 27:0.46011 28:0.4254 29:0.38905 30:0.75332 31:0.69895 32:0.20829 33:0.058483 34:0.88692 35:0.86964 36:0.33804 37:0.32665 38:0.77812 39:0.84752 40:0.22895 41:0.13508 42:0.47059 43:0.2068 44:0.35505 45:0.017705 46:0.1665 47:0.93938 48:0.98334 49:0.97634 50:0.22299 51:0.49997 52:0.71953 53:0.79014 54:0.81383 55:0.51657 56:0.82209 57:0.17809 58:0.75276 59:0.36979 60:0.60233 61:0.55861 62:0.62657 63:0.89733 64:0.59601 65:0.10059 66:0.90036 67:0.22971 68:0.34006 69:0.53655 70:0.4856 71:0.29184 72:0.39679 73:0.96238 74:0.2587 75:0.98552 76:0.27131 77:0.56136 78:0.35319 79:0.13988 80:0.60323 81:0.71701 82:0.87906 83:0.2218 84:0.82788 85:0.023354 86:0.50033 87:0.21948 88:0.74272 89:0.49507 90:0.38346 91:0.18516 92:0.8032 93:0.46722 94:0.10734 95:0.1959 96:0.71802 97:0.28444 98:0.74432 99:0.99304 100:0.48555 101:0.19892 102:0.49878 103:0.023138 104:0.2297 105:0.29235 106:0.030701 107:0.53422 108:0.05375 109:0.78166 110:0.39803 111:0.19357 112:0.070002 113:0.7429 114:0.44364 115:0.44555 116:0.86066 117:0.32769 118:0.32729 119:0.42291 120:0.29284 121:0.78329 122:0.49791 123:0.29157 124:0.3483 125:0.56381 126:0.11307 127:0.083219 128:0.29857 129:0.7844 130:0.72931 131:0.79131 132:0.31988 133:0.23961 134:0.45186 135:0.033899 136:0.78676 137:0.44523 138:0.93566 139:0.30396 140:0.39107 141:0.64143 142:0.77525 143:0.91895 144:0.96317 145:0.77757 146:0.61075 147:0.23777 148:0.87139 149:0.20986 150:0.32817 151:0.37963 152:0.29536 153:0.93375 154:0.16811 155:0.89204 156:0.37804 157:0.26449 158:0.14789 159:0.47298 160:0.66075 161:0.99582 162:0.73814 163:0.35956 164:0.89273 165:0.093941 166:0.82873 167:0.94073 168:0.42249 169:0.22114 170:0.86091 171:0.40503 172:0.32047 173:0.51453 174:0.6484 175:0.7087 176:0.72151 177:0.0097306 178:0.27879 179:0.81487 180:0.81657 181:0.12397 182:0.44814 183:0.39699 184:0.23729 185:0.89117 186:0.098974 187:0.37712 188:0.12246 189:0.89934 190:0.63889 191:0.10881 192:0.59954 
1 1 1:0.7333 2:0.060519 3:0.75533 4:0.58712 5:0.30031 6:0.48316 7:0.24084 8:0.97512 9:0.2366 10:0.26265 11:0.15535 12:0.76001 13:0.030969 14:0.24898 15:0.4133 16:0.069746 17:0.36449 18:0.67687 19:0.94332 20:0.65679 21:0.94641 22:0.24296 23:0.46055 24:0.5788 25:0.16856 26:0.60058 27:0.51293 28:0.79615 29:0.020887 30:0.94275 31:0.54284 32:0.74515 33:0.97034 34:0.58252 35:0.96897 36:0.9074 37:0.61709 38:0.50487 39:0.37024 40:0.3823 41:0.48294 42:0.37442 43:0.99825 44:0.90921 45:0.48933 46:0.11678 47:0.1106 48:0.6189 49:0.89969 50:0.35659 51:0.47167 52:0.25758 53:0.94699 54:0.99783 55:0.41045 56:0.67981 57:0.78877 58:0.71852 59:0.096408 60:0.64874 61:0.62183 62:0.30404 63:0.022758 64:0.39275 65:0.066256 66:0.44932 67:0.67813 68:0.56049 69:0.1794 70:0.29609 71:0.042463 72:0.019607 73:0.24271 74:0.23519 75:0.69184 76:0.38917 77:0.27665 78:0.26638 79:0.38961 80:0.82882 81:0.57959 82:0.34365 83:0.28557 84:0.11526 85:0.65602 86:0.62756 87:0.89549 88:0.73939 89:0.026104 90:0.12433 91:0.70402 92:0.67909 93:0.76224 94:0.15199 95:0.50423 96:0.17319 97:0.85477 98:0.50764 99:0.15747 100:0.65463 101:0.23056 102:0.88421 103:0.9154 104:0.25183 105:0.80545 106:0.031312 107:0.98888 108:0.56132 109:0.2038 110:0.10709 111:0.84059 112:0.38911 113:0.80104 114:0.046013 115:0.28237 116:0.70449 117:0.87989 118:0.40121 119:0.94985 120:0.6802 121:0.28265 122:0.38623 123:0.50694 124:0.65836 125:0.73284 126:0.98044 127:0.04624 128:0.82349 129:0.77118 130:0.42062 131:0.04265 132:0.095213 133:0.49504 134:0.65187 135:0.28103 136:0.66612 137:0.45466 138:0.46152 139:0.29674 140:0.91088 141:0.67899 142:0.67129 143:0.38459 144:0.57197 145:0.84713 146:0.8219 147:0.17523 148:0.80941 149:0.7621 150:0.80118 151:0.22128 152:0.97668 153:0.30674 154:0.81407 155:0.51835 156:0.74687 157:0.074563 158:0.70877 159:0.56203 160:0.15274 161:0.26771 162:0.37146 163:0.73851 164:0.72606 165:0.074579 166:0.99223 167:0.35325 168:0.85707 169:0.75913 170:0.82736 171:0.91231 172:0.069308 173:0.68207 174:0.16857 175:0.66124 176:0.58589 177:0.18282 178:0.80603 179:0.23587 180:0.80975 181:0.28851 182:0.22078 183:0.13745 184:0.78146 185:0.6198 186:0.49381 187:0.83099 188:0.33317 189:0.94731 190:0.27739 191:0.58118 192:0.58188 
0 0.6119662959058876 1:0.36673 2:0.13003 3:0.93465 4:0.37554 5:0.39266 6:0.9014 7:0.53649 8:0.41335 9:0.39264 10:0.96268 11:0.67645 12:0.14703 13:0.6867 14:0.66454 15:0.66871 16:0.98833 17:0.08531 18:0.84815 19:0.13569 20:0.81134 21:0.10748 22:0.86446 23:0.95 24:0.49373 25:0.72802 26:0.21957 27:0.18817 28:0.64714 29:0.90286 30:0.52668 31:0.72208 32:0.10347 33:0.016471 34:0.94541 35:0.097392 36:0.20331 37:0.39515 38:0.39578 39:0.20971 40:0.20523 41:0.8931 42:0.049693 43:0.88841 44:0.63041 45:0.042007 46:0.73956 47:0.46107 48:0.9928 49:0.12393 50:0.8995 51:0.093892 52:0.05701 53:0.50095 54:0.53228 55:0.18849 56:0.46488 57:0.44505 58:0.50137 59:0.47928 60:0.12027 61:0.50646 62:0.27648 63:0.36992 64:0.52067 65:0.14171 66:0.30748 67:0.59688 68:0.56803 69:0.57791 70:0.86161 71:0.48891 72:0.31304 73:0.48254 74:0.99752 75:0.21861 76:0.9019 77:0.11111 78:0.060649 79:0.089335 80:0.26373 81:0.53564 82:0.24095 83:0.013801 84:0.88293 85:0.44981 86:0.65613 87:0.86565 88:0.71323 89:0.11095 90:0.17721 91:0.91123 92:0.18203 93:0.85809 94:0.019867 95:0.050311 96:0.053267 97:0.71161 98:0.79502 99:0.43182 100:0.22787 101:0.98251 102:0.19893 103:0.59646 104:0.20223 105:0.56759 106:0.41854 107:0.4653 108:0.64592 109:0.7139 110:0.4773 111:0.56182 112:0.68158 113:0.090242 114:0.59408 115:0.18764 116:0.7058 117:0.81495 118:0.99313 119:0.21723 120:0.35037 121:0.69309 122:0.65468 123:0.77741 124:0.14717 125:0.77269 126:0.32245 127:0.94856 128:0.27759 129:0.28769 130:0.71081 131:0.54556 132:0.9506 133:0.63686 134:0.45914 135:0.86825 136:0.98599 137:0.94861 138:0.44662 139:0.67616 140:0.92601 141:0.19276 142:0.96463 143:0.12207 144:0.91115 145:0.71968 146:0.69518 147:0.080901 148:0.69052 149:0.0094803 150:0.20677 151:0.32083 152:0.14113 153:0.30378 154:0.58289 155:0.87631 156:0.79844 157:0.12549 158:0.86716 159:0.31725 160:0.27823 161:0.60828 162:0.7983 163:0.19941 164:0.77218 165:0.56507 166:0.8664 167:0.75712 168:0.55819 169:0.45503 170:0.83852 171:0.80482 172:0.7828 173:0.37499 174:0.31115 175:0.28289 176:0.99082 177:0.91726 178:0.67203 179:0.35857 180:0.90332 181:0.50833 182:0.036223 183:0.99772 184:0.578 185:0.44867 186:0.1968 187:0.78399 188:0.33557 189:0.22502 190:0.58929 191:0.14587 192:0.28109 
0.7460592900893778 0.493228219009637 1:0.49627 2:0.86226 3:0.8132 4:0.20055 5:0.62584 6:0.32426 7:0.5801 8:0.98067 9:0.6213 10:0.70341 11:0.43207 12:0.54585 13:0.78267 14:0.095464 15:0.1094 16:0.18407 17:0.81356 18:0.19796 19:0.51357 20:0.63655 21:0.83175 22:0.094164 23:0.24971 24:0.049858 25:0.5876 26:0.74409 27:0.16961 28:0.22333 29:0.35122 30:0.17817 31:0.41275 32:0.62247 33:0.4019 34:0.052725 35:0.14261 36:0.96097 37:0.77592 38:0.28622 39:0.48634 40:0.52888 41:0.42494 42:0.71054 43:0.0018705 44:0.058886 45:0.01298 46:0.76963 47:0.61618 48:0.71799 49:0.32851 50:0.43139 51:0.10416 52:0.16896 53:0.32461 54:0.23896 55:0.3362 56:0.12911 57:0.12906 58:0.47598 59:0.41105 60:0.49158 61:0.41742 62:0.0083396 63:0.37468 64:0.46937 65:0.011483 66:0.84179 67:0.60867 68:0.81086 69:0.53087 70:0.025815 71:0.021473 72:0.84004 73:0.023797 74:0.9903 75:0.1233 76:0.68235 77:0.57592 78:0.81764 79:0.39433 80:0.35015 81:0.12533 82:0.24021 83:0.31931 84:0.45826 85:0.20388 86:0.20841 87:0.041271 88:0.45422 89:0.1928 90:0.88104 91:0.70529 92:0.37712 93:0.6498 94:0.035946 95:0.57069 96:0.67592 97:0.97637 98:0.18679 99:0.92231 100:0.02461 101:0.07306 102:0.56176 103:0.34674 104:0.29538 105:0.6656 106:0.88752 107:0.14186 108:0.32245 109:0.91613 110:0.93547 111:0.090425 112:0.11223 113:0.6217 114:0.24512 115:0.79176 116:0.19968 117:0.2883 118:0.76225 119:0.10835 120:0.12212 121:0.4391 122:0.79985 123:0.97713 124:0.64842 125:0.86176 126:0.88559 127:0.08234 128:0.12556 129:0.48234 130:0.88236 131:0.3827 132:0.2182 133:0.15137 134:0.66977 135:0.84657 136:0.20334 137:0.79741 138:0.95421 139:0.23203 140:0.27004 141:0.67545 142:0.31592 143:0.094312 144:0.42753 145:0.24955 146:0.44452 147:0.058808 148:0.25444 149:0.12378 150:0.065871 151:0.33817 152:0.95296 153:0.64602 154:0.88291 155:0.78162 156:0.74446 157:0.4532 158:0.62087 159:0.50876 160:0.2067 161:0.13576 162:0.96553 163:0.83497 164:0.2935 165:0.85011 166:0.84744 167:0.61921 168:0.28478 169:0.1136 170:0.17571 171:0.21978 172:0.044127 173:0.11436 174:0.86194 175:0.46372 176:0.68552 177:0.72691 178:0.83729 179:0.91899 180:0.29686 181:0.97345 182:0.96302 183:0.24133 184:0.64396 185:0.44116 186:0.40876 187:0.17604 188:0.58791 189:0.38693 190:0.27713 191:0.2665 192:0.92664 
0.7448962108675183 1 1:0.23178 2:0.9973 3:0.22962 4:0.43999 5:0.42889 6:0.16428 7:0.8725 8:0.46486 9:0.63441 10:0.63233 11:0.17059 12:0.044963 13:0.47103 14:0.55508 15:0.41977 16:0.73442 17:0.22585 18:0.72688 19:0.50612 20:0.98038 21:0.59086 22:0.68014 23:0.84259 24:0.64374 25:0.96485 26:0.64511 27:0.73431 28:0.77862 29:0.59891 30:0.18262 31:0.45395 32:0.82973 33:0.6243 34:0.04594 35:0.87856 36:0.94442 37:0.86737 38:0.6687 39:0.6598 40:0.040389 41:0.42366 42:0.090412 43:0.53126 44:0.40893 45:0.2362 46:0.20325 47:0.55061 48:0.86655 49:0.57594 50:0.075524 51:0.17976 52:0.94632 53:0.77132 54:0.76276 55:0.90473 56:0.6158 57:0.80187 58:0.75272 59:0.72938 60:0.3892 61:0.36509 62:0.23382 63:0.055456 64:0.020848 65:0.76185 66:0.097711 67:0.86598 68:0.56943 69:0.55761 70:0.16122 71:0.50198 72:0.24669 73:0.98766 74:0.36498 75:0.29709 76:0.65075 77:0.45671 78:0.53528 79:0.77818 80:0.99049 81:0.77395 82:0.23413 83:0.75132 84:0.88694 85:0.99319 86:0.93684 87:0.43768 88:0.51647 89:0.92301 90:0.26985 91:0.072833 92:0.50229 93:0.73368 94:0.37935 95:0.47107 96:0.19473 97:0.51641 98:0.30788 99:0.042387 100:0.81348 101:0.65298 102:0.095439 103:0.053282 104:0.78119 105:0.24593 106:0.21608 107:0.95302 108:0.53104 109:0.96308 110:0.86246 111:0.087422 112:0.42009 113:0.52239 114:0.13146 115:0.93021 116:0.52138 117:0.97627 118:0.82951 119:0.38466 120:0.64978 121:0.87841 122:0.65548 123:0.33408 124:0.79705 125:0.50529 126:0.4814 127:0.89566 128:0.055654 129:0.40768 130:0.6354 131:0.78422 132:0.60942 133:0.54706 134:0.50166 135:0.56897 136:0.60384 137:0.43404 138:0.68683 139:0.6449 140:0.74138 141:0.27423 142:0.5937 143:0.94105 144:0.59368 145:0.45445 146:0.79658 147:0.31965 148:0.67138 149:0.34293 150:0.10839 151:0.84841 152:0.37133 153:0.33324 154:0.96741 155:0.59398 156:0.86115 157:0.24563 158:0.91178 159:0.82536 160:0.62267 161:0.72627 162:0.35686 163:0.21413 164:0.9573 165:0.92366 166:0.046206 167:0.03846 168:0.44298 169:0.50792 170:0.10012 171:0.43836 172:0.9256 173:0.96041 174:0.49164 175:0.14675 176:0.41012 177:0.71472 178:0.26994 179:0.76342 180:0.44932 181:0.63788 182:0.69292 183:0.13589 184:0.79018 185:0.43481 186:0.79002 187:0.96692 188:0.58249 189:0.050303 190:0.36912 191:0.6446 192:0.56965 
0.3724929742548241 0.03097929639868249 1:0.38726 2:0.15298 3:0.8979 4:0.73774 5:0.42105 6:0.72478 7:0.82099 8:0.83571 9:0.53674 10:0.9959 11:0.33767 12:0.51711 13:0.15109 14:0.28228 15:0.47754 16:0.36519 17:0.2025 18:0.30522 19:0.78194 20:0.98828 21:0.63641 22:0.80346 23:0.77081 24:0.22508 25:0.25243 26:0.84913 27:0.37063 28:0.83781 29:0.41821 30:0.49898 31:0.65718 32:0.19226 33:0.85707 34:0.74429 35:0.46536 36:0.57717 37:0.26006 38:0.17475 39:0.17162 40:0.54505 41:0.66281 42:0.90919 43:0.015673 44:0.87564 45:0.93831 46:0.74568 47:0.3813 48:0.12282 49:0.24709 50:0.89275 51:0.98123 52:0.72995 53:0.27063 54:0.54385 55:0.999 56:0.24641 57:0.68619 58:0.23842 59:0.83417 60:0.91718 61:0.24606 62:0.22786 63:0.19325 64:0.077668 65:0.39293 66:0.85561 67:0.31228 68:0.49461 69:0.80498 70:0.16201 71:0.14097 72:0.3671 73:0.43998 74:0.63803 75:0.029647 76:0.74619 77:0.25841 78:0.9121 79:0.89453 80:0.62252 81:0.081943 82:0.021675 83:0.72407 84:0.59058 85:0.11923 86:0.7782 87:0.78445 88:0.59615 89:0.38633 90:0.98232 91:0.94815 92:0.7637 93:0.64152 94:0.93636 95:0.78844 96:0.37699 97:0.17749 98:0.58091 99:0.29483 100:0.37756 101:0.51027 102:0.27881 103:0.258 104:0.049187 105:0.91274 106:0.15746 107:0.048789 108:0.15104 109:0.92738 110:0.33431 111:0.86937 112:0.83506 113:0.1865 114:0.90767 115:0.82178 116:0.060125 117:0.46642 118:0.1218 119:0.043766 120:0.053391 121:0.012403 122:0.11496 123:0.96585 124:0.1226 125:0.23309 126:0.59651 127:0.70576 128:0.76751 129:0.53883 130:0.73191 131:0.54028 132:0.82798 133:0.063026 134:0.37288 135:0.076491 136:0.0949 137:0.095425 138:0.7466 139:0.41322 140:0.27668 141:0.02006 142:0.011903 143:0.30927 144:0.71427 145:0.78906 146:0.63786 147:0.97757 148:0.24296 149:0.36296 150:0.50038 151:0.91193 152:0.89738 153:0.99706 154:0.23237 155:0.0093829 156:0.41317 157:0.024797 158:0.83289 159:0.58859 160:0.35044 161:0.81207 162:0.85022 163:0.0062173 164:0.086475 165:0.14771 166:0.78971 167:0.91366 168:0.82987 169:0.80065 170:0.30411 171:0.64181 172:0.39113 173:0.024209 174:0.41892 175:0.41566 176:0.95709 177:0.51351 178:0.73644 179:0.43035 180:0.24051 181:0.32658 182:0.038207 183:0.78952 184:0.2216 185:0.71354 186:0.48886 187:0.92266 188:0.27044 189:0.60421 190:0.19966 191:0.24975 192:0.99141 
0.262332059991473 1 1:0.95537 2:0.8503 3:0.023448 4:0.19505 5:0.074573 6:0.59475 7:0.22542 8:0.47872 9:0.77027 10:0.85477 11:0.52287 12:0.19164 13:0.34531 14:0.26744 15:0.61382 16:0.80129 17:0.44752 18:0.26522 19:0.27725 20:0.82008 21:0.28759 22:0.063392 23:0.014051 24:0.77591 25:0.90724 26:0.73926 27:0.43193 28:0.68675 29:0.010392 30:0.30542 31:0.91507 32:0.35579 33:0.78723 34:0.22459 35:0.19228 36:0.96313 37:0.85327 38:0.67689 39:0.42381 40:0.21965 41:0.80514 42:0.79129 43:0.83886 44:0.915 45:0.28884 46:0.9726 47:0.73415 48:0.68048 49:0.99975 50:0.71989 51:0.6456 52:0.53092 53:0.87816 54:0.11689 55:0.22721 56:0.4596 57:0.23873 58:0.98749 59:0.85655 60:0.19672 61:0.035645 62:0.88771 63:0.40913 64:0.43733 65:0.14455 66:0.98826 67:0.38078 68:0.43725 69:0.785 70:0.14539 71:0.37593 72:0.035403 73:0.64328 74:0.21044 75:0.7318 76:0.87931 77:0.32456 78:0.47671 79:0.61224 80:0.36253 81:0.46265 82:0.46799 83:0.27934 84:0.20647 85:0.046913 86:0.22587 87:0.98835 88:0.63514 89:0.58344 90:0.4138 91:0.050352 92:0.71036 93:0.9727 94:0.6982 95:0.74902 96:0.66923 97:0.69687 98:0.37948 99:0.21488 100:0.15126 101:0.23857 102:0.76699 103:0.62662 104:0.46368 105:0.099684 106:0.58023 107:0.94638 108:0.9956 109:0.71793 110:0.15041 111:0.40802 112:0.1283 113:0.94765 114:0.431 115:0.50156 116:0.45499 117:0.0068149 118:0.64826 119:0.93951 120:0.92793 121:0.93383 122:0.056388 123:0.91185 124:0.33439 125:0.060864 126:0.44355 127:0.52626 128:0.79357 129:0.060445 130:0.8835 131:0.27349 132:0.38492 133:0.60772 134:0.37446 135:0.34965 136:0.54881 137:0.63052 138:0.82765 139:0.33469 140:0.74044 141:0.029948 142:0.45982 143:0.95275 144:0.48268 145:0.11074 146:0.61902 147:0.95776 148:0.49343 149:0.050245 150:0.35395 151:0.14396 152:0.93076 153:0.41419 154:0.68301 155:0.73991 156:0.38661 157:0.42432 158:0.58147 159:0.84757 160:0.62277 161:0.17774 162:0.46786 163:0.23209 164:0.052914 165:0.46433 166:0.56936 167:0.21085 168:0.90702 169:0.92074 170:0.89746 171:0.078317 172:0.24598 173:0.058559 174:0.74133 175:0.59516 176:0.48463 177:0.10434 178:0.34445 179:0.16456 180:0.40709 181:0.29082 182:0.728 183:0.15789 184:0.029897 185:0.47831 186:0.85156 187:0.051876 188:0.39295 189:0.45708 190:0.012518 191:0.41631 192:0.75298 
0.6346253200229827 1 1:0.74998 2:0.56716 3:0.38773 4:0.010292 5:0.57668 6:0.4439 7:0.16858 8:0.16628 9:0.62416 10:0.78219 11:0.94199 12:0.17293 13:0.62935 14:0.32181 15:0.51592 16:0.96625 17:0.62989 18:0.88164 19:0.50216 20:0.6365 21:0.53813 22:0.54828 23:0.68506 24:0.15846 25:0.82232 26:0.41652 27:0.79775 28:0.52162 29:0.36662 30:0.057604 31:0.59326 32:0.26484 33:0.25094 34:0.32723 35:0.71724 36:0.8872 37:0.7109 38:0.22958 39:0.56782 40:0.45584 41:0.14781 42:0.81613 43:0.89354 44:0.16531 45:0.3526 46:0.29219 47:0.90084 48:0.066167 49:0.23794 50:0.90865 51:0.50823 52:0.46939 53:0.037332 54:0.56018 55:0.60629 56:0.63101 57:0.75825 58:0.009401 59:0.52221 60:0.81537 61:0.68794 62:0.89537 63:0.36849 64:0.90022 65:0.009318 66:0.81984 67:0.094234 68:0.69324 69:0.31159 70:0.42787 71:0.28235 72:0.16499 73:0.36303 74:0.76941 75:0.77282 76:0.27105 77:0.6946 78:0.77525 79:0.72327 80:0.00047667 81:0.91624 82:0.22673 83:0.6588 84:0.23253 85:0.51943 86:0.67383 87:0.051859 88:0.61109 89:0.37254 90:0.59604 91:0.88033 92:0.24428 93:0.84156 94:0.060625 95:0.9009 96:0.77195 97:0.62027 98:0.016175 99:0.51785 100:0.36119 101:0.26729 102:0.12015 103:0.80116 104:0.57499 105:0.47255 106:0.36529 107:0.055071 108:0.064355 109:0.81154 110:0.24736 111:0.59976 112:0.70521 113:0.14108 114:0.37731 115:0.90394 116:0.8322 117:0.55389 118:0.14905 119:0.26651 120:0.42589 121:0.69047 122:0.23948 123:0.47553 124:0.61039 125:0.79035 126:0.074563 127:0.56878 128:0.72188 129:0.8948 130:0.40229 131:0.051987 132:0.26111 133:0.2974 134:0.34685 135:0.15745 136:0.23113 137:0.33238 138:0.345 139:0.53554 140:0.7908 141:0.1629 142:0.4502 143:0.9193 144:0.15496 145:0.26245 146:0.49951 147:0.16355 148:0.76026 149:0.13182 150:0.1903 151:0.3347 152:0.76452 153:0.53223 154:0.11503 155:0.48949 156:0.97566 157:0.7658 158:0.51371 159:0.71769 160:0.73334 161:0.73712 162:0.53746 163:0.54662 164:0.60018 165:0.22109 166:0.42072 167:0.34885 168:0.27702 169:0.98205 170:0.57611 171:0.36191 172:0.41877 173:0.53724 174:0.2574 175:0.26132 176:0.48281 177:0.77765 178:0.65042 179:0.85888 180:0.7668 181:0.2763 182:0.51533 183:0.57403 184:0.07872 185:0.36477 186:0.25904 187:0.43266 188:0.067238 189:0.29965 190:0.18808 191:0.77215 192:0.45611 
0.9633711683659845 1 1:0.484 2:0.67528 3:0.38942 4:0.89731 5:0.40394 6:0.15464 7:0.65955 8:0.36394 9:0.69604 10:0.066323 11:0.91147 12:0.050585 13:0.9157 14:0.61581 15:0.33445 16:0.68591 17:0.50945 18:0.085308 19:0.46016 20:0.008599 21:0.48044 22:0.83189 23:0.99587 24:0.021007 25:0.8021 26:0.87218 27:0.70071 28:0.84613 29:0.72797 30:0.60499 31:0.53893 32:0.11206 33:0.16857 34:0.73234 35:0.67171 36:0.76319 37:0.12366 38:0.81055 39:0.036803 40:0.27451 41:0.49203 42:0.65211 43:0.67864 44:0.45733 45:0.45757 46:0.60215 47:0.38105 48:0.3787 49:0.26224 50:0.35223 51:0.89483 52:0.033998 53:0.54326 54:0.16839 55:0.43526 56:0.32004 57:0.10419 58:0.57477 59:0.5001 60:0.96044 61:0.48595 62:0.11233 63:0.93457 64:0.37613 65:0.3159 66:0.71676 67:0.1465 68:0.8461 69:0.10184 70:0.77468 71:0.76404 72:0.72423 73:0.048903 74:0.80524 75:0.87415 76:0.99971 77:0.25541 78:0.629 79:0.5579 80:0.71097 81:0.63776 82:0.085467 83:0.60514 84:0.34434 85:0.75952 86:0.083397 87:0.6208 88:0.95246 89:0.16615 90:0.84443 91:0.12316 92:0.14281 93:0.17612 94:0.80851 95:0.84526 96:0.14923 97:0.25797 98:0.44166 99:0.19799 100:0.4909 101:0.89563 102:0.19568 103:0.39737 104:0.15305 105:0.63567 106:0.76344 107:0.41534 108:0.51246 109:0.42518 110:0.50459 111:0.60329 112:0.56809 113:0.80694 114:0.10174 115:0.46867 116:0.74787 117:0.27011 118:0.28555 119:0.81724 120:0.91089 121:0.82601 122:0.82153 123:0.55043 124:0.56692 125:0.033926 126:0.31455 127:0.14865 128:0.30364 129:0.16836 130:0.72637 131:0.94099 132:0.05766 133:0.53496 134:0.98878 135:0.85673 136:0.3274 137:0.4551 138:0.62887 139:0.72297 140:0.83915 141:0.94849 142:0.4021 143:0.27101 144:0.79703 145:0.54405 146:0.98575 147:0.89746 148:0.78874 149:0.50855 150:0.91334 151:0.10579 152:0.052137 153:0.9481 154:0.17308 155:0.13805 156:0.60784 157:0.94281 158:0.078933 159:0.46219 160:0.70879 161:0.5336 162:0.29129 163:0.59773 164:0.079341 165:0.86716 166:0.14496 167:0.88331 168:0.75253 169:0.10856 170:0.49886 171:0.68192 172:0.27614 173:0.69858 174:0.72151 175:0.88949 176:0.61993 177:0.32617 178:0.92102 179:0.63023 180:0.55743 181:0.91111 182:0.47597 183:0.79734 184:0.16591 185:0.22255 186:0.77938 187:0.25997 188:0.73424 189:0.033847 190:0.40249 191:0.089476 192:0.19578 
0.6167236193766358 1 1:0.082865 2:0.92343 3:0.050672 4:0.73652 5:0.92408 6:0.4166 7:0.29618 8:0.45327 9:0.28487 10:0.092411 11:0.21998 12:0.50146 13:0.032613 14:0.035319 15:0.55817 16:0.51392 17:0.36213 18:0.87721 19:0.59043 20:0.00021885 21:0.12309 22:0.68333 23:0.69443 24:0.64957 25:0.19009 26:0.39917 27:0.92713 28:0.99146 29:0.50381 30:0.96662 31:0.00088558 32:0.56128 33:0.57125 34:0.4776 35:0.0032131 36:0.4035 37:0.84361 38:0.1855 39:0.12808 40:0.51237 41:0.38978 42:0.08061 43:0.34033 44:0.11875 45:0.9493 46:0.3802 47:0.61732 48:0.045999 49:0.40442 50:0.72369 51:0.1405 52:0.030396 53:0.00090205 54:0.83712 55:0.59403 56:0.22868 57:0.38789 58:0.049904 59:0.23275 60:0.25072 61:0.07423 62:0.71791 63:0.45443 64:0.41236 65:0.6869 66:0.15001 67:0.018648 68:0.15815 69:0.30249 70:0.81237 71:0.6313 72:0.65626 73:0.97558 74:0.26727 75:0.44091 76:0.99171 77:0.26223 78:0.27206 79:0.78023 80:0.28521 81:0.66942 82:0.72993 83:0.077417 84:0.5045 85:0.78556 86:0.95055 87:0.24818 88:0.64556 89:0.2277 90:0.91389 91:0.55914 92:0.3518 93:0.97656 94:0.065295 95:0.84384 96:0.093466 97:0.36426 98:0.45791 99:0.1565 100:0.061419 101:0.61097 102:0.50338 103:0.80315 104:0.076851 105:0.56337 106:0.51777 107:0.38514 108:0.74065 109:0.11311 110:0.92674 111:0.12151 112:0.58257 113:0.64041 114:0.0031043 115:0.60067 116:0.46283 117:0.85067 118:0.84656 119:0.023701 120:0.21915 121:0.60115 122:0.45531 123:0.18667 124:0.28915 125:0.59714 126:0.74823 127:0.75496 128:0.029167 129:0.8979 130:0.90833 131:0.83435 132:0.89692 133:0.58851 134:0.59144 135:0.93729 136:0.57498 137:0.11228 138:0.67066 139:0.69744 140:0.16832 141:0.38458 142:0.14707 143:0.19179 144:0.5442 145:0.27477 146:0.95622 147:0.56914 148:0.85193 149:0.083828 150:0.41436 151:0.78106 152:0.4468 153:0.16255 154:0.13549 155:0.49773 156:0.77157 157:0.94629 158:0.51466 159:0.81731 160:0.87053 161:0.24853 162:0.93272 163:0.39771 164:0.72554 165:0.010537 166:0.76138 167:0.29822 168:0.50208 169:0.65882 170:0.19004 171:0.60199 172:0.47154 173:0.52622 174:0.50687 175:0.61453 176:0.04148 177:0.95678 178:0.84756 179:0.9075 180:0.88743 181:0.19269 182:0.16158 183:0.7684 184:0.2965 185:0.46456 186:0.20347 187:0.9272 188:0.5113 189:0.64354 190:0.65203 191:0.064423 192:0.53382 
1 1 1:0.83667 2:0.55047 3:0.60234 4:0.51344 5:0.70668 6:0.79205 7:0.18369 8:0.47467 9:0.20029 10:0.65015 11:0.23126 12:0.77415 13:0.62881 14:0.53018 15:0.42488 16:0.11041 17:0.056829 18:0.35463 19:0.57792 20:0.95614 21:0.92103 22:0.22959 23:0.21394 24:0.27381 25:0.51143 26:0.40854 27:0.57663 28:0.40036 29:0.51121 30:0.29936 31:0.64863 32:0.42952 33:0.2541 34:0.45552 35:0.45699 36:0.45774 37:0.17184 38:0.93815 39:0.95314 40:0.83151 41:0.57102 42:0.80498 43:0.21418 44:0.36946 45:0.03172 46:0.76094 47:0.33447 48:0.2963 49:0.11656 50:0.15584 51:0.48956 52:0.69571 53:0.28757 54:0.9481 55:0.9093 56:0.92776 57:0.34632 58:0.95034 59:0.53302 60:0.90392 61:0.64474 62:0.6908 63:0.29782 64:0.63462 65:0.6848 66:0.51869 67:0.84278 68:0.066588 69:0.83492 70:0.95158 71:0.39669 72:0.4587 73:0.93395 74:0.4099 75:0.37644 76:0.36389 77:0.49128 78:0.87604 79:0.88504 80:0.71912 81:0.52296 82:0.97061 83:0.12509 84:0.9338 85:0.69887 86:0.14962 87:0.88978 88:0.25115 89:0.1847 90:0.75295 91:0.62224 92:0.99183 93:0.52648 94:0.085036 95:0.62081 96:0.19399 97:0.21318 98:0.83506 99:0.4346 100:0.52981 101:0.49634 102:0.73887 103:0.38415 104:0.59453 105:0.25827 106:0.59159 107:0.40302 108:0.73824 109:0.2005 110:0.43856 111:0.35043 112:0.91422 113:0.73706 114:0.70971 115:0.40016 116:0.96352 117:0.53102 118:0.40164 119:0.13907 120:0.018129 121:0.30896 122:0.90898 123:0.55263 124:0.4243 125:0.34577 126:0.48268 127:0.043532 128:0.68449 129:0.025985 130:0.54033 131:0.93816 132:0.7199 133:0.23968 134:0.59237 135:0.15938 136:0.68515 137:0.58174 138:0.28888 139:0.12987 140:0.19762 141:0.85454 142:0.74321 143:0.97573 144:0.43235 145:0.12481 146:0.39472 147:0.67708 148:0.27254 149:0.81592 150:0.98391 151:0.64927 152:0.90153 153:0.56217 154:0.87044 155:0.81072 156:0.0097168 157:0.54755 158:0.71234 159:0.4142 160:0.18709 161:0.074595 162:0.01072 163:0.70966 164:0.5602 165:0.32366 166:0.44527 167:0.4505 168:0.73237 169:0.24625 170:0.32374 171:0.73054 172:0.87665 173:0.17522 174:0.73188 175:0.42222 176:0.7388 177:0.82913 178:0.67071 179:0.33531 180:0.58484 181:0.953 182:0.63018 183:0.30245 184:0.37544 185:0.30925 186:0.34256 187:0.93378 188:0.593 189:0.091401 190:0.73878 191:0.90277 192:0.065109 
0.8909640174330461 1 1:0.51562 2:0.13781 3:0.63725 4:0.29029 5:0.50985 6:0.9817 7:0.070046 8:0.97027 9:0.92247 10:0.41093 11:0.21095 12:0.78656 13:0.90852 14:0.24598 15:0.81157 16:0.27329 17:0.53586 18:0.14599 19:0.011429 20:0.74533 21:0.50713 22:0.9414 23:0.39325 24:0.86458 25:0.39046 26:0.27552 27:0.081852 28:0.31645 29:0.72313 30:0.85982 31:0.99787 32:0.96096 33:0.71121 34:0.11587 35:0.62887 36:0.98736 37:0.84759 38:0.9994 39:0.38065 40:0.73879 41:0.902 42:0.8279 43:0.62397 44:0.25478 45:0.16171 46:0.70605 47:0.35203 48:0.89905 49:0.84015 50:0.97966 51:0.10379 52:0.35423 53:0.96855 54:0.16929 55:0.41235 56:0.091617 57:0.29951 58:0.49382 59:0.9204 60:0.88058 61:0.79661 62:0.39819 63:0.24371 64:0.62904 65:0.48291 66:0.81655 67:0.46161 68:0.51424 69:0.47599 70:0.049214 71:0.060572 72:0.085545 73:0.11907 74:0.54072 75:0.44541 76:0.14789 77:0.80644 78:0.82203 79:0.17867 80:0.18705 81:0.83082 82:0.31247 83:0.59656 84:0.76576 85:0.24263 86:0.65545 87:0.69225 88:0.71091 89:0.32058 90:0.65309 91:0.45653 92:0.26765 93:0.48591 94:0.049465 95:0.84964 96:0.68279 97:0.35357 98:0.60967 99:0.38064 100:0.21254 101:0.11926 102:0.073947 103:0.59405 104:0.99167 105:0.90981 106:0.60136 107:0.55854 108:0.95788 109:0.79468 110:0.44431 111:0.39942 112:0.096889 113:0.33153 114:0.61286 115:0.78044 116:0.84845 117:0.055506 118:0.3117 119:0.023433 120:0.93146 121:0.15221 122:0.12008 123:0.25815 124:0.0659 125:0.15746 126:0.51248 127:0.1718 128:0.79968 129:0.39263 130:0.35531 131:0.65451 132:0.58141 133:0.17794 134:0.2565 135:0.1995 136:0.63136 137:0.85482 138:0.61949 139:0.36607 140:0.67398 141:0.28576 142:0.87129 143:0.79146 144:0.30326 145:0.20017 146:0.20672 147:0.15602 148:0.0062498 149:0.51562 150:0.45127 151:0.67187 152:0.58192 153:0.91641 154:0.36318 155:0.04363 156:0.99616 157:0.50074 158:0.86148 159:0.59932 160:0.034763 161:0.35511 162:0.94272 163:0.53223 164:0.35141 165:0.46445 166:0.048645 167:0.34523 168:0.29283 169:0.64647 170:0.51134 171:0.48954 172:0.038266 173:0.10919 174:0.37831 175:0.6154 176:0.52627 177:0.097089 178:0.45277 179:0.81529 180:0.90672 181:0.94601 182:0.028881 183:0.82437 184:0.98268 185:0.6588 186:0.13206 187:0.35647 188:0.12399 189:0.091665 190:0.51604 191:0.2471 192:0.50961 
0.6363659166846711 0.8907672425600855 1:0.22567 2:0.59955 3:0.40606 4:0.87664 5:0.5542 6:0.98297 7:0.46989 8:0.73182 9:0.61634 10:0.11438 11:0.20844 12:0.67466 13:0.4432 14:0.9383 15:0.82234 16:0.57901 17:0.00083649 18:0.23593 19:0.37281 20:0.23125 21:0.69838 22:0.028097 23:0.26396 24:0.80061 25:0.041263 26:0.78348 27:0.33537 28:0.094329 29:0.94182 30:0.52369 31:0.29182 32:0.61577 33:0.058015 34:0.64531 35:0.46069 36:0.8021 37:0.057646 38:0.45502 39:0.57417 40:0.26844 41:0.37982 42:0.53415 43:0.057155 44:0.64666 45:0.50984 46:0.9734 47:0.40923 48:0.8084 49:0.62323 50:0.25916 51:0.31642 52:0.23281 53:0.8434 54:0.53278 55:0.35805 56:0.25193 57:0.57534 58:0.76868 59:0.78047 60:0.59345 61:0.27232 62:0.20991 63:0.78445 64:0.33907 65:0.71486 66:0.41869 67:0.81571 68:0.057283 69:0.91266 70:0.4544 71:0.75383 72:0.020003 73:0.17644 74:0.74369 75:0.68075 76:0.26403 77:0.3499 78:0.44139 79:0.53088 80:0.2806 81:0.63076 82:0.66528 83:0.20833 84:0.51992 85:0.10583 86:0.96573 87:0.39591 88:0.74856 89:0.36927 90:0.43965 91:0.67764 92:0.60421 93:0.7227 94:0.49466 95:0.038609 96:0.08727 97:0.47369 98:0.069523 99:0.89137 100:0.92149 101:0.54654 102:0.36116 103:0.98952 104:0.099288 105:0.75859 106:0.74071 107:0.093973 108:0.64427 109:0.20893 110:0.20402 111:0.30489 112:0.046614 113:0.089353 114:0.20489 115:0.91019 116:0.10655 117:0.77524 118:0.63292 119:0.86642 120:0.044873 121:0.8306 122:0.58025 123:0.41236 124:0.1849 125:0.85508 126:0.73366 127:0.039514 128:0.87421 129:0.3301 130:0.67026 131:0.57432 132:0.93339 133:0.42709 134:0.25771 135:0.5043 136:0.056337 137:0.9938 138:0.16544 139:0.62215 140:0.14549 141:0.16417 142:0.6112 143:0.73241 144:0.8914 145:0.23992 146:0.20786 147:0.2583 148:0.98644 149:0.9881 150:0.78427 151:0.22884 152:0.6447 153:0.51326 154:0.2959 155:0.22033 156:0.90812 157:0.1587 158:0.094481 159:0.93503 160:0.23477 161:0.53598 162:0.091169 163:0.54727 164:0.24902 165:0.74623 166:0.82811 167:0.98483 168:0.53468 169:0.70233 170:0.82581 171:0.94586 172:0.94022 173:0.31422 174:0.89011 175:0.45128 176:0.32869 177:0.45957 178:0.61001 179:0.99828 180:0.78475 181:0.35147 182:0.20176 183:0.32217 184:0.94181 185:0.24436 186:0.73645 187:0.071137 188:0.064283 189:0.98452 190:0.90035 191:0.25198 192:0.70794 
0.8630186100119029 1 1:0.26489 2:0.62224 3:0.56915 4:0.68751 5:0.39389 6:0.5159 7:0.57982 8:0.12926 9:0.29497 10:0.80657 11:0.49054 12:0.21372 13:0.56015 14:0.13547 15:0.97969 16:0.67873 17:0.2702 18:0.96242 19:0.83902 20:0.145 21:0.30197 22:0.035147 23:0.64987 24:0.62135 25:0.622 26:0.14379 27:0.97068 28:0.020059 29:0.41484 30:0.6991 31:0.4374 32:0.34935 33:0.63995 34:0.91704 35:0.074794 36:0.59749 37:0.15912 38:0.0053888 39:0.78289 40:0.45041 41:0.99587 42:0.21242 43:0.55285 44:0.47926 45:0.92169 46:0.46414 47:0.99753 48:0.61799 49:0.7211 50:0.75616 51:0.032648 52:0.079553 53:0.34447 54:0.29909 55:0.11915 56:0.61118 57:0.14476 58:0.49766 59:0.93046 60:0.13497 61:0.12896 62:0.1544 63:0.9176 64:0.90564 65:0.53836 66:0.94219 67:0.39927 68:0.30092 69:0.22799 70:0.71748 71:0.33379 72:0.52352 73:0.99822 74:0.44093 75:0.61829 76:0.24163 77:0.76932 78:0.34454 79:0.46918 80:0.5536 81:0.55428 82:0.064614 83:0.59545 84:0.31818 85:0.192 86:0.46185 87:0.21571 88:0.14647 89:0.7304 90:0.55465 91:0.20416 92:0.18774 93:0.073239 94:0.081401 95:0.15148 96:0.070227 97:0.04214 98:0.95658 99:0.64311 100:0.55463 101:0.66995 102:0.47101 103:0.74872 104:0.31742 105:0.1394 106:0.32667 107:0.81294 108:0.10538 109:0.98113 110:0.98331 111:0.48523 112:0.12442 113:0.87749 114:0.45462 115:0.70339 116:0.52154 117:0.59021 118:0.31279 119:0.26026 120:0.40115 121:0.20769 122:0.085661 123:0.11666 124:0.54069 125:0.66978 126:0.76729 127:0.17436 128:0.75338 129:0.98369 130:0.6622 131:0.59741 132:0.079398 133:0.21005 134:0.24973 135:0.52753 136:0.6769 137:0.54167 138:0.33839 139:0.91996 140:0.23223 141:0.41728 142:0.3651 143:0.28055 144:0.71967 145:0.77891 146:0.81682 147:0.53712 148:0.88891 149:0.9639 150:0.6038 151:0.42105 152:0.52222 153:0.39784 154:0.54864 155:0.1147 156:0.76846 157:0.52484 158:0.94177 159:0.88648 160:0.42716 161:0.28261 162:0.81184 163:0.84967 164:0.90157 165:0.44584 166:0.69331 167:0.52472 168:0.056921 169:0.42577 170:0.47008 171:0.56365 172:0.91633 173:0.008303 174:0.13285 175:0.044317 176:0.13804 177:0.43315 178:0.82925 179:0.78522 180:0.6655 181:0.85548 182:0.58985 183:0.42104 184:0.1997 185:0.31424 186:0.079405 187:0.74674 188:0.096895 189:0.55475 190:0.93204 191:0.11637 192:0.79848 
1 1 1:0.12106 2:0.88069 3:0.016812 4:0.81049 5:0.86616 6:0.26446 7:0.63596 8:0.5524 9:0.4111 10:0.82799 11:0.95142 12:0.10424 13:0.99546 14:0.63677 15:0.20764 16:0.76549 17:0.17503 18:0.59852 19:0.95311 20:0.36929 21:0.33968 22:0.63441 23:0.11018 24:0.84223 25:0.79877 26:0.80754 27:0.14492 28:0.14271 29:0.62301 30:0.37203 31:0.14422 32:0.1221 33:0.20532 34:0.66973 35:0.22781 36:0.32146 37:0.15186 38:0.53338 39:0.32964 40:0.33189 41:0.36936 42:0.39319 43:0.87348 44:0.41556 45:0.7992 46:0.86396 47:0.27889 48:0.37301 49:0.85808 50:0.034531 51:0.7792 52:0.53815 53:0.81338 54:0.43113 55:0.61236 56:0.56804 57:0.025824 58:0.83292 59:0.64283 60:0.9975 61:0.26521 62:0.99951 63:0.87253 64:0.79677 65:0.89546 66:0.21666 67:0.66482 68:0.12569 69:0.60225 70:0.77053 71:0.82989 72:0.37085 73:0.66217 74:0.77032 75:0.71417 76:0.79634 77:0.022319 78:0.97356 79:0.87736 80:0.30533 81:0.036973 82:0.011312 83:0.61642 84:0.34776 85:0.31644 86:0.81242 87:0.20032 88:0.51432 89:0.055288 90:0.32454 91:0.076179 92:0.62411 93:0.86541 94:0.38136 95:0.30718 96:0.35165 97:0.75354 98:0.13722 99:0.10135 100:0.33921 101:0.67104 102:0.77964 103:0.044127 104:0.84868 105:0.019526 106:0.67681 107:0.87671 108:0.97303 109:0.93568 110:0.12384 111:0.88347 112:0.46005 113:0.21156 114:0.5435 115:0.66444 116:0.13036 117:0.84369 118:0.13545 119:0.040073 120:0.35353 121:0.58851 122:0.42317 123:0.41951 124:0.021356 125:0.61009 126:0.71277 127:0.87227 128:0.77478 129:0.85786 130:0.011803 131:0.81324 132:0.030664 133:0.59725 134:0.60641 135:0.71951 136:0.16581 137:0.27516 138:0.86086 139:0.92919 140:0.96185 141:0.42148 142:0.19704 143:0.08679 144:0.59183 145:0.3981 146:0.89973 147:0.82917 148:0.0055239 149:0.068638 150:0.55738 151:0.80821 152:0.71714 153:0.2975 154:0.71476 155:0.02281 156:0.61436 157:0.45968 158:0.20434 159:0.4446 160:0.75551 161:0.42882 162:0.47947 163:0.019374 164:0.77823 165:0.43081 166:0.35474 167:0.54282 168:0.43792 169:0.66949 170:0.27162 171:0.50087 172:0.2254 173:0.19868 174:0.68648 175:0.95892 176:0.075985 177:0.45156 178:0.16562 179:0.69118 180:0.39414 181:0.74177 182:0.66089 183:0.038187 184:0.34038 185:0.27712 186:0.88353 187:0.14123 188:0.11687 189:0.64992 190:0.93997 191:0.80951 192:0.34264 
0.5314569981880867 1 1:0.30586 2:0.031571 3:0.39178 4:0.67796 5:0.91694 6:0.54192 7:0.41441 8:0.65086 9:0.82473 10:0.80153 11:0.45617 12:0.71216 13:0.1053 14:0.028255 15:0.82582 16:0.6571 17:0.37201 18:0.80495 19:0.45633 20:0.34785 21:0.17043 22:0.41855 23:0.10736 24:0.52925 25:0.10763 26:0.50063 27:0.37067 28:0.18436 29:0.46759 30:0.2274 31:0.15705 32:0.70701 33:0.3092 34:0.19476 35:0.96458 36:0.1179 37:0.0067851 38:0.96445 39:0.23577 40:0.94804 41:0.22531 42:0.27505 43:0.43077 44:0.79189 45:0.044531 46:0.6304 47:0.56801 48:0.38621 49:0.76433 50:0.16319 51:0.75855 52:0.2041 53:0.10899 54:0.018874 55:0.95696 56:0.46253 57:0.90788 58:0.31592 59:0.56189 60:0.97481 61:0.13101 62:0.30444 63:0.71248 64:0.92461 65:0.79312 66:0.8727 67:0.76453 68:0.3019 69:0.24815 70:0.72857 71:0.28864 72:0.1563 73:0.68596 74:0.87961 75:0.92366 76:0.62799 77:0.24841 78:0.26189 79:0.81349 80:0.51762 81:0.55951 82:0.47725 83:0.94731 84:0.81345 85:0.35643 86:0.2203 87:0.15139 88:0.75622 89:0.49012 90:0.28572 91:0.92887 92:0.39216 93:0.50784 94:0.92153 95:0.73796 96:0.056104 97:0.038686 98:0.83112 99:0.14449 100:0.29135 101:0.26957 102:0.41288 103:0.61879 104:0.77158 105:0.46698 106:0.70923 107:0.50475 108:0.4897 109:0.31333 110:0.73899 111:0.6627 112:0.37767 113:0.0048623 114:0.04061 115:0.13193 116:0.21334 117:0.63843 118:0.72797 119:0.39787 120:0.47944 121:0.31367 122:0.34779 123:0.066045 124:0.62876 125:0.51807 126:0.006831 127:0.67775 128:0.79312 129:0.42335 130:0.58553 131:0.074873 132:0.65887 133:0.61277 134:0.68694 135:0.81778 136:0.77324 137:0.4661 138:0.26794 139:0.74444 140:0.91187 141:0.4878 142:0.80691 143:0.5899 144:0.81063 145:0.85645 146:0.19821 147:0.45303 148:0.042111 149:0.63343 150:0.73898 151:0.88193 152:0.53744 153:0.61633 154:0.33116 155:0.77133 156:0.40837 157:0.66468 158:0.31866 159:0.98197 160:0.19298 161:0.58476 162:0.45002 163:0.74651 164:0.19437 165:0.38917 166:0.15913 167:0.99352 168:0.97949 169:0.16204 170:0.5944 171:0.45069 172:0.94142 173:0.50118 174:0.70882 175:0.95521 176:0.11635 177:0.12235 178:0.58961 179:0.10799 180:0.49692 181:0.81279 182:0.42076 183:0.02133 184:0.51835 185:0.067545 186:0.69548 187:0.5927 188:0.17127 189:0.62161 190:0.57131 191:0.33578 192:0.61252 
0.6391123820568635 0.5227107505445153 1:0.1372 2:0.27732 3:0.35043 4:0.42127 5:0.069233 6:0.079375 7:0.37356 8:0.12716 9:0.68575 10:0.10954 11:0.28177 12:0.29127 13:0.64723 14:0.38071 15:0.73285 16:0.69436 17:0.284 18:0.090854 19:0.19016 20:0.24935 21:0.35112 22:0.2387 23:0.78594 24:0.048456 25:0.28893 26:0.42104 27:0.32872 28:0.37493 29:0.47921 30:0.64533 31:0.27153 32:0.29468 33:0.28486 34:0.87511 35:0.95762 36:0.26484 37:0.90875 38:0.77366 39:0.65461 40:0.73599 41:0.67381 42:0.98326 43:0.15579 44:0.11763 45:0.14068 46:0.17738 47:0.013407 48:0.26746 49:0.44486 50:0.56895 51:0.12383 52:0.99255 53:0.41361 54:0.32964 55:0.93774 56:0.52681 57:0.2864 58:0.086473 59:0.39147 60:0.92787 61:0.87803 62:0.81265 63:0.91632 64:0.69909 65:0.29943 66:0.98094 67:0.31571 68:0.076428 69:0.40798 70:0.67438 71:0.86542 72:0.99159 73:0.18582 74:0.72479 75:0.9714 76:0.23998 77:0.64524 78:0.42256 79:0.76437 80:0.46271 81:0.23652 82:0.63224 83:0.60055 84:0.57333 85:0.69424 86:0.31817 87:0.88423 88:0.90069 89:0.39298 90:0.60031 91:0.47629 92:0.11427 93:0.55267 94:0.080491 95:0.6451 96:0.37163 97:0.99409 98:0.43563 99:0.7819 100:0.15103 101:0.39341 102:0.30006 103:0.054447 104:0.57623 105:0.83797 106:0.30819 107:0.13608 108:0.9343 109:0.68047 110:0.71663 111:0.34997 112:0.56619 113:0.80327 114:0.22782 115:0.97234 116:0.36929 117:0.53874 118:0.77624 119:0.26622 120:0.77605 121:0.57897 122:0.5723 123:0.94836 124:0.076662 125:0.36155 126:0.82236 127:0.88034 128:0.80942 129:0.40041 130:0.80908 131:0.11627 132:0.28357 133:0.039934 134:0.70724 135:0.62285 136:0.7562 137:0.36469 138:0.026568 139:0.45971 140:0.25258 141:0.91335 142:0.97391 143:0.68184 144:0.19331 145:0.77029 146:0.38088 147:0.63582 148:0.54949 149:0.078993 150:0.49784 151:0.49389 152:0.88616 153:0.63645 154:0.42144 155:0.080161 156:0.025345 157:0.55655 158:0.90723 159:0.29522 160:0.7976 161:0.86077 162:0.96198 163:0.12202 164:0.151 165:0.35189 166:0.11665 167:0.78393 168:0.3552 169:0.86078 170:0.3518 171:0.60865 172:0.55742 173:0.89106 174:0.5712 175:0.17215 176:0.042622 177:0.59427 178:0.036068 179:0.12165 180:0.91097 181:0.12652 182:0.99581 183:0.28816 184:0.20154 185:0.93422 186:0.80711 187:0.88559 188:0.34182 189:0.48457 190:0.89034 191:0.22266 192:0.27577 
-1 1 1:0.025118 2:0.90325 3:0.20697 4:0.026092 5:0.19985 6:0.79067 7:0.75704 8:0.072837 9:0.25176 10:0.9518 11:0.75036 12:0.11942 13:0.8282 14:0.33852 15:0.043527 16:0.024076 17:0.8523 18:0.93532 19:0.48766 20:0.66477 21:0.23817 22:0.71822 23:0.057249 24:0.46142 25:0.40109 26:0.70081 27:0.95939 28:0.17271 29:0.20937 30:0.52834 31:0.54723 32:0.48291 33:0.22716 34:0.99841 35:0.36976 36:0.14588 37:0.75172 38:0.78871 39:0.077823 40:0.20439 41:0.70994 42:0.97563 43:0.31901 44:0.9821 45:0.24412 46:0.60164 47:0.36092 48:0.059542 49:0.63456 50:0.91299 51:0.87286 52:0.11472 53:0.68679 54:0.61371 55:0.83679 56:0.26842 57:0.54828 58:0.24155 59:0.42443 60:0.11645 61:0.6469 62:0.4981 63:0.2488 64:0.55246 65:0.26552 66:0.82002 67:0.11647 68:0.52694 69:0.0052506 70:0.2885 71:0.58061 72:0.19867 73:0.097725 74:0.72925 75:0.39812 76:0.36358 77:0.93633 78:0.46746 79:0.97064 80:0.42081 81:0.019108 82:0.91831 83:0.63277 84:0.97391 85:0.17649 86:0.46823 87:0.020001 88:0.74986 89:0.26375 90:0.85365 91:0.22512 92:0.50522 93:0.26923 94:0.73654 95:0.95377 96:0.67248 97:0.87114 98:0.57723 99:0.78311 100:0.74518 101:0.06899 102:0.54515 103:0.50415 104:0.89243 105:0.49462 106:0.19007 107:0.89703 108:0.87395 109:0.48102 110:0.095343 111:0.80914 112:0.60202 113:0.46423 114:0.10388 115:0.20679 116:0.46544 117:0.078214 118:0.66163 119:0.23085 120:0.44581 121:0.83535 122:0.52591 123:0.73718 124:0.87987 125:0.54506 126:0.52785 127:0.36883 128:0.11736 129:0.70603 130:0.70792 131:0.41659 132:0.54688 133:0.93799 134:0.29892 135:0.011821 136:0.29517 137:0.49338 138:0.25676 139:0.67015 140:0.63021 141:0.51137 142:0.52583 143:0.53773 144:0.14997 145:0.43374 146:0.34181 147:0.10363 148:0.37285 149:0.62918 150:0.26414 151:0.89619 152:0.7662 153:0.25214 154:0.77926 155:0.38673 156:0.73266 157:0.23794 158:0.67369 159:0.46452 160:0.55677 161:0.94358 162:0.27248 163:0.23592 164:0.21309 165:0.81057 166:0.34206 167:0.34288 168:0.0041656 169:0.030045 170:0.28717 171:0.5412 172:0.28059 173:0.58655 174:0.66036 175:0.35339 176:0.67965 177:0.10723 178:0.65865 179:0.55703 180:0.1405 181:0.95246 182:0.22503 183:0.6907 184:0.26082 185:0.44862 186:0.23125 187:0.84397 188:0.58934 189:0.5648 190:0.96252 191:0.29721 192:0.4489 
-1 1 1:0.16851 2:0.64728 3:0.76198 4:0.57089 5:0.45708 6:0.89706 7:0.57707 8:0.31497 9:0.54409 10:0.68915 11:0.83652 12:0.39149 13:0.45916 14:0.12374 15:0.108 16:0.21213 17:0.53231 18:0.96412 19:0.83682 20:0.37952 21:0.68888 22:0.77943 23:0.25362 24:0.066626 25:0.86079 26:0.92716 27:0.48239 28:0.65386 29:0.41467 30:0.5058 31:0.62347 32:0.91817 33:0.23174 34:0.70354 35:0.55822 36:0.83419 37:0.98392 38:0.7649 39:0.40716 40:0.53921 41:0.32829 42:0.0043086 43:0.47789 44:0.085053 45:0.79404 46:0.91297 47:0.3945 48:0.11195 49:0.10781 50:0.5386 51:0.28338 52:0.91984 53:0.24114 54:0.49117 55:0.19584 56:0.15925 57:0.73596 58:0.35432 59:0.42528 60:0.33356 61:0.95338 62:0.19997 63:0.57809 64:0.3235 65:0.78745 66:0.29887 67:0.29391 68:0.23903 69:0.064003 70:0.97189 71:0.46191 72:0.81628 73:0.0023326 74:0.46335 75:0.48041 76:0.85266 77:0.17128 78:0.41477 79:0.18284 80:0.27359 81:0.90425 82:0.23352 83:0.65742 84:0.38455 85:0.73496 86:0.44073 87:0.34931 88:0.84885 89:0.39616 90:0.11732 91:0.20129 92:0.70228 93:0.14892 94:0.23805 95:0.68715 96:0.26657 97:0.61638 98:0.32934 99:0.30893 100:0.78985 101:0.33727 102:0.89511 103:0.56261 104:0.88265 105:0.59229 106:0.25376 107:0.15143 108:0.41633 109:0.62669 110:0.1448 111:0.65226 112:0.24331 113:0.45837 114:0.077931 115:0.40071 116:0.40199 117:0.49731 118:0.074622 119:0.18692 120:0.36499 121:0.55673 122:0.96256 123:0.037153 124:0.24158 125:0.69651 126:0.59841 127:0.0035122 128:0.74702 129:0.59479 130:0.65273 131:0.59801 132:0.87887 133:0.10755 134:0.052956 135:0.21937 136:0.33249 137:0.55415 138:0.64934 139:0.65399 140:0.064838 141:0.27112 142:0.38405 143:0.063743 144:0.057929 145:0.51156 146:0.30829 147:0.24863 148:0.53575 149:0.07086 150:0.72409 151:0.34894 152:0.32893 153:0.86479 154:0.58132 155:0.19064 156:0.18845 157:0.36256 158:0.82347 159:0.51715 160:0.54176 161:0.56238 162:0.31218 163:0.17493 164:0.20747 165:0.17387 166:0.91369 167:0.46314 168:0.031396 169:0.092078 170:0.44813 171:0.84593 172:0.1149 173:0.68814 174:0.98541 175:0.52952 176:0.16062 177:0.73326 178:0.63781 179:0.3384 180:0.33961 181:0.67334 182:0.29219 183:0.26846 184:0.41489 185:0.88628 186:0.99968 187:0.056585 188:0.16653 189:0.31031 190:0.31625 191:0.50792 192:0.19676 
-1 1 1:0.91541 2:0.82336 3:0.32123 4:0.6423 5:0.58772 6:0.78134 7:0.1737 8:0.53306 9:0.99776 10:0.30986 11:0.54656 12:0.14836 13:0.89404 14:0.74792 15:0.79714 16:0.22394 17:0.12157 18:0.94405 19:0.94265 20:0.97653 21:0.42556 22:0.38647 23:0.11279 24:0.38356 25:0.82462 26:0.2181 27:0.12666 28:0.26049 29:0.58272 30:0.87285 31:0.54299 32:0.97336 33:0.37263 34:0.9908 35:0.27371 36:0.32081 37:0.37514 38:0.61729 39:0.95493 40:0.34009 41:0.17633 42:0.83329 43:0.42887 44:0.93028 45:0.3804 46:0.78141 47:0.47201 48:0.27384 49:0.70923 50:0.6929 51:0.66259 52:0.98477 53:0.68199 54:0.90178 55:0.68133 56:0.75053 57:0.82562 58:0.57101 59:0.36464 60:0.59818 61:0.4194 62:0.64593 63:0.70128 64:0.059383 65:0.61835 66:0.18963 67:0.64604 68:0.21353 69:0.43931 70:0.79597 71:0.36486 72:0.99271 73:0.74645 74:0.1441 75:0.1639 76:0.7299 77:0.51816 78:0.29168 79:0.38216 80:0.30205 81:0.16337 82:0.55074 83:0.33684 84:0.23027 85:0.26283 86:0.85001 87:0.51848 88:0.0017904 89:0.68879 90:0.49594 91:0.83595 92:0.0077276 93:0.017878 94:0.037173 95:0.86048 96:0.62972 97:0.52665 98:0.27747 99:0.9591 100:0.62688 101:0.15476 102:0.20732 103:0.96432 104:0.71787 105:0.72077 106:0.67408 107:0.12638 108:0.74273 109:0.010838 110:0.63092 111:0.77452 112:0.91023 113:0.79541 114:0.21813 115:0.63247 116:0.61281 117:0.27135 118:0.25639 119:0.25603 120:0.27453 121:0.52153 122:0.47148 123:0.57876 124:0.87604 125:0.93417 126:0.1209 127:0.77035 128:0.021731 129:0.42662 130:0.80583 131:0.56931 132:0.032158 133:0.81157 134:0.7045 135:0.17602 136:0.083538 137:0.67474 138:0.95913 139:0.57785 140:0.017244 141:0.13249 142:0.85642 143:0.72708 144:0.092324 145:0.13849 146:0.80404 147:0.60466 148:0.04537 149:0.50503 150:0.3659 151:0.23948 152:0.44431 153:0.37048 154:0.59976 155:0.58994 156:0.76622 157:0.16658 158:0.039357 159:0.44889 160:0.4091 161:0.28964 162:0.67999 163:0.49199 164:0.63552 165:0.69262 166:0.22227 167:0.96709 168:0.62991 169:0.48368 170:0.078092 171:0.90671 172:0.13624 173:0.43474 174:0.58907 175:0.34385 176:0.70157 177:0.38587 178:0.80033 179:0.7828 180:0.044548 181:0.71424 182:0.25769 183:0.63048 184:0.20244 185:0.26362 186:0.77023 187:0.13909 188:0.14546 189:0.92952 190:0.80499 191:0.57912 192:0.14348 
-1 1 1:0.31358 2:0.81827 3:0.94638 4:0.31588 5:0.17273 6:0.54972 7:0.16566 8:0.24957 9:0.68655 10:0.66275 11:0.27149 12:0.41824 13:0.65948 14:0.17361 15:0.59113 16:0.91809 17:0.70991 18:0.13355 19:0.31511 20:0.79113 21:0.77178 22:0.53657 23:0.26601 24:0.77228 25:0.45358 26:0.96 27:0.91243 28:0.003644 29:0.85788 30:0.89093 31:0.54631 32:0.27554 33:0.8932 34:0.91227 35:0.39952 36:0.56553 37:0.06787 38:0.098108 39:0.013602 40:0.50595 41:0.66069 42:0.6872 43:0.98679 44:0.79812 45:0.66236 46:0.44625 47:0.40894 48:0.28325 49:0.52699 50:0.97525 51:0.88828 52:0.51659 53:0.25757 54:0.65984 55:0.084617 56:0.26696 57:0.34808 58:0.34818 59:0.65375 60:0.0027813 61:0.13555 62:0.86947 63:0.57939 64:0.75162 65:0.13171 66:0.21978 67:0.12344 68:0.28706 69:0.67235 70:0.58139 71:0.85078 72:0.81097 73:0.1743 74:0.64897 75:0.18846 76:0.35546 77:0.3458 78:0.79161 79:0.76006 80:0.6929 81:0.68431 82:0.55271 83:0.90698 84:0.25419 85:0.51729 86:0.15473 87:0.013664 88:0.72615 89:0.61534 90:0.61132 91:0.75418 92:0.28145 93:0.41949 94:0.17387 95:0.50494 96:0.0036582 97:0.44598 98:0.78774 99:0.95141 100:0.41411 101:0.78678 102:0.50721 103:0.8392 104:0.91181 105:0.83336 106:0.68801 107:0.89139 108:0.11462 109:0.75781 110:0.24413 111:0.77267 112:0.26649 113:0.48298 114:0.0070424 115:0.82531 116:0.045229 117:0.66036 118:0.92458 119:0.61445 120:0.85731 121:0.31326 122:0.34186 123:0.0025617 124:0.38081 125:0.26866 126:0.44362 127:0.50576 128:0.18882 129:0.69814 130:0.11774 131:0.58964 132:0.49057 133:0.41694 134:0.62872 135:0.83384 136:0.86687 137:0.32597 138:0.1577 139:0.31475 140:0.53619 141:0.87437 142:0.64363 143:0.33817 144:0.62205 145:0.47257 146:0.47161 147:0.20345 148:0.49499 149:0.74817 150:0.036942 151:0.587 152:0.33317 153:0.61658 154:0.093289 155:0.28664 156:0.22571 157:0.56793 158:0.86841 159:0.58558 160:0.20655 161:0.062503 162:0.77501 163:0.72971 164:0.81042 165:0.78879 166:0.5322 167:0.87868 168:0.95671 169:0.069816 170:0.059079 171:0.058246 172:0.85212 173:0.14146 174:0.48759 175:0.067788 176:0.10079 177:0.84156 178:0.45188 179:0.75317 180:0.79281 181:0.64716 182:0.40125 183:0.64582 184:0.58082 185:0.37274 186:0.95096 187:0.083198 188:0.96885 189:0.48253 190:0.16303 191:0.54718 192:0.096301 
-1 1 1:0.64595 2:0.18853 3:0.99143 4:0.86008 5:0.58061 6:0.90858 7:0.72553 8:0.50918 9:0.28677 10:0.08297 11:0.13724 12:0.75153 13:0.094281 14:0.22965 15:0.61523 16:0.80061 17:0.53106 18:0.052432 19:0.68862 20:0.28725 21:0.60344 22:0.70645 23:0.41299 24:0.77066 25:0.64843 26:0.79854 27:0.11863 28:0.6841 29:0.67233 30:0.004348 31:0.067081 32:0.9983 33:0.77594 34:0.20211 35:0.32722 36:0.60484 37:0.57233 38:0.6281 39:0.045855 40:0.23457 41:0.65778 42:0.25816 43:0.40605 44:0.47277 45:0.67874 46:0.48614 47:0.92734 48:0.91043 49:0.33282 50:0.31205 51:0.86083 52:0.29012 53:0.41661 54:0.59275 55:0.059375 56:0.58441 57:0.22062 58:0.96041 59:0.46409 60:0.98526 61:0.6202 62:0.95481 63:0.42383 64:0.48512 65:0.41043 66:0.34182 67:0.83432 68:0.44101 69:0.45415 70:0.24751 71:0.32609 72:0.72119 73:0.32488 74:0.032646 75:0.7986 76:0.55581 77:0.79369 78:0.92905 79:0.60603 80:0.84332 81:0.47394 82:0.78981 83:0.25051 84:0.39291 85:0.12702 86:0.59215 87:0.89855 88:0.30047 89:0.25155 90:0.66011 91:0.35797 92:0.67538 93:0.52305 94:0.75641 95:0.39977 96:0.96709 97:0.18722 98:0.41857 99:0.57916 100:0.15219 101:0.78939 102:0.60182 103:0.035698 104:0.69008 105:0.67532 106:0.08692 107:0.23133 108:0.60409 109:0.34555 110:0.2934 111:0.062117 112:0.20799 113:0.0054347 114:0.16271 115:0.14597 116:0.15572 117:0.44594 118:0.9007 119:0.33955 120:0.89436 121:0.76534 122:0.91717 123:0.38362 124:0.90405 125:0.1548 126:0.92076 127:0.81422 128:0.037733 129:0.20822 130:0.84042 131:0.80849 132:0.702 133:0.37592 134:0.723 135:0.50333 136:0.8537 137:0.87278 138:0.42394 139:0.98049 140:0.12043 141:0.77698 142:0.005463 143:0.25756 144:0.2476 145:0.014173 146:0.22546 147:0.14144 148:0.37784 149:0.79781 150:0.9154 151:0.24439 152:0.74548 153:0.47142 154:0.031952 155:0.39451 156:0.85341 157:0.62444 158:0.92649 159:0.70365 160:0.68203 161:0.97496 162:0.50066 163:0.51967 164:0.77635 165:0.50841 166:0.68893 167:0.11989 168:0.52034 169:0.88751 170:0.4242 171:0.87524 172:0.37447 173:0.72984 174:0.73825 175:0.61617 176:0.7047 177:0.4757 178:0.44381 179:0.013008 180:0.29771 181:0.22474 182:0.56278 183:0.88407 184:0.95855 185:0.46114 186:0.557 187:0.82678 188:0.58497 189:0.97677 190:0.92794 191:0.61066 192:0.54971 
-1 1 1:0.022864 2:0.26624 3:0.33625 4:0.42019 5:0.12626 6:0.18062 7:0.19003 8:0.10208 9:0.31342 10:0.55166 11:0.94823 12:0.65038 13:0.57078 14:0.11844 15:0.96485 16:0.73339 17:0.64834 18:0.71101 19:0.40842 20:0.31295 21:0.85968 22:0.99364 23:0.91993 24:0.7148 25:0.5867 26:0.67651 27:0.011894 28:0.2467 29:0.16216 30:0.88174 31:0.19913 32:0.95642 33:0.94224 34:0.019516 35:0.23489 36:0.63502 37:0.27384 38:0.179 39:0.84592 40:0.79094 41:0.36256 42:0.25432 43:0.84509 44:0.88736 45:0.13086 46:0.27168 47:0.8162 48:0.56904 49:0.83709 50:0.75642 51:0.12251 52:0.046376 53:0.29446 54:0.20081 55:0.86462 56:0.79081 57:0.31567 58:0.71555 59:0.37325 60:0.84675 61:0.88346 62:0.64729 63:0.36011 64:0.2023 65:0.78339 66:0.62503 67:0.05907 68:0.0062514 69:0.95236 70:0.84446 71:0.2188 72:0.11259 73:0.23576 74:0.7047 75:0.33387 76:0.86202 77:0.99656 78:0.17875 79:0.63562 80:0.72399 81:0.72366 82:0.69081 83:0.11735 84:0.33572 85:0.76426 86:0.49426 87:0.56997 88:0.48463 89:0.91723 90:0.71196 91:0.58938 92:0.65198 93:0.43245 94:0.35502 95:0.73637 96:0.54508 97:0.98756 98:0.041042 99:0.77552 100:0.3508 101:0.3766 102:0.13777 103:0.94078 104:0.92875 105:0.50023 106:0.52474 107:0.81503 108:0.82907 109:0.41625 110:0.53149 111:0.75618 112:0.55704 113:0.27305 114:0.86861 115:0.60438 116:0.004866 117:0.46701 118:0.73781 119:0.54358 120:0.07632 121:0.954 122:0.20207 123:0.49671 124:0.25929 125:0.87547 126:0.3171 127:0.076459 128:0.99073 129:0.23856 130:0.90036 131:0.23048 132:0.79109 133:0.8167 134:0.2203 135:0.28729 136:0.72803 137:0.15789 138:0.45477 139:0.98863 140:0.70583 141:0.63912 142:0.67878 143:0.73317 144:0.34631 145:0.38541 146:0.21689 147:0.11409 148:0.39726 149:0.48537 150:0.34148 151:0.59861 152:0.65022 153:0.54275 154:0.93745 155:0.91664 156:0.50837 157:0.87439 158:0.87793 159:0.42705 160:0.93095 161:0.47356 162:0.66943 163:0.48623 164:0.64178 165:0.50059 166:0.21953 167:0.66912 168:0.04681 169:0.9245 170:0.14422 171:0.14578 172:0.15594 173:0.49876 174:0.46211 175:0.33475 176:0.61455 177:0.03163 178:0.52261 179:0.54403 180:0.24234 181:0.68224 182:0.70816 183:0.85242 184:0.27781 185:0.95981 186:0.25387 187:0.50507 188:0.48488 189:0.32765 190:0.81455 191:0.90384 192:0.44243 
