svm_type c_svc
kernel_type rbf
gamma 1.1e-06
nr_class 3
total_sv 854
rho -0.197428 0.555508 2.81234
label -1 0 1
nr_sv 242 346 266
SV
1 1 1:0 2:0 3:0 4:0 5:0 6:0 7:0 8:0 9:0 10:0 11:0 12:0 13:6 14:0 15:0 16:4 17:0 18:0 19:9 20:18 21:0 22:0 23:0 24:14 25:0 26:0 27:0 28:0 29:0 30:5 31:5 32:0 33:0 34:0 35:0 36:0 37:0 38:0 39:0 40:0 41:0 42:0 43:0 44:0 45:0 46:0 47:0 48:0 49:0 50:0 51:0 52:0 53:0 54:0 55:46 56:28 57:71 58:17 59:0 60:0 61:0 62:0 63:22 64:0 65:0 66:0 67:0 68:0 69:0 70:0 71:0 72:0 73:0 74:0 75:0 76:0 77:0 78:0 79:0 80:0 81:0 82:0 83:0 84:0 85:0 86:0 87:0 88:0 89:0 90:0 91:0 92:0 93:0 94:0 95:0 96:0 97:0 98:0 99:0 100:0 101:0 102:0 103:0 104:0 105:0 106:0 107:0 108:0 109:0 110:0 111:0 112:0 113:0 114:0 115:0 116:0 117:0 118:0 119:0 120:0 121:0 122:0 123:0 124:0 125:0 126:0 127:0 128:0 129:0 130:0 131:0 132:0 133:0 134:0 135:0 136:0 137:0 138:0 139:0 140:0 141:0 142:0 143:0 144:0 145:0 146:0 147:0 148:0 149:0 150:0 151:0 152:0 153:0 154:0 155:0 156:0 157:0 158:0 159:0 160:0 161:0 162:0 163:0 164:0 165:0 166:0 167:0 168:0 169:0 170:0 171:0 172:39 173:37 174:8 175:42 176:66 177:171 178:71 179:26 180:24 181:0 182:12 183:18 184:0 185:11 186:0 187:0 188:0 189:0 190:0 191:0 192:0 
1 1 1:0 2:0 3:0 4:0 5:0 6:0 7:0 8:0 9:0 10:0 11:0 12:0 13:7 14:0 15:0 16:5 17:0 18:0 19:16 20:35 21:11 22:0 23:0 24:33 25:0 26:0 27:0 28:0 29:0 30:8 31:7 32:0 33:0 34:0 35:0 36:0 37:0 38:0 39:0 40:0 41:0 42:0 43:0 44:0 45:0 46:0 47:0 48:0 49:0 50:0 51:0 52:0 53:13 54:0 55:55 56:53 57:99 58:50 59:23 60:0 61:0 62:0 63:20 64:0 65:0 66:0 67:0 68:0 69:0 70:0 71:0 72:0 73:0 74:0 75:0 76:0 77:0 78:0 79:0 80:0 81:0 82:0 83:0 84:0 85:0 86:0 87:0 88:0 89:0 90:0 91:0 92:0 93:0 94:0 95:0 96:0 97:0 98:0 99:0 100:0 101:0 102:0 103:0 104:0 105:0 106:0 107:0 108:0 109:0 110:0 111:0 112:0 113:0 114:0 115:0 116:0 117:0 118:0 119:0 120:0 121:0 122:0 123:0 124:0 125:0 126:0 127:0 128:0 129:0 130:0 131:0 132:0 133:0 134:0 135:0 136:0 137:0 138:0 139:0 140:0 141:0 142:0 143:0 144:0 145:0 146:0 147:0 148:0 149:0 150:0 151:0 152:0 153:0 154:0 155:0 156:0 157:0 158:0 159:0 160:0 161:0 162:0 163:0 164:0 165:0 166:0 167:0 168:0 169:0 170:0 171:0 172:39 173:37 174:8 175:42 176:66 177:171 178:71 179:26 180:24 181:0 182:12 183:18 184:0 185:11 186:0 187:0 188:0 189:0 190:0 191:0 192:0 
1 1 1:0 2:0 3:0 4:0 5:0 6:0 7:0 8:0 9:0 10:0 11:0 12:0 13:12 14:0 15:0 16:9 17:0 18:0 19:24 20:52 21:24 22:0 23:9 24:49 25:0 26:0 27:0 28:0 29:0 30:14 31:10 32:0 33:0 34:0 35:0 36:0 37:0 38:0 39:0 40:0 41:0 42:0 43:0 44:0 45:0 46:0 47:0 48:0 49:0 50:0 51:0 52:0 53:22 54:0 55:55 56:64 57:105 58:69 59:43 60:0 61:0 62:6 63:18 64:0 65:0 66:0 67:0 68:0 69:0 70:0 71:0 72:0 73:0 74:0 75:0 76:0 77:0 78:0 79:0 80:0 81:0 82:0 83:0 84:0 85:0 86:0 87:0 88:0 89:0 90:0 91:0 92:0 93:0 94:0 95:0 96:0 97:0 98:0 99:0 100:0 101:0 102:0 103:0 104:0 105:0 106:0 107:0 108:0 109:0 110:0 111:0 112:0 113:0 114:0 115:0 116:0 117:0 118:0 119:0 120:0 121:0 122:0 123:0 124:0 125:0 126:0 127:0 128:0 129:0 130:0 131:0 132:0 133:0 134:0 135:0 136:0 137:0 138:0 139:0 140:0 141:0 142:0 143:0 144:0 145:0 146:0 147:0 148:0 149:0 150:0 151:0 152:0 153:0 154:0 155:0 156:0 157:0 158:0 159:0 160:0 161:0 162:0 163:0 164:0 165:0 166:0 167:0 168:0 169:0 170:0 171:0 172:0 173:32 174:8 175:47 176:68 177:211 178:104 179:27 180:20 181:37 182:60 183:56 184:24 185:25 186:0 187:0 188:5 189:0 190:0 191:0 192:21 
1 0 1:0 2:0 3:0 4:0 5:0 6:0 7:0 8:0 9:0 10:0 11:0 12:0 13:15 14:0 15:0 16:14 17:0 18:0 19:28 20:68 21:40 22:0 23:24 24:80 25:0 26:0 27:0 28:0 29:0 30:15 31:9 32:0 33:0 34:0 35:0 36:0 37:0 38:0 39:0 40:0 41:0 42:0 43:0 44:0 45:0 46:0 47:0 48:0 49:0 50:0 51:0 52:7 53:26 54:0 55:51 56:70 57:108 58:78 59:57 60:4 61:0 62:9 63:0 64:0 65:0 66:0 67:0 68:0 69:0 70:0 71:0 72:0 73:0 74:0 75:0 76:0 77:0 78:0 79:0 80:0 81:0 82:0 83:0 84:0 85:0 86:0 87:0 88:0 89:0 90:0 91:0 92:0 93:0 94:0 95:0 96:0 97:0 98:0 99:0 100:0 101:0 102:0 103:0 104:0 105:0 106:0 107:0 108:0 109:0 110:0 111:0 112:0 113:0 114:0 115:0 116:0 117:0 118:0 119:0 120:0 121:0 122:0 123:0 124:0 125:0 126:0 127:0 128:0 129:0 130:0 131:0 132:0 133:0 134:0 135:0 136:0 137:0 138:0 139:0 140:0 141:0 142:0 143:0 144:0 145:0 146:0 147:0 148:0 149:0 150:0 151:0 152:0 153:0 154:0 155:0 156:0 157:0 158:0 159:0 160:0 161:0 162:0 163:0 164:0 165:0 166:0 167:0 168:0 169:0 170:0 171:0 172:0 173:31 174:9 175:47 176:68 177:215 178:107 179:28 180:20 181:50 182:74 183:60 184:28 185:26 186:0 187:0 188:9 189:0 190:0 191:0 192:27 
0.20108093820027 0 1:0 2:0 3:0 4:0 5:0 6:0 7:0 8:0 9:0 10:0 11:0 12:0 13:0 14:0 15:0 16:0 17:78 18:55 19:35 20:0 21:0 22:0 23:0 24:0 25:4 26:0 27:6 28:0 29:0 30:0 31:0 32:0 33:0 34:0 35:0 36:0 37:0 38:0 39:0 40:0 41:0 42:0 43:0 44:0 45:0 46:0 47:0 48:0 49:0 50:0 51:13 52:65 53:0 54:0 55:0 56:84 57:90 58:0 59:90 60:75 61:0 62:0 63:0 64:0 65:0 66:0 67:0 68:0 69:0 70:0 71:0 72:0 73:0 74:0 75:0 76:0 77:0 78:0 79:0 80:0 81:0 82:0 83:0 84:0 85:0 86:0 87:0 88:0 89:0 90:0 91:0 92:0 93:0 94:0 95:0 96:0 97:0 98:0 99:0 100:0 101:0 102:0 103:0 104:0 105:0 106:0 107:0 108:0 109:0 110:0 111:0 112:0 113:0 114:0 115:0 116:0 117:0 118:0 119:0 120:0 121:0 122:0 123:0 124:0 125:0 126:0 127:0 128:0 129:0 130:0 131:0 132:0 133:0 134:0 135:0 136:0 137:0 138:0 139:0 140:0 141:0 142:0 143:0 144:0 145:21 146:0 147:0 148:0 149:0 150:0 151:0 152:0 153:0 154:0 155:0 156:0 157:0 158:0 159:0 160:0 161:0 162:0 163:0 164:0 165:0 166:0 167:0 168:0 169:0 170:0 171:0 172:15 173:34 174:9 175:49 176:71 177:229 178:119 179:45 180:44 181:53 182:78 183:67 184:29 185:27 186:0 187:0 188:0 189:0 190:0 191:0 192:0 
1 0.5847429424271112 1:0 2:0 3:0 4:0 5:0 6:0 7:0 8:0 9:0 10:0 11:0 12:0 13:0 14:0 15:0 16:0 17:78 18:55 19:35 20:0 21:0 22:0 23:0 24:0 25:4 26:0 27:6 28:0 29:0 30:0 31:0 32:0 33:0 34:0 35:0 36:0 37:0 38:0 39:0 40:0 41:0 42:0 43:0 44:0 45:0 46:0 47:0 48:0 49:0 50:0 51:13 52:65 53:0 54:0 55:0 56:84 57:90 58:0 59:90 60:75 61:0 62:0 63:0 64:0 65:0 66:0 67:0 68:0 69:0 70:0 71:0 72:0 73:0 74:0 75:0 76:0 77:0 78:0 79:0 80:0 81:0 82:0 83:0 84:0 85:0 86:0 87:0 88:0 89:0 90:0 91:0 92:0 93:0 94:0 95:0 96:0 97:0 98:0 99:0 100:0 101:0 102:0 103:0 104:0 105:0 106:0 107:0 108:0 109:0 110:0 111:0 112:0 113:0 114:0 115:0 116:0 117:0 118:0 119:0 120:0 121:0 122:0 123:0 124:0 125:0 126:0 127:0 128:0 129:0 130:0 131:0 132:0 133:0 134:0 135:0 136:0 137:0 138:0 139:0 140:0 141:0 142:0 143:0 144:0 145:22 146:0 147:4 148:0 149:0 150:0 151:0 152:0 153:0 154:0 155:0 156:0 157:0 158:0 159:0 160:0 161:0 162:0 163:0 164:0 165:0 166:0 167:0 168:0 169:0 170:0 171:0 172:17 173:30 174:0 175:47 176:70 177:229 178:124 179:50 180:52 181:50 182:79 183:65 184:0 185:0 186:0 187:0 188:0 189:0 190:0 191:0 192:0 
1 0.5921347051889121 1:0 2:0 3:0 4:0 5:0 6:0 7:0 8:0 9:0 10:0 11:0 12:0 13:67 14:31 15:104 16:94 17:13 18:13 19:32 20:46 21:16 22:68 23:42 24:64 25:16 26:0 27:8 28:11 29:18 30:59 31:11 32:15 33:6 34:0 35:5 36:27 37:0 38:0 39:0 40:0 41:0 42:0 43:0 44:0 45:0 46:0 47:0 48:0 49:71 50:6 51:0 52:0 53:0 54:0 55:0 56:0 57:0 58:0 59:3 60:0 61:0 62:0 63:0 64:0 65:0 66:0 67:0 68:0 69:0 70:0 71:0 72:0 73:0 74:0 75:0 76:0 77:0 78:0 79:0 80:0 81:0 82:0 83:0 84:0 85:0 86:0 87:0 88:0 89:0 90:0 91:0 92:0 93:0 94:0 95:0 96:0 97:0 98:0 99:0 100:0 101:0 102:0 103:0 104:0 105:0 106:0 107:0 108:0 109:0 110:0 111:0 112:0 113:0 114:0 115:0 116:0 117:0 118:0 119:0 120:0 121:0 122:0 123:0 124:0 125:0 126:0 127:0 128:0 129:0 130:0 131:0 132:0 133:0 134:0 135:0 136:0 137:0 138:0 139:0 140:0 141:0 142:0 143:0 144:0 145:1 146:0 147:0 148:0 149:0 150:0 151:0 152:0 153:0 154:0 155:0 156:0 157:0 158:0 159:0 160:0 161:0 162:0 163:0 164:0 165:0 166:0 167:0 168:0 169:4 170:0 171:0 172:13 173:17 174:0 175:38 176:69 177:228 178:132 179:66 180:64 181:6 182:87 183:5 184:4 185:0 186:0 187:0 188:0 189:0 190:0 191:0 192:8 
1 1 1:0 2:0 3:0 4:0 5:0 6:0 7:0 8:0 9:0 10:0 11:0 12:0 13:73 14:32 15:105 16:98 17:28 18:24 19:46 20:57 21:22 22:69 23:48 24:69 25:17 26:0 27:9 28:17 29:26 30:56 31:11 32:21 33:13 34:0 35:12 36:35 37:0 38:0 39:0 40:0 41:0 42:0 43:0 44:0 45:0 46:0 47:0 48:0 49:69 50:0 51:0 52:0 53:0 54:0 55:0 56:0 57:0 58:0 59:13 60:8 61:0 62:0 63:0 64:0 65:0 66:0 67:0 68:0 69:0 70:0 71:0 72:0 73:0 74:0 75:0 76:0 77:0 78:0 79:0 80:0 81:0 82:0 83:0 84:0 85:0 86:0 87:0 88:0 89:0 90:0 91:0 92:0 93:0 94:0 95:0 96:0 97:0 98:0 99:0 100:0 101:0 102:0 103:0 104:0 105:0 106:0 107:0 108:0 109:0 110:0 111:0 112:0 113:0 114:0 115:0 116:0 117:0 118:0 119:0 120:0 121:0 122:0 123:0 124:0 125:0 126:0 127:0 128:0 129:0 130:0 131:0 132:0 133:0 134:0 135:0 136:0 137:0 138:0 139:0 140:0 141:0 142:0 143:0 144:0 145:0 146:0 147:0 148:0 149:0 150:0 151:0 152:0 153:0 154:0 155:0 156:0 157:0 158:0 159:0 160:0 161:0 162:0 163:0 164:0 165:0 166:0 167:0 168:0 169:0 170:0 171:0 172:17 173:23 174:0 175:46 176:75 177:0 178:136 179:63 180:63 181:25 182:111 183:23 184:22 185:14 186:0 187:0 188:0 189:0 190:0 191:0 192:29 
1 0 1:0 2:0 3:0 4:0 5:0 6:0 7:0 8:0 9:0 10:0 11:0 12:0 13:90 14:57 15:110 16:102 17:46 18:40 19:65 20:59 21:34 22:75 23:66 24:70 25:17 26:3 27:11 28:26 29:50 30:61 31:19 32:35 33:24 34:13 35:31 36:49 37:0 38:0 39:0 40:0 41:0 42:0 43:0 44:0 45:0 46:0 47:0 48:0 49:83 50:22 51:31 52:0 53:0 54:0 55:0 56:0 57:0 58:0 59:38 60:35 61:0 62:0 63:0 64:0 65:0 66:0 67:0 68:0 69:0 70:0 71:0 72:0 73:0 74:0 75:0 76:0 77:0 78:0 79:0 80:0 81:0 82:0 83:0 84:0 85:0 86:0 87:0 88:0 89:0 90:0 91:0 92:0 93:0 94:0 95:0 96:0 97:0 98:0 99:0 100:0 101:0 102:0 103:0 104:0 105:0 106:0 107:0 108:0 109:0 110:0 111:0 112:0 113:0 114:0 115:0 116:0 117:0 118:0 119:0 120:0 121:0 122:0 123:0 124:0 125:0 126:0 127:0 128:0 129:0 130:0 131:0 132:0 133:0 134:0 135:0 136:0 137:0 138:0 139:0 140:0 141:0 142:0 143:0 144:0 145:6 146:0 147:1 148:0 149:0 150:0 151:0 152:0 153:0 154:0 155:0 156:0 157:0 158:0 159:0 160:0 161:0 162:0 163:0 164:0 165:0 166:0 167:0 168:0 169:0 170:0 171:0 172:22 173:28 174:4 175:55 176:80 177:0 178:133 179:57 180:64 181:52 182:151 183:52 184:40 185:29 186:0 187:3 188:18 189:0 190:0 191:0 192:58 
0.02818968141718669 0 1:0 2:0 3:0 4:0 5:0 6:0 7:0 8:0 9:0 10:0 11:0 12:0 13:91 14:55 15:111 16:104 17:40 18:44 19:67 20:57 21:37 22:76 23:69 24:69 25:22 26:2 27:15 28:33 29:45 30:67 31:21 32:35 33:0 34:13 35:32 36:50 37:0 38:0 39:0 40:0 41:0 42:0 43:0 44:0 45:0 46:0 47:0 48:0 49:87 50:22 51:39 52:5 53:0 54:0 55:0 56:0 57:0 58:0 59:40 60:39 61:0 62:0 63:0 64:0 65:0 66:0 67:0 68:0 69:0 70:0 71:0 72:0 73:0 74:0 75:0 76:0 77:0 78:0 79:0 80:0 81:0 82:0 83:0 84:0 85:0 86:0 87:0 88:0 89:0 90:0 91:0 92:0 93:0 94:0 95:0 96:0 97:0 98:0 99:0 100:0 101:0 102:0 103:0 104:0 105:0 106:0 107:0 108:0 109:0 110:0 111:0 112:0 113:0 114:0 115:0 116:0 117:0 118:0 119:0 120:0 121:0 122:0 123:0 124:0 125:0 126:0 127:0 128:0 129:0 130:0 131:0 132:0 133:0 134:0 135:0 136:0 137:0 138:0 139:0 140:0 141:0 142:0 143:0 144:0 145:8 146:0 147:1 148:0 149:0 150:0 151:0 152:0 153:0 154:0 155:0 156:0 157:0 158:0 159:0 160:0 161:0 162:0 163:0 164:0 165:0 166:0 167:0 168:0 169:0 170:0 171:0 172:22 173:28 174:5 175:56 176:83 177:0 178:134 179:58 180:66 181:56 182:159 183:54 184:39 185:27 186:0 187:4 188:21 189:0 190:0 191:1 192:59 
1 0.6405342133580998 1:0 2:0 3:0 4:0 5:0 6:0 7:0 8:0 9:0 10:0 11:0 12:0 13:87 14:54 15:112 16:104 17:40 18:45 19:66 20:56 21:36 22:75 23:68 24:68 25:17 26:0 27:16 28:35 29:2 30:58 31:17 32:33 33:5 34:14 35:28 36:49 37:0 38:0 39:0 40:0 41:0 42:0 43:0 44:0 45:0 46:0 47:0 48:0 49:83 50:23 51:43 52:6 53:0 54:0 55:0 56:0 57:0 58:0 59:39 60:38 61:0 62:0 63:0 64:0 65:0 66:0 67:0 68:0 69:0 70:0 71:0 72:0 73:0 74:0 75:0 76:0 77:0 78:0 79:0 80:0 81:0 82:0 83:0 84:0 85:0 86:0 87:0 88:0 89:0 90:0 91:0 92:0 93:0 94:0 95:0 96:0 97:0 98:0 99:0 100:0 101:0 102:0 103:0 104:0 105:0 106:0 107:0 108:0 109:0 110:0 111:0 112:0 113:0 114:0 115:0 116:0 117:0 118:0 119:0 120:0 121:0 122:0 123:0 124:0 125:0 126:0 127:0 128:0 129:0 130:0 131:0 132:0 133:0 134:0 135:0 136:0 137:0 138:0 139:0 140:0 141:0 142:0 143:0 144:0 145:8 146:0 147:2 148:0 149:0 150:0 151:0 152:0 153:0 154:0 155:0 156:0 157:0 158:0 159:0 160:0 161:0 162:0 163:0 164:0 165:0 166:0 167:0 168:0 169:0 170:0 171:0 172:23 173:30 174:5 175:54 176:82 177:0 178:137 179:60 180:67 181:56 182:160 183:57 184:40 185:29 186:0 187:4 188:20 189:0 190:0 191:1 192:56 
1 1 1:0 2:0 3:0 4:0 5:0 6:0 7:0 8:0 9:0 10:0 11:0 12:0 13:85 14:53 15:113 16:101 17:41 18:45 19:66 20:59 21:37 22:76 23:68 24:71 25:16 26:0 27:21 28:31 29:1 30:60 31:19 32:35 33:5 34:10 35:26 36:47 37:0 38:0 39:0 40:0 41:0 42:0 43:0 44:0 45:0 46:0 47:0 48:0 49:81 50:20 51:39 52:0 53:0 54:0 55:0 56:0 57:0 58:0 59:40 60:35 61:0 62:0 63:0 64:0 65:0 66:0 67:0 68:0 69:0 70:0 71:0 72:0 73:0 74:0 75:0 76:0 77:0 78:0 79:0 80:0 81:0 82:0 83:0 84:0 85:0 86:0 87:0 88:0 89:0 90:0 91:0 92:0 93:0 94:0 95:0 96:0 97:0 98:0 99:0 100:0 101:0 102:0 103:0 104:0 105:0 106:0 107:0 108:0 109:0 110:0 111:0 112:0 113:0 114:0 115:0 116:0 117:0 118:0 119:0 120:0 121:0 122:0 123:0 124:0 125:0 126:0 127:0 128:0 129:0 130:0 131:0 132:0 133:0 134:0 135:0 136:0 137:0 138:0 139:0 140:0 141:0 142:0 143:0 144:0 145:7 146:0 147:2 148:0 149:0 150:0 151:0 152:0 153:0 154:0 155:0 156:0 157:0 158:0 159:0 160:0 161:0 162:0 163:0 164:0 165:0 166:0 167:0 168:0 169:0 170:0 171:0 172:20 173:27 174:1 175:55 176:80 177:0 178:136 179:59 180:65 181:53 182:157 183:49 184:38 185:27 186:0 187:4 188:19 189:0 190:0 191:0 192:54 
1 1 1:0 2:0 3:0 4:0 5:0 6:0 7:0 8:0 9:0 10:0 11:0 12:0 13:76 14:0 15:108 16:99 17:40 18:45 19:61 20:58 21:0 22:72 23:62 24:67 25:17 26:3 27:19 28:27 29:6 30:62 31:18 32:29 33:0 34:0 35:21 36:47 37:0 38:0 39:0 40:0 41:0 42:0 43:0 44:0 45:0 46:0 47:0 48:0 49:78 50:16 51:0 52:0 53:0 54:0 55:0 56:0 57:0 58:0 59:36 60:0 61:0 62:0 63:0 64:0 65:0 66:0 67:0 68:0 69:0 70:0 71:0 72:0 73:0 74:0 75:0 76:0 77:0 78:0 79:0 80:0 81:0 82:0 83:0 84:0 85:0 86:0 87:0 88:0 89:0 90:0 91:0 92:0 93:0 94:0 95:0 96:0 97:0 98:0 99:0 100:0 101:0 102:0 103:0 104:0 105:0 106:0 107:0 108:0 109:0 110:0 111:0 112:0 113:0 114:0 115:0 116:0 117:0 118:0 119:0 120:0 121:0 122:0 123:0 124:0 125:0 126:0 127:0 128:0 129:0 130:0 131:0 132:0 133:0 134:0 135:0 136:0 137:0 138:0 139:0 140:0 141:0 142:0 143:0 144:0 145:4 146:0 147:0 148:0 149:0 150:0 151:0 152:0 153:0 154:0 155:0 156:0 157:0 158:0 159:0 160:0 161:0 162:0 163:0 164:0 165:0 166:0 167:0 168:0 169:0 170:0 171:0 172:17 173:27 174:2 175:51 176:75 177:0 178:125 179:55 180:58 181:44 182:133 183:38 184:32 185:23 186:0 187:0 188:0 189:0 190:0 191:0 192:0 
1 1 1:0 2:0 3:0 4:0 5:0 6:0 7:0 8:0 9:0 10:0 11:0 12:0 13:66 14:0 15:102 16:96 17:39 18:43 19:55 20:53 21:0 22:65 23:0 24:59 25:12 26:0 27:0 28:0 29:0 30:0 31:12 32:0 33:0 34:0 35:0 36:0 37:0 38:0 39:0 40:0 41:0 42:0 43:0 44:0 45:0 46:0 47:0 48:0 49:65 50:0 51:0 52:0 53:0 54:0 55:0 56:0 57:0 58:0 59:0 60:0 61:0 62:0 63:0 64:0 65:0 66:0 67:0 68:0 69:0 70:0 71:0 72:0 73:0 74:0 75:0 76:0 77:0 78:0 79:0 80:0 81:0 82:0 83:0 84:0 85:0 86:0 87:0 88:0 89:0 90:0 91:0 92:0 93:0 94:0 95:0 96:0 97:0 98:0 99:0 100:0 101:0 102:0 103:0 104:0 105:0 106:0 107:0 108:0 109:0 110:0 111:0 112:0 113:0 114:0 115:0 116:0 117:0 118:0 119:0 120:0 121:0 122:0 123:0 124:0 125:0 126:0 127:0 128:0 129:0 130:0 131:0 132:0 133:0 134:0 135:0 136:0 137:0 138:0 139:0 140:0 141:0 142:0 143:0 144:0 145:0 146:0 147:0 148:0 149:0 150:0 151:0 152:0 153:0 154:0 155:0 156:0 157:0 158:0 159:0 160:0 161:0 162:0 163:0 164:0 165:0 166:0 167:0 168:0 169:2 170:0 171:0 172:18 173:27 174:2 175:47 176:73 177:243 178:117 179:52 180:59 181:32 182:107 183:29 184:0 185:0 186:0 187:0 188:0 189:0 190:0 191:0 192:0 
1 1 1:0 2:0 3:0 4:0 5:0 6:0 7:0 8:0 9:0 10:0 11:0 12:0 13:0 14:0 15:0 16:0 17:22 18:0 19:0 20:0 21:0 22:0 23:0 24:0 25:5 26:0 27:0 28:0 29:0 30:0 31:0 32:0 33:0 34:0 35:15 36:0 37:0 38:0 39:0 40:0 41:0 42:0 43:0 44:0 45:0 46:0 47:0 48:0 49:0 50:0 51:0 52:26 53:0 54:0 55:30 56:54 57:103 58:37 59:72 60:67 61:0 62:0 63:10 64:0 65:0 66:0 67:0 68:0 69:0 70:0 71:0 72:0 73:0 74:0 75:0 76:0 77:0 78:0 79:0 80:0 81:0 82:0 83:0 84:0 85:0 86:0 87:0 88:0 89:0 90:0 91:0 92:0 93:0 94:0 95:0 96:0 97:0 98:0 99:0 100:0 101:0 102:0 103:0 104:0 105:0 106:0 107:0 108:0 109:0 110:0 111:0 112:0 113:0 114:0 115:0 116:0 117:0 118:0 119:0 120:0 121:0 122:0 123:0 124:0 125:0 126:25 127:0 128:0 129:0 130:0 131:0 132:0 133:0 134:0 135:0 136:0 137:0 138:0 139:0 140:0 141:0 142:0 143:0 144:0 145:0 146:0 147:0 148:0 149:0 150:0 151:0 152:0 153:0 154:0 155:0 156:0 157:0 158:0 159:0 160:0 161:0 162:0 163:0 164:0 165:0 166:27 167:0 168:0 169:0 170:22 171:0 172:0 173:0 174:0 175:0 176:0 177:0 178:0 179:0 180:0 181:0 182:0 183:0 184:0 185:0 186:0 187:0 188:0 189:0 190:0 191:0 192:0 
1 1 1:0 2:0 3:0 4:0 5:0 6:0 7:0 8:0 9:0 10:0 11:0 12:0 13:0 14:0 15:0 16:0 17:80 18:28 19:0 20:0 21:0 22:0 23:34 24:0 25:8 26:0 27:0 28:0 29:0 30:0 31:0 32:0 33:0 34:4 35:19 36:10 37:0 38:0 39:0 40:0 41:0 42:0 43:0 44:0 45:0 46:0 47:0 48:0 49:15 50:0 51:0 52:63 53:15 54:0 55:41 56:61 57:113 58:47 59:83 60:87 61:0 62:8 63:22 64:0 65:0 66:0 67:0 68:0 69:0 70:0 71:0 72:0 73:0 74:0 75:0 76:0 77:0 78:0 79:0 80:0 81:0 82:0 83:0 84:0 85:0 86:0 87:0 88:0 89:0 90:0 91:0 92:0 93:0 94:0 95:0 96:0 97:0 98:0 99:0 100:0 101:0 102:0 103:0 104:0 105:0 106:0 107:0 108:0 109:0 110:0 111:0 112:0 113:0 114:0 115:0 116:0 117:0 118:0 119:0 120:0 121:0 122:0 123:0 124:0 125:6 126:26 127:0 128:0 129:0 130:0 131:0 132:0 133:0 134:0 135:0 136:0 137:0 138:0 139:0 140:0 141:0 142:0 143:0 144:0 145:8 146:0 147:6 148:0 149:87 150:78 151:0 152:0 153:0 154:0 155:0 156:0 157:0 158:0 159:0 160:0 161:0 162:0 163:0 164:17 165:60 166:70 167:63 168:15 169:14 170:55 171:13 172:0 173:0 174:0 175:0 176:0 177:0 178:0 179:0 180:0 181:0 182:0 183:0 184:0 185:0 186:0 187:0 188:0 189:0 190:0 191:0 192:0 
1 1 1:0 2:0 3:0 4:0 5:0 6:0 7:0 8:0 9:0 10:0 11:0 12:0 13:0 14:0 15:0 16:0 17:119 18:58 19:0 20:0 21:0 22:0 23:78 24:0 25:0 26:0 27:0 28:0 29:0 30:0 31:0 32:0 33:0 34:0 35:28 36:0 37:0 38:0 39:0 40:0 41:0 42:0 43:0 44:0 45:0 46:0 47:0 48:0 49:0 50:0 51:0 52:92 53:41 54:0 55:63 56:71 57:128 58:57 59:92 60:97 61:0 62:38 63:54 64:0 65:1 66:0 67:0 68:0 69:0 70:0 71:0 72:0 73:0 74:0 75:0 76:0 77:0 78:0 79:0 80:0 81:0 82:0 83:0 84:0 85:0 86:0 87:0 88:0 89:0 90:0 91:0 92:0 93:0 94:0 95:0 96:0 97:0 98:0 99:0 100:0 101:0 102:0 103:0 104:0 105:0 106:0 107:0 108:0 109:0 110:0 111:0 112:0 113:0 114:0 115:0 116:0 117:0 118:0 119:0 120:0 121:0 122:0 123:0 124:0 125:0 126:0 127:0 128:0 129:0 130:0 131:0 132:0 133:0 134:0 135:0 136:0 137:0 138:0 139:0 140:0 141:0 142:0 143:0 144:0 145:17 146:0 147:9 148:0 149:0 150:0 151:0 152:0 153:0 154:0 155:0 156:0 157:0 158:0 159:0 160:0 161:0 162:0 163:0 164:0 165:78 166:77 167:81 168:0 169:0 170:68 171:0 172:0 173:0 174:0 175:0 176:0 177:0 178:0 179:0 180:0 181:0 182:0 183:0 184:0 185:0 186:0 187:0 188:0 189:0 190:0 191:0 192:0 
1 1 1:0 2:0 3:0 4:0 5:0 6:0 7:0 8:0 9:0 10:0 11:0 12:0 13:0 14:0 15:0 16:0 17:92 18:0 19:0 20:0 21:0 22:0 23:0 24:0 25:0 26:0 27:0 28:0 29:0 30:0 31:0 32:0 33:0 34:0 35:0 36:0 37:0 38:0 39:0 40:0 41:0 42:0 43:0 44:0 45:0 46:0 47:0 48:0 49:0 50:0 51:0 52:87 53:43 54:0 55:63 56:69 57:125 58:53 59:89 60:94 61:0 62:36 63:50 64:0 65:2 66:0 67:0 68:0 69:0 70:0 71:0 72:0 73:0 74:0 75:0 76:0 77:0 78:0 79:0 80:0 81:0 82:0 83:0 84:0 85:0 86:0 87:0 88:0 89:0 90:0 91:0 92:0 93:0 94:0 95:0 96:0 97:0 98:0 99:0 100:0 101:0 102:0 103:0 104:0 105:0 106:0 107:0 108:0 109:0 110:0 111:0 112:0 113:0 114:0 115:0 116:0 117:0 118:0 119:0 120:0 121:0 122:0 123:0 124:0 125:0 126:0 127:0 128:0 129:0 130:0 131:0 132:0 133:0 134:0 135:0 136:0 137:0 138:0 139:0 140:0 141:0 142:0 143:0 144:0 145:13 146:0 147:6 148:0 149:0 150:0 151:0 152:0 153:0 154:0 155:0 156:0 157:0 158:0 159:0 160:0 161:0 162:0 163:0 164:0 165:0 166:63 167:0 168:0 169:0 170:65 171:0 172:0 173:0 174:0 175:0 176:0 177:0 178:0 179:0 180:0 181:0 182:0 183:0 184:0 185:0 186:0 187:0 188:0 189:0 190:0 191:0 192:0 
1 1 1:0 2:0 3:0 4:0 5:0 6:0 7:0 8:0 9:0 10:0 11:0 12:0 13:0 14:0 15:0 16:0 17:68 18:0 19:0 20:0 21:0 22:0 23:0 24:0 25:0 26:0 27:0 28:0 29:0 30:0 31:0 32:0 33:0 34:0 35:0 36:0 37:0 38:0 39:0 40:0 41:0 42:0 43:0 44:0 45:0 46:0 47:0 48:0 49:0 50:0 51:0 52:86 53:46 54:0 55:64 56:69 57:122 58:48 59:87 60:93 61:0 62:0 63:0 64:0 65:0 66:0 67:0 68:0 69:0 70:0 71:0 72:0 73:0 74:0 75:0 76:0 77:0 78:0 79:0 80:0 81:0 82:0 83:0 84:0 85:0 86:0 87:0 88:0 89:0 90:0 91:0 92:0 93:0 94:0 95:0 96:0 97:0 98:0 99:0 100:0 101:0 102:0 103:0 104:0 105:0 106:0 107:0 108:0 109:0 110:0 111:0 112:0 113:0 114:0 115:0 116:0 117:0 118:0 119:0 120:0 121:0 122:0 123:0 124:0 125:0 126:0 127:0 128:0 129:0 130:0 131:0 132:0 133:0 134:0 135:0 136:0 137:0 138:0 139:0 140:0 141:0 142:0 143:0 144:0 145:10 146:0 147:4 148:0 149:0 150:0 151:0 152:0 153:0 154:0 155:0 156:0 157:0 158:0 159:0 160:0 161:0 162:0 163:0 164:0 165:0 166:0 167:0 168:0 169:0 170:0 171:0 172:0 173:0 174:0 175:0 176:0 177:0 178:0 179:0 180:0 181:0 182:0 183:0 184:0 185:0 186:0 187:0 188:0 189:0 190:0 191:0 192:0 
1 1 1:0 2:0 3:0 4:0 5:0 6:0 7:0 8:0 9:0 10:0 11:0 12:0 13:0 14:0 15:0 16:0 17:0 18:0 19:0 20:0 21:0 22:0 23:0 24:0 25:0 26:0 27:0 28:0 29:0 30:0 31:0 32:0 33:0 34:0 35:0 36:0 37:0 38:0 39:0 40:0 41:0 42:0 43:0 44:0 45:0 46:0 47:0 48:0 49:0 50:0 51:0 52:83 53:44 54:0 55:0 56:58 57:97 58:0 59:61 60:73 61:0 62:0 63:0 64:0 65:0 66:0 67:0 68:0 69:0 70:0 71:0 72:0 73:0 74:0 75:0 76:0 77:0 78:0 79:0 80:0 81:0 82:0 83:0 84:0 85:0 86:0 87:0 88:0 89:0 90:0 91:0 92:0 93:0 94:0 95:0 96:0 97:0 98:0 99:0 100:0 101:0 102:0 103:0 104:0 105:0 106:0 107:0 108:0 109:0 110:0 111:0 112:0 113:36 114:44 115:50 116:0 117:0 118:0 119:0 120:0 121:0 122:0 123:0 124:0 125:0 126:0 127:0 128:0 129:0 130:0 131:0 132:0 133:0 134:0 135:0 136:0 137:0 138:0 139:0 140:0 141:0 142:0 143:0 144:0 145:0 146:0 147:0 148:0 149:0 150:0 151:0 152:0 153:0 154:0 155:0 156:0 157:0 158:0 159:0 160:0 161:0 162:0 163:0 164:0 165:0 166:0 167:0 168:0 169:0 170:0 171:0 172:0 173:0 174:0 175:0 176:0 177:0 178:0 179:0 180:0 181:0 182:0 183:0 184:0 185:0 186:0 187:0 188:0 189:0 190:0 191:0 192:0 
1 1 1:0 2:0 3:0 4:0 5:0 6:0 7:0 8:0 9:0 10:0 11:0 12:0 13:0 14:0 15:0 16:0 17:0 18:0 19:0 20:0 21:0 22:0 23:0 24:0 25:0 26:0 27:0 28:0 29:0 30:0 31:0 32:0 33:0 34:0 35:0 36:0 37:0 38:0 39:0 40:0 41:0 42:0 43:0 44:0 45:0 46:0 47:0 48:0 49:0 50:0 51:0 52:68 53:0 54:0 55:0 56:38 57:0 58:0 59:0 60:0 61:0 62:0 63:0 64:0 65:0 66:0 67:0 68:0 69:0 70:0 71:0 72:0 73:0 74:0 75:0 76:0 77:0 78:0 79:0 80:0 81:0 82:0 83:0 84:0 85:0 86:0 87:0 88:0 89:0 90:0 91:0 92:0 93:0 94:0 95:0 96:0 97:0 98:0 99:0 100:0 101:0 102:0 103:0 104:0 105:0 106:0 107:0 108:0 109:0 110:0 111:0 112:0 113:36 114:44 115:50 116:0 117:0 118:0 119:0 120:0 121:0 122:0 123:0 124:0 125:0 126:0 127:0 128:0 129:0 130:0 131:0 132:0 133:0 134:0 135:0 136:0 137:0 138:0 139:0 140:0 141:0 142:0 143:0 144:0 145:0 146:0 147:0 148:0 149:0 150:0 151:0 152:0 153:0 154:0 155:0 156:0 157:0 158:0 159:0 160:0 161:0 162:0 163:0 164:0 165:0 166:0 167:0 168:0 169:0 170:0 171:0 172:0 173:0 174:0 175:0 176:0 177:0 178:0 179:0 180:0 181:0 182:0 183:0 184:0 185:0 186:0 187:0 188:0 189:0 190:0 191:0 192:0 
1 1 1:0 2:0 3:0 4:0 5:0 6:0 7:0 8:0 9:38 10:42 11:51 12:27 13:0 14:0 15:0 16:0 17:0 18:0 19:0 20:0 21:0 22:0 23:13 24:17 25:0 26:0 27:0 28:0 29:17 30:0 31:16 32:0 33:8 34:0 35:0 36:0 37:0 38:0 39:0 40:15 41:28 42:27 43:56 44:29 45:0 46:0 47:0 48:10 49:26 50:0 51:29 52:67 53:66 54:43 55:38 56:36 57:0 58:0 59:0 60:39 61:0 62:0 63:0 64:0 65:0 66:0 67:0 68:0 69:0 70:0 71:0 72:0 73:0 74:0 75:0 76:0 77:0 78:0 79:0 80:0 81:0 82:0 83:0 84:0 85:0 86:0 87:0 88:0 89:0 90:0 91:0 92:0 93:0 94:0 95:0 96:0 97:0 98:0 99:0 100:0 101:0 102:0 103:0 104:0 105:0 106:0 107:0 108:0 109:0 110:0 111:0 112:0 113:0 114:0 115:0 116:0 117:0 118:0 119:0 120:0 121:0 122:0 123:0 124:0 125:0 126:0 127:0 128:0 129:0 130:0 131:0 132:0 133:0 134:0 135:0 136:0 137:0 138:0 139:0 140:0 141:0 142:0 143:0 144:0 145:11 146:0 147:0 148:0 149:0 150:0 151:14 152:0 153:0 154:0 155:0 156:0 157:0 158:0 159:0 160:22 161:0 162:0 163:30 164:63 165:52 166:0 167:29 168:64 169:0 170:0 171:0 172:0 173:0 174:0 175:0 176:0 177:0 178:0 179:0 180:0 181:0 182:0 183:0 184:0 185:0 186:0 187:0 188:0 189:0 190:0 191:0 192:0 
1 1 1:0 2:0 3:0 4:0 5:0 6:0 7:0 8:0 9:0 10:0 11:0 12:0 13:98 14:0 15:55 16:0 17:0 18:0 19:0 20:0 21:0 22:0 23:0 24:0 25:0 26:0 27:0 28:0 29:0 30:0 31:0 32:0 33:0 34:0 35:0 36:0 37:20 38:0 39:20 40:44 41:0 42:0 43:64 44:0 45:0 46:0 47:0 48:0 49:92 50:0 51:93 52:83 53:72 54:0 55:0 56:0 57:0 58:0 59:0 60:0 61:0 62:0 63:0 64:0 65:0 66:0 67:0 68:0 69:0 70:0 71:0 72:0 73:0 74:0 75:0 76:0 77:0 78:0 79:0 80:0 81:0 82:0 83:0 84:0 85:0 86:0 87:0 88:0 89:0 90:0 91:0 92:0 93:0 94:0 95:0 96:0 97:0 98:0 99:0 100:0 101:0 102:0 103:0 104:0 105:0 106:0 107:0 108:0 109:0 110:0 111:0 112:0 113:0 114:0 115:0 116:0 117:0 118:0 119:0 120:0 121:77 122:76 123:0 124:0 125:0 126:0 127:0 128:0 129:0 130:0 131:0 132:0 133:16 134:0 135:31 136:0 137:0 138:0 139:0 140:0 141:0 142:0 143:0 144:0 145:0 146:0 147:0 148:0 149:0 150:33 151:0 152:0 153:0 154:0 155:0 156:0 157:0 158:0 159:62 160:0 161:0 162:0 163:0 164:0 165:0 166:0 167:0 168:0 169:0 170:0 171:0 172:0 173:0 174:0 175:0 176:0 177:0 178:0 179:0 180:0 181:0 182:0 183:0 184:0 185:0 186:0 187:0 188:0 189:0 190:0 191:0 192:0 
1 1 1:0 2:0 3:0 4:0 5:36 6:46 7:42 8:0 9:0 10:0 11:0 12:0 13:79 14:56 15:5 16:0 17:0 18:0 19:37 20:0 21:82 22:0 23:0 24:7 25:0 26:11 27:67 28:71 29:0 30:0 31:0 32:0 33:11 34:0 35:0 36:0 37:5 38:0 39:0 40:0 41:0 42:0 43:0 44:0 45:7 46:1 47:13 48:9 49:0 50:0 51:0 52:0 53:0 54:0 55:0 56:0 57:0 58:0 59:0 60:0 61:0 62:0 63:0 64:0 65:0 66:0 67:0 68:0 69:0 70:0 71:0 72:0 73:0 74:0 75:0 76:0 77:0 78:0 79:0 80:0 81:0 82:0 83:0 84:0 85:0 86:0 87:0 88:0 89:0 90:0 91:0 92:0 93:0 94:0 95:0 96:0 97:0 98:0 99:0 100:0 101:0 102:0 103:0 104:0 105:0 106:0 107:0 108:0 109:0 110:0 111:0 112:0 113:0 114:0 115:0 116:0 117:0 118:0 119:0 120:0 121:0 122:30 123:8 124:0 125:0 126:0 127:0 128:0 129:0 130:0 131:0 132:0 133:0 134:0 135:0 136:0 137:0 138:0 139:0 140:0 141:0 142:0 143:0 144:0 145:8 146:0 147:0 148:9 149:0 150:0 151:0 152:3 153:0 154:0 155:0 156:0 157:86 158:0 159:49 160:74 161:0 162:56 163:0 164:78 165:71 166:20 167:81 168:76 169:0 170:0 171:0 172:0 173:0 174:16 175:5 176:0 177:0 178:0 179:0 180:0 181:0 182:0 183:0 184:0 185:0 186:0 187:0 188:0 189:0 190:0 191:0 192:0 
1 1 1:0 2:0 3:0 4:0 5:0 6:0 7:0 8:0 9:0 10:0 11:0 12:0 13:81 14:54 15:5 16:0 17:0 18:0 19:0 20:0 21:57 22:0 23:0 24:3 25:0 26:12 27:62 28:71 29:0 30:0 31:0 32:0 33:8 34:0 35:0 36:0 37:7 38:0 39:0 40:0 41:0 42:0 43:0 44:0 45:4 46:0 47:12 48:9 49:0 50:0 51:0 52:0 53:0 54:0 55:0 56:0 57:0 58:0 59:0 60:0 61:0 62:0 63:0 64:0 65:0 66:0 67:0 68:0 69:0 70:0 71:0 72:0 73:0 74:0 75:0 76:0 77:0 78:0 79:0 80:0 81:0 82:0 83:0 84:0 85:0 86:0 87:0 88:0 89:0 90:0 91:0 92:0 93:0 94:0 95:0 96:0 97:0 98:0 99:0 100:0 101:0 102:0 103:0 104:0 105:0 106:0 107:0 108:0 109:0 110:0 111:0 112:0 113:0 114:0 115:0 116:0 117:0 118:0 119:0 120:0 121:0 122:32 123:11 124:0 125:0 126:0 127:0 128:0 129:0 130:0 131:0 132:0 133:0 134:0 135:0 136:0 137:0 138:0 139:0 140:0 141:0 142:0 143:0 144:0 145:7 146:0 147:0 148:6 149:0 150:0 151:0 152:0 153:0 154:0 155:0 156:0 157:83 158:0 159:0 160:60 161:0 162:0 163:0 164:72 165:62 166:0 167:73 168:77 169:0 170:0 171:0 172:0 173:0 174:0 175:0 176:0 177:0 178:0 179:0 180:0 181:0 182:0 183:0 184:0 185:0 186:0 187:0 188:0 189:0 190:0 191:0 192:0 
1 1 1:0 2:0 3:0 4:0 5:0 6:0 7:0 8:0 9:0 10:0 11:0 12:0 13:0 14:0 15:0 16:0 17:0 18:9 19:20 20:7 21:10 22:6 23:0 24:0 25:0 26:0 27:0 28:0 29:0 30:0 31:0 32:0 33:0 34:0 35:0 36:0 37:2 38:0 39:0 40:5 41:8 42:0 43:13 44:22 45:4 46:0 47:0 48:0 49:0 50:0 51:0 52:0 53:0 54:0 55:0 56:0 57:0 58:0 59:0 60:0 61:0 62:0 63:0 64:0 65:0 66:0 67:0 68:0 69:0 70:0 71:0 72:0 73:0 74:0 75:0 76:0 77:0 78:0 79:0 80:0 81:0 82:0 83:0 84:0 85:0 86:0 87:0 88:0 89:0 90:0 91:0 92:0 93:0 94:0 95:0 96:0 97:0 98:0 99:0 100:0 101:0 102:0 103:0 104:0 105:0 106:0 107:0 108:0 109:0 110:0 111:0 112:0 113:0 114:0 115:0 116:0 117:0 118:0 119:0 120:0 121:27 122:0 123:24 124:36 125:22 126:21 127:14 128:7 129:0 130:0 131:0 132:17 133:0 134:0 135:0 136:0 137:0 138:0 139:0 140:0 141:0 142:0 143:0 144:0 145:2 146:0 147:0 148:0 149:5 150:7 151:5 152:0 153:0 154:0 155:0 156:0 157:0 158:0 159:0 160:0 161:12 162:14 163:37 164:0 165:0 166:18 167:0 168:0 169:0 170:0 171:0 172:0 173:0 174:0 175:0 176:0 177:0 178:0 179:0 180:0 181:0 182:0 183:0 184:0 185:0 186:0 187:0 188:0 189:0 190:0 191:0 192:0 
1 1 1:0 2:0 3:0 4:26 5:47 6:33 7:49 8:24 9:0 10:0 11:0 12:0 13:0 14:0 15:0 16:0 17:6 18:20 19:44 20:19 21:25 22:20 23:0 24:0 25:0 26:0 27:0 28:0 29:0 30:0 31:0 32:0 33:5 34:3 35:0 36:0 37:4 38:0 39:2 40:10 41:13 42:0 43:23 44:28 45:9 46:0 47:0 48:0 49:0 50:0 51:0 52:0 53:0 54:0 55:0 56:0 57:0 58:0 59:0 60:0 61:0 62:0 63:0 64:0 65:0 66:0 67:0 68:0 69:0 70:0 71:0 72:0 73:0 74:0 75:0 76:0 77:0 78:0 79:0 80:0 81:0 82:0 83:0 84:0 85:0 86:0 87:0 88:0 89:0 90:0 91:0 92:0 93:0 94:0 95:0 96:0 97:0 98:0 99:0 100:0 101:0 102:0 103:0 104:0 105:0 106:0 107:0 108:0 109:0 110:0 111:0 112:0 113:0 114:0 115:0 116:0 117:0 118:0 119:0 120:0 121:35 122:5 123:51 124:54 125:31 126:33 127:18 128:9 129:0 130:0 131:0 132:20 133:0 134:0 135:0 136:0 137:0 138:0 139:0 140:0 141:0 142:0 143:0 144:0 145:7 146:0 147:1 148:2 149:10 150:16 151:14 152:0 153:0 154:0 155:0 156:0 157:6 158:0 159:0 160:0 161:28 162:32 163:54 164:7 165:0 166:35 167:4 168:5 169:0 170:16 171:0 172:12 173:21 174:0 175:0 176:0 177:0 178:12 179:8 180:7 181:0 182:0 183:0 184:0 185:0 186:0 187:0 188:0 189:0 190:0 191:0 192:0 
1 1 1:0 2:0 3:38 4:53 5:62 6:52 7:67 8:49 9:0 10:0 11:0 12:11 13:0 14:0 15:0 16:0 17:13 18:30 19:59 20:35 21:40 22:32 23:8 24:0 25:4 26:0 27:0 28:0 29:0 30:0 31:0 32:0 33:11 34:8 35:4 36:0 37:8 38:0 39:8 40:21 41:24 42:0 43:44 44:42 45:17 46:0 47:0 48:6 49:0 50:0 51:0 52:0 53:0 54:0 55:0 56:0 57:0 58:0 59:0 60:0 61:0 62:0 63:0 64:0 65:0 66:0 67:0 68:0 69:0 70:0 71:0 72:0 73:0 74:0 75:0 76:0 77:0 78:0 79:0 80:0 81:0 82:0 83:0 84:0 85:0 86:0 87:0 88:0 89:0 90:0 91:0 92:0 93:0 94:0 95:0 96:0 97:0 98:0 99:0 100:0 101:0 102:0 103:0 104:0 105:0 106:4 107:0 108:0 109:0 110:0 111:0 112:0 113:0 114:0 115:0 116:0 117:0 118:0 119:0 120:0 121:43 122:11 123:59 124:63 125:35 126:37 127:17 128:11 129:0 130:0 131:0 132:23 133:3 134:9 135:0 136:0 137:0 138:0 139:0 140:0 141:0 142:8 143:0 144:0 145:7 146:0 147:4 148:4 149:18 150:29 151:24 152:0 153:0 154:5 155:0 156:0 157:10 158:0 159:0 160:3 161:43 162:46 163:61 164:12 165:0 166:42 167:7 168:7 169:4 170:27 171:0 172:20 173:35 174:9 175:8 176:11 177:9 178:20 179:10 180:9 181:0 182:0 183:0 184:0 185:0 186:0 187:0 188:0 189:0 190:0 191:0 192:0 
1 1 1:10 2:0 3:0 4:0 5:67 6:0 7:74 8:0 9:0 10:0 11:0 12:0 13:0 14:0 15:0 16:9 17:0 18:0 19:79 20:57 21:67 22:47 23:0 24:0 25:17 26:0 27:0 28:0 29:0 30:0 31:0 32:0 33:16 34:14 35:17 36:11 37:17 38:2 39:0 40:46 41:1 42:20 43:62 44:53 45:27 46:0 47:3 48:13 49:1 50:0 51:0 52:0 53:0 54:0 55:0 56:0 57:0 58:0 59:0 60:0 61:0 62:0 63:0 64:0 65:0 66:0 67:0 68:0 69:0 70:0 71:0 72:0 73:0 74:0 75:0 76:0 77:0 78:0 79:0 80:0 81:0 82:0 83:0 84:0 85:0 86:0 87:0 88:0 89:0 90:0 91:0 92:0 93:0 94:0 95:0 96:0 97:0 98:0 99:0 100:0 101:0 102:0 103:0 104:0 105:6 106:9 107:0 108:0 109:0 110:0 111:0 112:0 113:0 114:0 115:0 116:0 117:0 118:0 119:0 120:0 121:0 122:0 123:55 124:60 125:35 126:0 127:8 128:5 129:0 130:0 131:0 132:0 133:9 134:0 135:0 136:0 137:0 138:0 139:0 140:0 141:0 142:22 143:0 144:4 145:1 146:0 147:12 148:9 149:0 150:0 151:0 152:4 153:0 154:0 155:0 156:2 157:18 158:0 159:0 160:15 161:62 162:59 163:73 164:0 165:7 166:0 167:18 168:18 169:1 170:0 171:0 172:30 173:47 174:0 175:33 176:0 177:0 178:0 179:0 180:0 181:0 182:13 183:15 184:0 185:0 186:0 187:0 188:0 189:0 190:0 191:0 192:0 
1 1 1:0 2:0 3:0 4:0 5:0 6:0 7:0 8:29 9:10 10:0 11:0 12:17 13:38 14:3 15:30 16:0 17:0 18:0 19:0 20:0 21:0 22:0 23:0 24:24 25:5 26:0 27:0 28:0 29:0 30:0 31:0 32:0 33:0 34:0 35:0 36:0 37:0 38:0 39:0 40:15 41:10 42:0 43:16 44:21 45:0 46:0 47:0 48:6 49:22 50:0 51:27 52:36 53:4 54:0 55:0 56:0 57:0 58:0 59:0 60:11 61:0 62:0 63:0 64:0 65:0 66:0 67:0 68:0 69:0 70:0 71:0 72:0 73:0 74:0 75:0 76:0 77:0 78:0 79:0 80:0 81:0 82:0 83:0 84:0 85:0 86:0 87:0 88:0 89:0 90:0 91:0 92:0 93:0 94:0 95:0 96:0 97:0 98:0 99:0 100:0 101:0 102:0 103:0 104:0 105:0 106:0 107:0 108:0 109:0 110:0 111:0 112:0 113:0 114:0 115:0 116:0 117:0 118:0 119:0 120:0 121:0 122:0 123:0 124:0 125:0 126:0 127:0 128:0 129:0 130:0 131:0 132:0 133:0 134:0 135:0 136:0 137:0 138:0 139:0 140:0 141:0 142:0 143:0 144:0 145:0 146:0 147:0 148:0 149:0 150:21 151:13 152:0 153:0 154:0 155:0 156:0 157:0 158:0 159:0 160:0 161:15 162:17 163:0 164:0 165:0 166:0 167:0 168:0 169:0 170:0 171:0 172:0 173:0 174:0 175:0 176:0 177:0 178:0 179:0 180:0 181:0 182:0 183:0 184:0 185:0 186:0 187:0 188:0 189:0 190:0 191:0 192:0 
1 1 1:6 2:0 3:7 4:45 5:18 6:0 7:57 8:64 9:42 10:0 11:13 12:61 13:126 14:42 15:93 16:15 17:0 18:4 19:44 20:15 21:21 22:0 23:16 24:66 25:16 26:7 27:12 28:13 29:23 30:0 31:0 32:3 33:8 34:0 35:0 36:11 37:12 38:0 39:5 40:27 41:1 42:0 43:21 44:50 45:10 46:0 47:5 48:20 49:72 50:27 51:86 52:60 53:15 54:0 55:0 56:0 57:0 58:0 59:0 60:20 61:0 62:0 63:0 64:0 65:0 66:0 67:0 68:0 69:0 70:0 71:0 72:0 73:0 74:0 75:0 76:0 77:0 78:0 79:0 80:0 81:0 82:0 83:0 84:0 85:0 86:0 87:0 88:0 89:0 90:0 91:0 92:0 93:0 94:0 95:0 96:0 97:0 98:0 99:0 100:0 101:0 102:0 103:0 104:0 105:0 106:0 107:0 108:0 109:0 110:0 111:0 112:0 113:0 114:0 115:0 116:0 117:0 118:0 119:0 120:0 121:0 122:0 123:0 124:0 125:0 126:0 127:0 128:0 129:0 130:0 131:0 132:0 133:0 134:0 135:0 136:0 137:0 138:0 139:0 140:0 141:0 142:0 143:0 144:0 145:9 146:0 147:7 148:5 149:5 150:64 151:43 152:0 153:0 154:0 155:0 156:2 157:0 158:0 159:0 160:0 161:82 162:56 163:17 164:0 165:0 166:0 167:0 168:0 169:0 170:0 171:0 172:0 173:30 174:30 175:52 176:0 177:0 178:0 179:0 180:0 181:0 182:0 183:0 184:18 185:49 186:34 187:20 188:11 189:0 190:0 191:0 192:0 
0 0.6998798423567616 1:0 2:0 3:0 4:65 5:0 6:0 7:0 8:71 9:57 10:0 11:0 12:83 13:142 14:84 15:105 16:0 17:0 18:0 19:68 20:0 21:0 22:0 23:0 24:0 25:20 26:0 27:0 28:0 29:0 30:0 31:0 32:0 33:14 34:0 35:4 36:13 37:17 38:5 39:13 40:37 41:5 42:0 43:0 44:65 45:0 46:0 47:13 48:25 49:83 50:57 51:102 52:59 53:0 54:0 55:0 56:0 57:0 58:0 59:0 60:0 61:0 62:0 63:0 64:0 65:0 66:0 67:0 68:0 69:0 70:0 71:0 72:0 73:0 74:0 75:0 76:0 77:0 78:0 79:0 80:0 81:0 82:0 83:0 84:0 85:0 86:0 87:0 88:0 89:0 90:0 91:0 92:0 93:0 94:0 95:0 96:0 97:0 98:0 99:0 100:0 101:0 102:0 103:0 104:0 105:0 106:0 107:0 108:0 109:0 110:0 111:0 112:0 113:0 114:0 115:0 116:0 117:0 118:0 119:0 120:0 121:61 122:62 123:88 124:26 125:0 126:0 127:0 128:0 129:0 130:0 131:0 132:0 133:6 134:2 135:0 136:0 137:0 138:0 139:0 140:0 141:0 142:0 143:0 144:0 145:19 146:0 147:13 148:0 149:0 150:84 151:0 152:0 153:12 154:0 155:5 156:10 157:108 158:2 159:0 160:11 161:124 162:77 163:2 164:0 165:0 166:0 167:0 168:0 169:0 170:0 171:0 172:0 173:36 174:0 175:0 176:4 177:0 178:0 179:0 180:0 181:0 182:0 183:0 184:0 185:0 186:0 187:0 188:0 189:0 190:0 191:0 192:0 
1 1 1:0 2:0 3:0 4:0 5:0 6:0 7:0 8:0 9:0 10:0 11:0 12:0 13:0 14:0 15:0 16:0 17:0 18:0 19:0 20:0 21:0 22:0 23:0 24:0 25:0 26:0 27:0 28:0 29:0 30:0 31:0 32:0 33:0 34:0 35:0 36:0 37:0 38:0 39:5 40:0 41:41 42:16 43:16 44:0 45:0 46:0 47:0 48:0 49:55 50:0 51:60 52:15 53:44 54:12 55:9 56:12 57:0 58:0 59:0 60:0 61:0 62:0 63:0 64:0 65:0 66:0 67:0 68:0 69:0 70:0 71:0 72:0 73:0 74:0 75:0 76:0 77:0 78:0 79:0 80:0 81:0 82:0 83:0 84:0 85:0 86:0 87:0 88:0 89:0 90:0 91:0 92:0 93:0 94:0 95:0 96:0 97:0 98:0 99:0 100:0 101:0 102:0 103:0 104:0 105:0 106:0 107:0 108:0 109:0 110:0 111:0 112:0 113:0 114:0 115:0 116:0 117:0 118:0 119:0 120:0 121:0 122:0 123:0 124:0 125:0 126:0 127:0 128:0 129:0 130:0 131:0 132:0 133:0 134:0 135:0 136:0 137:0 138:0 139:0 140:0 141:0 142:0 143:0 144:0 145:0 146:0 147:0 148:0 149:0 150:0 151:0 152:0 153:0 154:0 155:0 156:0 157:0 158:0 159:0 160:0 161:0 162:0 163:0 164:0 165:0 166:0 167:0 168:0 169:0 170:0 171:0 172:0 173:0 174:0 175:0 176:0 177:0 178:0 179:0 180:0 181:0 182:0 183:0 184:0 185:0 186:0 187:0 188:0 189:0 190:0 191:0 192:0 
1 1 1:0 2:0 3:0 4:0 5:0 6:0 7:0 8:0 9:0 10:0 11:0 12:0 13:0 14:0 15:0 16:0 17:0 18:0 19:0 20:0 21:0 22:0 23:0 24:0 25:0 26:0 27:0 28:0 29:0 30:0 31:0 32:0 33:0 34:0 35:0 36:0 37:0 38:0 39:0 40:0 41:0 42:0 43:0 44:0 45:0 46:0 47:0 48:0 49:0 50:0 51:0 52:0 53:0 54:0 55:0 56:0 57:0 58:0 59:0 60:0 61:0 62:0 63:0 64:0 65:0 66:0 67:0 68:0 69:0 70:0 71:0 72:0 73:0 74:0 75:0 76:0 77:0 78:0 79:0 80:0 81:0 82:0 83:0 84:0 85:18 86:22 87:0 88:0 89:0 90:0 91:0 92:51 93:64 94:57 95:60 96:73 97:0 98:0 99:0 100:0 101:19 102:50 103:0 104:0 105:0 106:0 107:0 108:0 109:0 110:0 111:0 112:0 113:0 114:0 115:0 116:0 117:0 118:0 119:0 120:0 121:11 122:33 123:24 124:0 125:0 126:0 127:0 128:0 129:0 130:0 131:0 132:0 133:0 134:0 135:0 136:0 137:0 138:0 139:0 140:0 141:17 142:3 143:0 144:0 145:0 146:0 147:0 148:0 149:0 150:0 151:0 152:0 153:0 154:0 155:0 156:0 157:19 158:16 159:6 160:16 161:0 162:0 163:0 164:0 165:0 166:0 167:0 168:10 169:0 170:0 171:0 172:0 173:0 174:0 175:0 176:0 177:0 178:0 179:0 180:0 181:0 182:0 183:0 184:0 185:0 186:0 187:0 188:0 189:0 190:0 191:0 192:0 
0 1 1:0 2:73 3:77 4:0 5:0 6:0 7:80 8:0 9:0 10:0 11:0 12:0 13:0 14:0 15:0 16:0 17:0 18:0 19:0 20:0 21:0 22:0 23:0 24:0 25:26 26:5 27:0 28:0 29:0 30:53 31:0 32:0 33:0 34:0 35:0 36:0 37:10 38:0 39:0 40:0 41:0 42:59 43:0 44:0 45:0 46:0 47:0 48:0 49:0 50:0 51:0 52:0 53:0 54:0 55:0 56:0 57:0 58:0 59:0 60:0 61:0 62:29 63:41 64:0 65:0 66:0 67:0 68:45 69:0 70:0 71:70 72:59 73:0 74:0 75:0 76:0 77:0 78:75 79:79 80:0 81:0 82:0 83:0 84:0 85:105 86:67 87:61 88:70 89:0 90:0 91:0 92:99 93:83 94:68 95:70 96:83 97:0 98:0 99:0 100:0 101:82 102:77 103:0 104:0 105:6 106:0 107:3 108:0 109:0 110:0 111:0 112:0 113:0 114:0 115:0 116:0 117:0 118:0 119:0 120:0 121:69 122:83 123:81 124:0 125:0 126:0 127:0 128:0 129:0 130:0 131:0 132:0 133:22 134:0 135:0 136:0 137:79 138:0 139:0 140:45 141:0 142:0 143:60 144:0 145:9 146:0 147:4 148:0 149:0 150:0 151:0 152:10 153:0 154:0 155:0 156:0 157:84 158:81 159:106 160:118 161:73 162:0 163:0 164:67 165:0 166:0 167:0 168:58 169:0 170:0 171:0 172:0 173:0 174:0 175:0 176:0 177:0 178:0 179:0 180:0 181:0 182:0 183:0 184:0 185:0 186:0 187:0 188:0 189:0 190:0 191:0 192:0 
1 1 1:0 2:0 3:0 4:0 5:0 6:0 7:0 8:0 9:0 10:0 11:0 12:0 13:0 14:0 15:0 16:0 17:0 18:0 19:0 20:0 21:0 22:0 23:0 24:0 25:0 26:0 27:0 28:0 29:0 30:0 31:0 32:0 33:0 34:0 35:0 36:0 37:0 38:0 39:0 40:0 41:0 42:0 43:0 44:0 45:0 46:0 47:0 48:0 49:0 50:0 51:0 52:0 53:0 54:0 55:0 56:0 57:0 58:0 59:0 60:0 61:0 62:0 63:0 64:0 65:0 66:0 67:0 68:0 69:0 70:0 71:0 72:0 73:0 74:0 75:0 76:16 77:25 78:18 79:71 80:48 81:53 82:27 83:27 84:40 85:0 86:0 87:0 88:0 89:0 90:0 91:0 92:0 93:0 94:0 95:0 96:0 97:0 98:0 99:0 100:0 101:0 102:0 103:0 104:0 105:0 106:0 107:0 108:0 109:17 110:0 111:0 112:0 113:0 114:0 115:0 116:0 117:0 118:1 119:0 120:4 121:0 122:0 123:0 124:0 125:0 126:0 127:0 128:0 129:0 130:0 131:0 132:0 133:0 134:0 135:0 136:0 137:0 138:0 139:0 140:0 141:0 142:0 143:0 144:0 145:0 146:0 147:0 148:0 149:0 150:0 151:0 152:6 153:0 154:0 155:0 156:0 157:0 158:0 159:0 160:0 161:0 162:0 163:0 164:0 165:0 166:0 167:0 168:0 169:0 170:0 171:0 172:0 173:0 174:0 175:0 176:0 177:0 178:0 179:0 180:0 181:0 182:0 183:0 184:0 185:0 186:0 187:0 188:0 189:0 190:0 191:0 192:0 
0 1 1:0 2:0 3:0 4:7 5:6 6:7 7:42 8:65 9:48 10:25 11:61 12:42 13:6 14:7 15:0 16:0 17:0 18:0 19:0 20:0 21:0 22:0 23:0 24:0 25:63 26:7 27:0 28:0 29:0 30:0 31:0 32:0 33:0 34:0 35:0 36:0 37:32 38:20 39:20 40:5 41:14 42:0 43:10 44:17 45:19 46:5 47:7 48:13 49:0 50:0 51:0 52:0 53:9 54:0 55:0 56:0 57:0 58:0 59:0 60:0 61:0 62:0 63:0 64:0 65:14 66:14 67:16 68:0 69:9 70:0 71:0 72:0 73:65 74:39 75:25 76:47 77:24 78:19 79:25 80:27 81:31 82:11 83:16 84:52 85:21 86:0 87:0 88:6 89:0 90:0 91:0 92:72 93:69 94:60 95:80 96:75 97:0 98:0 99:5 100:21 101:41 102:14 103:11 104:23 105:11 106:0 107:0 108:6 109:89 110:84 111:109 112:84 113:31 114:7 115:75 116:99 117:72 118:32 119:58 120:63 121:0 122:0 123:0 124:0 125:0 126:0 127:0 128:0 129:80 130:85 131:59 132:0 133:0 134:0 135:0 136:0 137:0 138:77 139:0 140:0 141:0 142:0 143:0 144:0 145:142 146:0 147:92 148:73 149:3 150:0 151:29 152:115 153:138 154:47 155:47 156:76 157:0 158:0 159:0 160:0 161:0 162:0 163:0 164:0 165:0 166:0 167:0 168:0 169:0 170:0 171:0 172:0 173:0 174:0 175:0 176:0 177:0 178:0 179:0 180:0 181:0 182:0 183:0 184:0 185:0 186:0 187:0 188:0 189:0 190:0 191:0 192:0 
0 1 1:0 2:0 3:0 4:24 5:39 6:31 7:47 8:56 9:18 10:0 11:11 12:35 13:0 14:0 15:0 16:0 17:0 18:0 19:0 20:0 21:0 22:0 23:0 24:0 25:0 26:0 27:0 28:0 29:0 30:0 31:0 32:0 33:0 34:0 35:0 36:0 37:34 38:0 39:20 40:12 41:5 42:0 43:0 44:0 45:0 46:0 47:0 48:14 49:0 50:0 51:0 52:0 53:0 54:0 55:0 56:0 57:0 58:0 59:0 60:0 61:0 62:0 63:0 64:0 65:0 66:0 67:0 68:0 69:0 70:20 71:0 72:0 73:9 74:16 75:0 76:18 77:33 78:17 79:65 80:22 81:43 82:45 83:31 84:27 85:81 86:9 87:9 88:0 89:12 90:64 91:84 92:31 93:48 94:0 95:13 96:51 97:18 98:0 99:8 100:0 101:0 102:0 103:0 104:0 105:0 106:0 107:7 108:6 109:0 110:0 111:0 112:0 113:0 114:0 115:0 116:0 117:0 118:16 119:0 120:0 121:46 122:83 123:17 124:0 125:0 126:0 127:0 128:0 129:0 130:0 131:0 132:0 133:42 134:74 135:34 136:0 137:0 138:0 139:0 140:28 141:55 142:85 143:88 144:76 145:0 146:0 147:0 148:0 149:0 150:0 151:0 152:22 153:141 154:76 155:41 156:17 157:5 158:102 159:75 160:0 161:0 162:0 163:0 164:0 165:0 166:0 167:0 168:0 169:0 170:0 171:0 172:0 173:0 174:0 175:0 176:0 177:0 178:0 179:0 180:0 181:0 182:0 183:0 184:0 185:0 186:0 187:0 188:0 189:0 190:0 191:0 192:0 
1 1 1:3 2:0 3:0 4:0 5:0 6:35 7:50 8:58 9:0 10:0 11:0 12:0 13:1 14:0 15:0 16:0 17:0 18:0 19:0 20:0 21:0 22:0 23:0 24:0 25:0 26:0 27:0 28:0 29:0 30:0 31:0 32:0 33:0 34:0 35:0 36:0 37:0 38:10 39:0 40:18 41:0 42:0 43:0 44:0 45:0 46:0 47:0 48:0 49:0 50:0 51:0 52:0 53:0 54:0 55:0 56:0 57:0 58:0 59:0 60:0 61:0 62:0 63:0 64:0 65:0 66:0 67:0 68:0 69:0 70:0 71:0 72:0 73:0 74:0 75:0 76:0 77:0 78:0 79:63 80:23 81:42 82:0 83:0 84:0 85:96 86:0 87:0 88:0 89:0 90:48 91:70 92:0 93:0 94:0 95:0 96:0 97:27 98:0 99:0 100:0 101:0 102:0 103:0 104:0 105:0 106:0 107:0 108:0 109:0 110:0 111:0 112:0 113:0 114:0 115:0 116:0 117:0 118:0 119:0 120:0 121:0 122:77 123:0 124:0 125:0 126:0 127:0 128:0 129:0 130:0 131:0 132:0 133:0 134:75 135:0 136:0 137:0 138:0 139:0 140:0 141:0 142:77 143:73 144:0 145:0 146:0 147:0 148:0 149:0 150:0 151:0 152:0 153:87 154:67 155:0 156:0 157:10 158:105 159:73 160:0 161:0 162:0 163:0 164:0 165:0 166:0 167:0 168:0 169:0 170:0 171:0 172:0 173:0 174:0 175:0 176:0 177:0 178:0 179:0 180:0 181:0 182:0 183:0 184:0 185:0 186:0 187:0 188:0 189:0 190:0 191:0 192:0 
1 1 1:0 2:0 3:0 4:0 5:0 6:0 7:0 8:0 9:0 10:0 11:0 12:0 13:0 14:0 15:0 16:0 17:0 18:0 19:0 20:0 21:14 22:25 23:4 24:0 25:0 26:0 27:0 28:0 29:0 30:0 31:0 32:0 33:0 34:0 35:0 36:0 37:0 38:0 39:0 40:0 41:0 42:0 43:0 44:0 45:0 46:0 47:0 48:0 49:0 50:0 51:0 52:0 53:0 54:0 55:0 56:0 57:0 58:0 59:0 60:0 61:0 62:0 63:0 64:0 65:0 66:0 67:0 68:0 69:0 70:19 71:13 72:0 73:0 74:0 75:0 76:0 77:0 78:0 79:0 80:0 81:0 82:0 83:0 84:0 85:0 86:0 87:0 88:0 89:5 90:0 91:0 92:35 93:20 94:0 95:0 96:0 97:0 98:0 99:0 100:0 101:0 102:0 103:0 104:0 105:0 106:0 107:0 108:0 109:0 110:0 111:0 112:0 113:0 114:0 115:0 116:0 117:0 118:0 119:0 120:0 121:24 122:0 123:11 124:0 125:0 126:0 127:0 128:0 129:0 130:0 131:0 132:0 133:0 134:0 135:0 136:0 137:0 138:0 139:0 140:27 141:3 142:0 143:0 144:2 145:0 146:0 147:0 148:0 149:0 150:0 151:0 152:0 153:0 154:0 155:0 156:0 157:68 158:102 159:140 160:26 161:0 162:0 163:0 164:0 165:0 166:0 167:0 168:16 169:0 170:0 171:0 172:0 173:0 174:0 175:0 176:0 177:0 178:0 179:0 180:0 181:0 182:0 183:0 184:0 185:0 186:0 187:0 188:0 189:0 190:0 191:0 192:0 
1 1 1:0 2:0 3:0 4:0 5:0 6:24 7:0 8:0 9:0 10:0 11:0 12:0 13:0 14:0 15:0 16:0 17:0 18:0 19:0 20:0 21:0 22:0 23:0 24:0 25:4 26:0 27:0 28:0 29:0 30:0 31:6 32:0 33:0 34:0 35:0 36:0 37:0 38:0 39:0 40:8 41:32 42:0 43:0 44:0 45:0 46:0 47:0 48:0 49:0 50:0 51:0 52:0 53:0 54:0 55:0 56:0 57:17 58:12 59:0 60:0 61:0 62:0 63:16 64:22 65:50 66:41 67:38 68:30 69:51 70:39 71:58 72:33 73:9 74:30 75:13 76:0 77:0 78:0 79:0 80:0 81:0 82:0 83:0 84:0 85:0 86:0 87:0 88:0 89:0 90:0 91:0 92:0 93:0 94:0 95:0 96:0 97:8 98:0 99:27 100:21 101:37 102:8 103:25 104:12 105:4 106:0 107:0 108:11 109:0 110:0 111:25 112:0 113:0 114:0 115:0 116:0 117:0 118:0 119:0 120:0 121:22 122:8 123:28 124:20 125:31 126:17 127:25 128:57 129:87 130:73 131:75 132:50 133:13 134:0 135:30 136:54 137:65 138:21 139:36 140:32 141:7 142:2 143:13 144:22 145:0 146:0 147:0 148:0 149:0 150:0 151:0 152:0 153:0 154:0 155:0 156:0 157:89 158:18 159:33 160:50 161:53 162:38 163:63 164:60 165:43 166:41 167:63 168:76 169:0 170:0 171:0 172:0 173:0 174:0 175:0 176:0 177:0 178:0 179:0 180:0 181:0 182:0 183:0 184:0 185:0 186:0 187:0 188:0 189:0 190:0 191:0 192:0 
1 1 1:0 2:0 3:0 4:0 5:0 6:0 7:0 8:0 9:0 10:0 11:0 12:0 13:14 14:0 15:17 16:73 17:50 18:9 19:51 20:100 21:84 22:57 23:92 24:110 25:0 26:0 27:0 28:0 29:24 30:23 31:0 32:0 33:0 34:0 35:0 36:0 37:2 38:0 39:2 40:0 41:0 42:0 43:0 44:0 45:0 46:0 47:0 48:0 49:0 50:0 51:0 52:33 53:17 54:0 55:0 56:23 57:13 58:0 59:38 60:72 61:0 62:0 63:0 64:40 65:38 66:0 67:36 68:46 69:26 70:0 71:0 72:12 73:49 74:18 75:52 76:52 77:26 78:0 79:0 80:0 81:0 82:0 83:0 84:32 85:0 86:0 87:0 88:0 89:0 90:0 91:0 92:0 93:0 94:0 95:0 96:0 97:0 98:0 99:0 100:0 101:0 102:0 103:0 104:0 105:4 106:7 107:5 108:0 109:0 110:0 111:0 112:0 113:0 114:0 115:0 116:0 117:0 118:0 119:0 120:0 121:0 122:0 123:0 124:0 125:0 126:0 127:0 128:18 129:51 130:40 131:40 132:20 133:0 134:0 135:0 136:9 137:0 138:0 139:0 140:10 141:0 142:0 143:0 144:20 145:0 146:0 147:0 148:0 149:0 150:0 151:0 152:0 153:0 154:0 155:0 156:0 157:26 158:0 159:0 160:4 161:0 162:0 163:0 164:2 165:23 166:31 167:20 168:13 169:3 170:6 171:3 172:8 173:17 174:0 175:0 176:0 177:0 178:0 179:9 180:9 181:0 182:0 183:0 184:0 185:0 186:0 187:0 188:0 189:0 190:0 191:0 192:0 
0 0.318605735953962 1:0 2:0 3:0 4:0 5:0 6:0 7:0 8:0 9:0 10:0 11:0 12:0 13:124 14:24 15:113 16:136 17:140 18:74 19:115 20:127 21:117 22:103 23:109 24:132 25:8 26:0 27:0 28:7 29:81 30:78 31:0 32:0 33:7 34:0 35:0 36:0 37:16 38:5 39:10 40:13 41:0 42:0 43:0 44:2 45:0 46:0 47:0 48:5 49:88 50:0 51:86 52:97 53:77 54:20 55:0 56:97 57:108 58:0 59:110 60:91 61:19 62:0 63:0 64:77 65:78 66:0 67:0 68:60 69:0 70:0 71:0 72:39 73:41 74:41 75:65 76:56 77:0 78:0 79:0 80:0 81:0 82:0 83:0 84:0 85:0 86:0 87:0 88:0 89:0 90:0 91:0 92:0 93:0 94:0 95:0 96:0 97:0 98:0 99:0 100:0 101:0 102:0 103:0 104:5 105:10 106:11 107:7 108:0 109:0 110:0 111:20 112:21 113:51 114:0 115:0 116:0 117:0 118:0 119:0 120:0 121:8 122:0 123:0 124:20 125:10 126:0 127:0 128:56 129:75 130:48 131:55 132:0 133:42 134:0 135:0 136:45 137:43 138:0 139:0 140:0 141:13 142:0 143:0 144:0 145:0 146:0 147:0 148:0 149:0 150:0 151:0 152:0 153:0 154:0 155:0 156:0 157:65 158:0 159:55 160:0 161:0 162:25 163:0 164:0 165:44 166:39 167:32 168:0 169:0 170:0 171:1 172:32 173:45 174:15 175:0 176:0 177:0 178:0 179:0 180:17 181:0 182:0 183:0 184:0 185:0 186:0 187:0 188:0 189:0 190:0 191:0 192:0 
0 1 1:0 2:0 3:0 4:0 5:0 6:0 7:0 8:0 9:0 10:0 11:0 12:0 13:107 14:0 15:98 16:127 17:132 18:62 19:110 20:120 21:112 22:95 23:102 24:122 25:4 26:0 27:0 28:0 29:70 30:67 31:0 32:0 33:0 34:0 35:0 36:0 37:12 38:2 39:7 40:0 41:0 42:0 43:0 44:0 45:0 46:0 47:0 48:0 49:77 50:0 51:0 52:91 53:0 54:0 55:0 56:78 57:61 58:0 59:88 60:78 61:15 62:0 63:0 64:71 65:0 66:0 67:0 68:58 69:0 70:0 71:0 72:0 73:33 74:37 75:0 76:0 77:0 78:0 79:0 80:0 81:0 82:0 83:0 84:0 85:0 86:0 87:0 88:0 89:0 90:0 91:0 92:0 93:0 94:0 95:0 96:0 97:0 98:0 99:0 100:0 101:0 102:0 103:0 104:0 105:7 106:9 107:5 108:0 109:0 110:0 111:20 112:21 113:51 114:0 115:0 116:0 117:0 118:0 119:0 120:0 121:8 122:0 123:0 124:20 125:10 126:0 127:0 128:56 129:75 130:48 131:55 132:0 133:42 134:0 135:0 136:45 137:43 138:0 139:0 140:0 141:13 142:0 143:0 144:0 145:0 146:0 147:0 148:0 149:0 150:0 151:0 152:0 153:0 154:0 155:0 156:0 157:65 158:0 159:55 160:0 161:0 162:25 163:0 164:0 165:44 166:39 167:32 168:0 169:0 170:0 171:1 172:32 173:45 174:15 175:0 176:0 177:0 178:0 179:0 180:17 181:0 182:0 183:0 184:0 185:0 186:0 187:0 188:0 189:0 190:0 191:0 192:0 
1 1 1:0 2:0 3:0 4:0 5:0 6:0 7:0 8:0 9:0 10:0 11:0 12:0 13:69 14:0 15:0 16:114 17:111 18:0 19:91 20:106 21:98 22:76 23:85 24:93 25:0 26:0 27:0 28:0 29:0 30:0 31:0 32:0 33:0 34:0 35:0 36:0 37:0 38:0 39:4 40:0 41:0 42:0 43:0 44:0 45:0 46:0 47:0 48:0 49:0 50:0 51:0 52:0 53:0 54:0 55:0 56:0 57:0 58:0 59:0 60:0 61:0 62:0 63:0 64:0 65:0 66:0 67:0 68:0 69:0 70:0 71:0 72:0 73:27 74:0 75:0 76:0 77:0 78:0 79:0 80:0 81:0 82:0 83:0 84:0 85:0 86:0 87:0 88:0 89:0 90:0 91:0 92:0 93:0 94:0 95:0 96:0 97:0 98:0 99:0 100:0 101:0 102:0 103:0 104:0 105:0 106:0 107:0 108:0 109:0 110:0 111:20 112:17 113:0 114:0 115:0 116:0 117:0 118:0 119:0 120:0 121:5 122:0 123:0 124:0 125:0 126:0 127:0 128:0 129:67 130:0 131:45 132:0 133:0 134:0 135:0 136:42 137:0 138:0 139:0 140:0 141:0 142:0 143:0 144:0 145:0 146:0 147:0 148:0 149:0 150:0 151:0 152:0 153:0 154:0 155:0 156:0 157:46 158:0 159:0 160:0 161:0 162:0 163:0 164:0 165:0 166:35 167:14 168:0 169:0 170:0 171:0 172:0 173:0 174:0 175:0 176:0 177:0 178:0 179:0 180:0 181:0 182:0 183:0 184:0 185:0 186:0 187:0 188:0 189:0 190:0 191:0 192:0 
1 1 1:0 2:0 3:0 4:0 5:0 6:0 7:0 8:0 9:0 10:0 11:0 12:0 13:0 14:0 15:0 16:0 17:0 18:0 19:66 20:94 21:93 22:74 23:58 24:0 25:0 26:0 27:0 28:0 29:0 30:0 31:0 32:0 33:0 34:0 35:0 36:0 37:0 38:0 39:0 40:0 41:0 42:0 43:0 44:0 45:0 46:0 47:0 48:0 49:0 50:0 51:0 52:0 53:0 54:0 55:0 56:0 57:0 58:0 59:0 60:0 61:0 62:0 63:0 64:0 65:0 66:0 67:0 68:0 69:0 70:0 71:0 72:0 73:0 74:0 75:0 76:0 77:0 78:0 79:0 80:0 81:0 82:0 83:0 84:0 85:0 86:0 87:0 88:0 89:0 90:0 91:0 92:0 93:0 94:0 95:0 96:0 97:0 98:0 99:0 100:0 101:0 102:0 103:0 104:0 105:0 106:0 107:0 108:0 109:0 110:0 111:0 112:0 113:0 114:0 115:0 116:0 117:0 118:0 119:0 120:0 121:2 122:0 123:0 124:0 125:0 126:0 127:0 128:0 129:0 130:0 131:0 132:0 133:0 134:0 135:0 136:0 137:0 138:0 139:0 140:0 141:0 142:0 143:0 144:0 145:0 146:0 147:0 148:0 149:0 150:0 151:0 152:0 153:0 154:0 155:0 156:0 157:0 158:0 159:0 160:0 161:0 162:0 163:0 164:0 165:0 166:0 167:0 168:0 169:0 170:0 171:0 172:0 173:0 174:0 175:0 176:0 177:0 178:0 179:0 180:0 181:0 182:0 183:0 184:0 185:0 186:0 187:0 188:0 189:0 190:0 191:0 192:0 
1 1 1:0 2:0 3:0 4:0 5:0 6:0 7:0 8:0 9:0 10:0 11:0 12:0 13:0 14:0 15:0 16:0 17:0 18:0 19:0 20:0 21:0 22:0 23:0 24:0 25:0 26:0 27:0 28:0 29:0 30:0 31:0 32:0 33:0 34:0 35:0 36:0 37:0 38:0 39:0 40:0 41:0 42:0 43:0 44:0 45:0 46:0 47:0 48:0 49:0 50:0 51:0 52:0 53:0 54:0 55:0 56:0 57:0 58:0 59:0 60:0 61:0 62:0 63:0 64:0 65:0 66:0 67:0 68:0 69:0 70:0 71:0 72:0 73:0 74:0 75:0 76:0 77:0 78:0 79:0 80:0 81:0 82:0 83:0 84:0 85:0 86:0 87:0 88:0 89:0 90:0 91:0 92:0 93:0 94:0 95:0 96:0 97:0 98:0 99:0 100:0 101:0 102:0 103:0 104:0 105:0 106:0 107:0 108:0 109:45 110:46 111:82 112:77 113:57 114:7 115:0 116:0 117:0 118:0 119:0 120:27 121:0 122:0 123:0 124:12 125:22 126:19 127:67 128:32 129:56 130:24 131:0 132:0 133:0 134:0 135:0 136:0 137:0 138:0 139:0 140:0 141:0 142:0 143:0 144:0 145:0 146:0 147:0 148:0 149:0 150:0 151:0 152:0 153:0 154:0 155:0 156:0 157:0 158:0 159:0 160:0 161:0 162:0 163:9 164:15 165:19 166:0 167:15 168:6 169:0 170:0 171:0 172:0 173:0 174:0 175:0 176:0 177:0 178:0 179:0 180:0 181:0 182:0 183:0 184:0 185:0 186:0 187:0 188:0 189:0 190:0 191:0 192:0 
1 1 1:0 2:0 3:0 4:0 5:17 6:38 7:23 8:0 9:10 10:42 11:8 12:0 13:0 14:0 15:0 16:0 17:0 18:0 19:0 20:0 21:0 22:0 23:0 24:0 25:0 26:0 27:0 28:0 29:0 30:0 31:0 32:0 33:0 34:0 35:0 36:0 37:0 38:0 39:0 40:0 41:0 42:0 43:0 44:0 45:0 46:0 47:0 48:0 49:0 50:0 51:0 52:0 53:0 54:0 55:0 56:0 57:0 58:0 59:0 60:0 61:0 62:0 63:0 64:0 65:0 66:0 67:0 68:0 69:0 70:0 71:0 72:0 73:0 74:0 75:0 76:0 77:0 78:0 79:0 80:0 81:0 82:0 83:0 84:22 85:0 86:0 87:0 88:0 89:0 90:0 91:0 92:0 93:0 94:0 95:0 96:0 97:0 98:0 99:0 100:0 101:0 102:0 103:0 104:0 105:0 106:0 107:0 108:0 109:0 110:49 111:66 112:0 113:0 114:0 115:7 116:9 117:39 118:13 119:20 120:0 121:8 122:0 123:18 124:37 125:16 126:9 127:20 128:43 129:76 130:54 131:18 132:23 133:0 134:0 135:0 136:0 137:0 138:0 139:0 140:0 141:0 142:0 143:0 144:0 145:0 146:0 147:0 148:0 149:22 150:20 151:62 152:63 153:36 154:11 155:18 156:20 157:12 158:0 159:10 160:41 161:77 162:28 163:35 164:37 165:15 166:5 167:26 168:34 169:0 170:0 171:0 172:0 173:0 174:0 175:0 176:0 177:0 178:0 179:0 180:0 181:0 182:0 183:0 184:0 185:0 186:0 187:0 188:0 189:0 190:0 191:0 192:0 
1 1 1:0 2:0 3:0 4:0 5:0 6:31 7:0 8:0 9:0 10:0 11:0 12:0 13:0 14:0 15:0 16:0 17:0 18:0 19:0 20:0 21:13 22:18 23:22 24:15 25:13 26:0 27:13 28:36 29:22 30:17 31:28 32:72 33:68 34:80 35:50 36:53 37:0 38:0 39:0 40:0 41:0 42:0 43:0 44:0 45:0 46:0 47:0 48:0 49:0 50:0 51:0 52:0 53:0 54:0 55:0 56:0 57:0 58:0 59:0 60:0 61:0 62:0 63:0 64:0 65:0 66:0 67:0 68:0 69:0 70:37 71:0 72:0 73:0 74:26 75:0 76:0 77:0 78:0 79:0 80:0 81:0 82:0 83:0 84:0 85:0 86:0 87:0 88:0 89:0 90:0 91:0 92:0 93:0 94:0 95:0 96:0 97:0 98:0 99:0 100:0 101:0 102:0 103:0 104:0 105:0 106:0 107:0 108:0 109:0 110:0 111:0 112:0 113:0 114:0 115:0 116:0 117:0 118:0 119:0 120:0 121:3 122:0 123:0 124:1 125:0 126:0 127:0 128:0 129:0 130:0 131:0 132:11 133:0 134:0 135:0 136:0 137:0 138:0 139:0 140:0 141:0 142:0 143:0 144:0 145:0 146:0 147:0 148:0 149:4 150:6 151:17 152:25 153:27 154:12 155:13 156:14 157:6 158:5 159:7 160:12 161:18 162:9 163:12 164:22 165:22 166:14 167:20 168:22 169:0 170:0 171:0 172:0 173:0 174:0 175:0 176:0 177:0 178:0 179:0 180:0 181:0 182:0 183:0 184:0 185:0 186:0 187:0 188:0 189:0 190:0 191:0 192:0 
0.1745654672768458 0 1:0 2:0 3:0 4:0 5:10 6:40 7:5 8:0 9:0 10:0 11:0 12:0 13:4 14:0 15:0 16:11 17:0 18:0 19:0 20:10 21:49 22:41 23:30 24:18 25:15 26:0 27:15 28:49 29:31 30:27 31:29 32:66 33:0 34:78 35:63 36:0 37:28 38:37 39:39 40:0 41:0 42:0 43:0 44:0 45:0 46:0 47:0 48:0 49:10 50:0 51:0 52:0 53:0 54:0 55:0 56:0 57:0 58:0 59:0 60:12 61:0 62:0 63:0 64:0 65:0 66:0 67:0 68:0 69:0 70:44 71:10 72:0 73:0 74:32 75:0 76:0 77:0 78:0 79:0 80:0 81:0 82:0 83:0 84:0 85:0 86:0 87:0 88:0 89:0 90:0 91:0 92:0 93:0 94:0 95:0 96:0 97:0 98:0 99:0 100:0 101:0 102:0 103:0 104:0 105:13 106:13 107:0 108:0 109:0 110:0 111:0 112:0 113:0 114:0 115:0 116:0 117:0 118:0 119:0 120:0 121:19 122:0 123:13 124:12 125:7 126:9 127:9 128:11 129:0 130:0 131:0 132:25 133:8 134:0 135:0 136:0 137:0 138:0 139:0 140:0 141:0 142:0 143:0 144:0 145:0 146:0 147:0 148:11 149:7 150:10 151:25 152:32 153:37 154:20 155:19 156:20 157:11 158:4 159:9 160:19 161:31 162:13 163:19 164:31 165:28 166:29 167:26 168:34 169:0 170:0 171:0 172:0 173:0 174:0 175:0 176:0 177:0 178:0 179:0 180:0 181:0 182:0 183:0 184:0 185:0 186:0 187:0 188:0 189:0 190:0 191:0 192:0 
1 1 1:0 2:0 3:0 4:0 5:0 6:51 7:0 8:0 9:0 10:0 11:0 12:0 13:4 14:2 15:3 16:0 17:0 18:0 19:0 20:0 21:0 22:0 23:0 24:14 25:11 26:0 27:20 28:49 29:27 30:19 31:0 32:3 33:0 34:0 35:0 36:0 37:29 38:39 39:49 40:0 41:0 42:0 43:0 44:0 45:0 46:0 47:0 48:0 49:13 50:0 51:0 52:0 53:0 54:0 55:0 56:0 57:0 58:0 59:0 60:0 61:0 62:0 63:0 64:0 65:0 66:0 67:0 68:0 69:0 70:0 71:0 72:0 73:0 74:48 75:0 76:0 77:0 78:0 79:0 80:0 81:0 82:0 83:0 84:0 85:0 86:0 87:0 88:0 89:0 90:0 91:0 92:0 93:0 94:0 95:0 96:0 97:0 98:0 99:0 100:0 101:0 102:0 103:0 104:0 105:25 106:25 107:0 108:0 109:0 110:0 111:0 112:0 113:0 114:0 115:0 116:0 117:0 118:0 119:0 120:0 121:27 122:9 123:26 124:23 125:16 126:0 127:20 128:18 129:0 130:0 131:3 132:27 133:16 134:2 135:14 136:7 137:0 138:0 139:0 140:0 141:0 142:0 143:0 144:2 145:0 146:0 147:0 148:0 149:0 150:0 151:0 152:0 153:0 154:0 155:0 156:0 157:21 158:8 159:16 160:0 161:69 162:0 163:0 164:36 165:35 166:0 167:33 168:40 169:0 170:0 171:7 172:0 173:0 174:0 175:0 176:0 177:0 178:0 179:0 180:0 181:0 182:0 183:0 184:0 185:0 186:0 187:0 188:0 189:0 190:0 191:0 192:0 
1 1 1:0 2:0 3:0 4:0 5:0 6:0 7:0 8:0 9:0 10:0 11:0 12:0 13:4 14:2 15:3 16:0 17:0 18:0 19:0 20:0 21:0 22:0 23:0 24:14 25:11 26:0 27:20 28:49 29:27 30:19 31:0 32:3 33:0 34:0 35:0 36:0 37:29 38:39 39:49 40:0 41:0 42:0 43:0 44:0 45:0 46:0 47:0 48:0 49:13 50:0 51:0 52:0 53:0 54:0 55:0 56:0 57:0 58:0 59:0 60:0 61:0 62:0 63:0 64:0 65:0 66:0 67:0 68:0 69:0 70:0 71:0 72:0 73:0 74:0 75:0 76:0 77:0 78:0 79:0 80:0 81:0 82:0 83:0 84:0 85:0 86:0 87:0 88:0 89:0 90:0 91:0 92:0 93:0 94:0 95:0 96:0 97:0 98:0 99:0 100:0 101:0 102:0 103:0 104:0 105:21 106:21 107:0 108:0 109:0 110:0 111:0 112:0 113:0 114:0 115:0 116:0 117:0 118:0 119:0 120:0 121:25 122:8 123:24 124:23 125:13 126:0 127:16 128:16 129:0 130:0 131:2 132:24 133:13 134:2 135:12 136:8 137:0 138:0 139:0 140:0 141:0 142:0 143:0 144:0 145:0 146:0 147:0 148:0 149:0 150:0 151:0 152:0 153:0 154:0 155:0 156:0 157:18 158:6 159:0 160:0 161:52 162:0 163:0 164:34 165:31 166:0 167:29 168:36 169:0 170:0 171:5 172:0 173:0 174:0 175:0 176:0 177:0 178:0 179:0 180:0 181:0 182:0 183:0 184:0 185:0 186:0 187:0 188:0 189:0 190:0 191:0 192:0 
1 1 1:0 2:0 3:0 4:0 5:0 6:0 7:0 8:0 9:0 10:0 11:0 12:0 13:3 14:0 15:0 16:0 17:0 18:0 19:0 20:0 21:0 22:0 23:0 24:0 25:10 26:0 27:16 28:0 29:0 30:15 31:0 32:0 33:0 34:0 35:0 36:0 37:26 38:36 39:46 40:0 41:0 42:0 43:0 44:0 45:0 46:0 47:0 48:0 49:9 50:0 51:0 52:0 53:0 54:0 55:0 56:0 57:0 58:0 59:0 60:0 61:0 62:0 63:0 64:0 65:0 66:0 67:0 68:0 69:0 70:0 71:0 72:0 73:0 74:0 75:0 76:0 77:0 78:0 79:0 80:0 81:0 82:0 83:0 84:0 85:0 86:0 87:0 88:0 89:0 90:0 91:0 92:0 93:0 94:0 95:0 96:0 97:0 98:0 99:0 100:0 101:0 102:0 103:0 104:0 105:18 106:17 107:0 108:0 109:0 110:0 111:0 112:0 113:0 114:0 115:0 116:0 117:0 118:0 119:0 120:0 121:23 122:5 123:0 124:19 125:10 126:0 127:0 128:0 129:0 130:0 131:0 132:0 133:11 134:0 135:8 136:0 137:0 138:0 139:0 140:0 141:0 142:0 143:0 144:0 145:0 146:0 147:0 148:0 149:0 150:0 151:0 152:0 153:0 154:0 155:0 156:0 157:18 158:6 159:0 160:0 161:52 162:0 163:0 164:34 165:31 166:0 167:29 168:36 169:0 170:0 171:5 172:0 173:0 174:0 175:0 176:0 177:0 178:0 179:0 180:0 181:0 182:0 183:0 184:0 185:0 186:0 187:0 188:0 189:0 190:0 191:0 192:0 
1 1 1:0 2:0 3:0 4:0 5:0 6:0 7:0 8:0 9:0 10:0 11:0 12:0 13:0 14:0 15:0 16:0 17:0 18:0 19:0 20:0 21:0 22:0 23:0 24:0 25:0 26:0 27:0 28:0 29:0 30:0 31:0 32:0 33:0 34:0 35:0 36:0 37:0 38:0 39:0 40:0 41:0 42:0 43:0 44:0 45:0 46:0 47:0 48:0 49:0 50:0 51:0 52:0 53:0 54:0 55:0 56:0 57:0 58:0 59:0 60:0 61:0 62:0 63:0 64:0 65:0 66:0 67:0 68:0 69:0 70:0 71:0 72:0 73:0 74:0 75:0 76:0 77:0 78:0 79:0 80:0 81:0 82:0 83:0 84:0 85:0 86:0 87:0 88:0 89:0 90:0 91:0 92:0 93:0 94:0 95:0 96:0 97:0 98:0 99:0 100:0 101:0 102:0 103:0 104:0 105:0 106:16 107:0 108:0 109:0 110:0 111:0 112:0 113:0 114:0 115:0 116:0 117:0 118:0 119:0 120:0 121:23 122:5 123:0 124:19 125:10 126:0 127:0 128:0 129:0 130:0 131:0 132:0 133:11 134:0 135:8 136:0 137:0 138:0 139:0 140:0 141:0 142:0 143:0 144:0 145:0 146:0 147:0 148:0 149:0 150:0 151:0 152:0 153:0 154:0 155:0 156:0 157:14 158:4 159:0 160:0 161:0 162:0 163:0 164:30 165:29 166:0 167:30 168:32 169:0 170:0 171:0 172:0 173:0 174:0 175:0 176:0 177:0 178:0 179:0 180:0 181:0 182:0 183:0 184:0 185:0 186:0 187:0 188:0 189:0 190:0 191:0 192:0 
1 1 1:0 2:0 3:0 4:0 5:3 6:0 7:0 8:0 9:0 10:0 11:0 12:0 13:0 14:0 15:0 16:0 17:0 18:0 19:0 20:0 21:0 22:0 23:0 24:0 25:0 26:0 27:0 28:0 29:0 30:0 31:0 32:0 33:0 34:38 35:27 36:0 37:0 38:0 39:0 40:0 41:0 42:0 43:0 44:0 45:0 46:0 47:0 48:0 49:0 50:0 51:0 52:0 53:0 54:0 55:0 56:0 57:0 58:0 59:0 60:0 61:0 62:0 63:0 64:0 65:0 66:0 67:0 68:0 69:0 70:0 71:0 72:0 73:0 74:0 75:0 76:0 77:0 78:0 79:0 80:0 81:0 82:0 83:0 84:0 85:0 86:0 87:0 88:0 89:0 90:0 91:0 92:0 93:0 94:0 95:0 96:0 97:0 98:0 99:0 100:0 101:0 102:0 103:0 104:0 105:0 106:0 107:0 108:0 109:0 110:0 111:0 112:0 113:0 114:0 115:0 116:0 117:0 118:0 119:0 120:0 121:0 122:0 123:0 124:19 125:16 126:7 127:6 128:5 129:0 130:0 131:0 132:3 133:0 134:0 135:0 136:0 137:0 138:0 139:0 140:0 141:0 142:0 143:0 144:0 145:0 146:0 147:0 148:0 149:0 150:3 151:0 152:0 153:0 154:0 155:0 156:0 157:1 158:3 159:0 160:2 161:4 162:1 163:2 164:27 165:29 166:6 167:28 168:30 169:0 170:0 171:0 172:0 173:0 174:0 175:0 176:0 177:0 178:0 179:0 180:0 181:0 182:0 183:0 184:0 185:0 186:0 187:0 188:0 189:0 190:0 191:0 192:0 
1 1 1:0 2:0 3:0 4:0 5:11 6:4 7:3 8:0 9:0 10:0 11:0 12:0 13:0 14:0 15:0 16:0 17:0 18:0 19:0 20:0 21:0 22:0 23:11 24:0 25:0 26:0 27:0 28:0 29:12 30:0 31:0 32:23 33:20 34:71 35:77 36:16 37:0 38:0 39:0 40:0 41:0 42:0 43:0 44:0 45:0 46:0 47:0 48:0 49:0 50:0 51:0 52:0 53:0 54:0 55:0 56:0 57:0 58:0 59:0 60:0 61:0 62:0 63:0 64:0 65:0 66:0 67:0 68:0 69:0 70:6 71:0 72:0 73:0 74:0 75:0 76:0 77:0 78:0 79:0 80:0 81:0 82:0 83:0 84:0 85:0 86:0 87:0 88:0 89:0 90:0 91:0 92:0 93:0 94:0 95:0 96:0 97:0 98:0 99:0 100:0 101:0 102:0 103:0 104:0 105:0 106:0 107:0 108:0 109:0 110:0 111:0 112:0 113:0 114:0 115:0 116:0 117:0 118:0 119:0 120:0 121:1 122:0 123:1 124:22 125:22 126:12 127:12 128:11 129:0 130:0 131:0 132:11 133:0 134:0 135:0 136:0 137:0 138:0 139:0 140:0 141:0 142:0 143:0 144:0 145:0 146:0 147:0 148:0 149:0 150:9 151:5 152:12 153:15 154:11 155:10 156:10 157:2 158:4 159:2 160:8 161:21 162:4 163:6 164:31 165:30 166:9 167:29 168:33 169:0 170:0 171:0 172:0 173:0 174:0 175:0 176:0 177:0 178:0 179:0 180:0 181:0 182:0 183:0 184:0 185:0 186:0 187:0 188:0 189:0 190:0 191:0 192:0 
1 0.06056235564338861 1:0 2:0 3:0 4:13 5:41 6:3 7:7 8:4 9:0 10:0 11:0 12:3 13:6 14:6 15:0 16:13 17:0 18:0 19:0 20:0 21:26 22:22 23:30 24:12 25:10 26:0 27:12 28:38 29:31 30:15 31:18 32:69 33:0 34:71 35:84 36:31 37:0 38:0 39:0 40:0 41:0 42:0 43:0 44:0 45:0 46:0 47:0 48:0 49:0 50:0 51:0 52:0 53:0 54:0 55:0 56:0 57:0 58:0 59:0 60:0 61:0 62:0 63:0 64:0 65:0 66:0 67:0 68:0 69:28 70:30 71:40 72:0 73:0 74:0 75:0 76:0 77:0 78:0 79:0 80:0 81:0 82:0 83:0 84:0 85:0 86:0 87:0 88:0 89:0 90:0 91:0 92:0 93:0 94:0 95:0 96:0 97:0 98:0 99:0 100:0 101:0 102:0 103:0 104:0 105:0 106:0 107:0 108:0 109:0 110:0 111:0 112:0 113:0 114:0 115:0 116:0 117:0 118:0 119:0 120:0 121:15 122:4 123:15 124:31 125:27 126:22 127:27 128:28 129:7 130:0 131:9 132:21 133:5 134:0 135:7 136:13 137:4 138:0 139:0 140:0 141:0 142:0 143:0 144:4 145:0 146:0 147:0 148:15 149:7 150:18 151:21 152:36 153:34 154:24 155:23 156:29 157:11 158:7 159:8 160:21 161:48 162:10 163:11 164:32 165:31 166:14 167:30 168:37 169:3 170:3 171:0 172:0 173:0 174:0 175:0 176:0 177:0 178:0 179:0 180:0 181:0 182:0 183:0 184:0 185:0 186:0 187:0 188:0 189:0 190:0 191:0 192:0 
0.9040967530056352 0 1:0 2:0 3:0 4:21 5:45 6:9 7:11 8:7 9:0 10:0 11:2 12:5 13:3 14:6 15:0 16:15 17:0 18:0 19:0 20:0 21:25 22:20 23:30 24:12 25:8 26:0 27:15 28:40 29:28 30:15 31:15 32:0 33:0 34:71 35:78 36:29 37:0 38:0 39:0 40:0 41:0 42:0 43:0 44:0 45:0 46:0 47:0 48:0 49:0 50:0 51:0 52:0 53:0 54:0 55:0 56:0 57:0 58:0 59:0 60:0 61:0 62:0 63:0 64:0 65:0 66:0 67:0 68:0 69:42 70:33 71:47 72:6 73:0 74:0 75:0 76:0 77:0 78:0 79:0 80:0 81:0 82:0 83:0 84:0 85:0 86:0 87:0 88:0 89:0 90:0 91:0 92:0 93:0 94:0 95:0 96:0 97:0 98:0 99:0 100:0 101:0 102:0 103:0 104:0 105:0 106:0 107:0 108:0 109:0 110:0 111:0 112:0 113:0 114:0 115:0 116:0 117:0 118:0 119:0 120:0 121:18 122:5 123:17 124:29 125:27 126:22 127:27 128:26 129:6 130:0 131:8 132:20 133:10 134:0 135:11 136:13 137:4 138:0 139:0 140:0 141:0 142:0 143:0 144:5 145:2 146:0 147:0 148:16 149:7 150:20 151:23 152:36 153:37 154:25 155:25 156:30 157:13 158:8 159:10 160:23 161:56 162:13 163:14 164:34 165:32 166:15 167:31 168:37 169:4 170:4 171:0 172:0 173:0 174:0 175:0 176:0 177:0 178:0 179:0 180:0 181:0 182:0 183:0 184:0 185:0 186:0 187:0 188:0 189:0 190:0 191:0 192:0 
1 1 1:0 2:0 3:0 4:22 5:46 6:11 7:14 8:7 9:0 10:0 11:1 12:5 13:3 14:7 15:3 16:13 17:0 18:0 19:0 20:0 21:23 22:18 23:28 24:11 25:0 26:0 27:17 28:0 29:28 30:13 31:13 32:0 33:0 34:68 35:76 36:27 37:0 38:0 39:0 40:0 41:0 42:0 43:0 44:0 45:0 46:0 47:0 48:0 49:0 50:0 51:0 52:0 53:0 54:0 55:0 56:0 57:0 58:0 59:0 60:0 61:0 62:0 63:0 64:0 65:0 66:0 67:0 68:0 69:44 70:35 71:45 72:6 73:0 74:0 75:0 76:0 77:0 78:0 79:0 80:0 81:0 82:0 83:0 84:0 85:0 86:0 87:0 88:0 89:0 90:0 91:0 92:0 93:0 94:0 95:0 96:0 97:0 98:0 99:0 100:0 101:0 102:0 103:0 104:0 105:0 106:0 107:0 108:0 109:0 110:0 111:0 112:0 113:0 114:0 115:0 116:0 117:0 118:0 119:0 120:0 121:17 122:6 123:16 124:27 125:26 126:21 127:25 128:22 129:0 130:0 131:6 132:18 133:10 134:1 135:10 136:10 137:0 138:0 139:0 140:0 141:0 142:0 143:0 144:4 145:1 146:0 147:0 148:15 149:7 150:20 151:26 152:36 153:37 154:25 155:24 156:28 157:14 158:9 159:11 160:22 161:56 162:16 163:14 164:35 165:33 166:13 167:31 168:40 169:7 170:4 171:0 172:0 173:0 174:0 175:0 176:0 177:0 178:0 179:0 180:0 181:0 182:0 183:0 184:0 185:0 186:0 187:0 188:0 189:0 190:0 191:0 192:0 
1 0 1:0 2:0 3:0 4:17 5:46 6:14 7:16 8:7 9:0 10:0 11:0 12:4 13:1 14:9 15:2 16:0 17:0 18:0 19:0 20:0 21:21 22:17 23:28 24:12 25:0 26:1 27:15 28:0 29:25 30:10 31:11 32:0 33:0 34:68 35:69 36:23 37:0 38:0 39:0 40:0 41:0 42:0 43:0 44:0 45:0 46:0 47:0 48:0 49:1 50:0 51:0 52:0 53:0 54:0 55:0 56:0 57:0 58:0 59:0 60:0 61:0 62:0 63:0 64:0 65:0 66:0 67:0 68:0 69:49 70:37 71:47 72:8 73:0 74:0 75:0 76:0 77:0 78:0 79:0 80:0 81:0 82:0 83:0 84:0 85:0 86:0 87:0 88:0 89:0 90:0 91:0 92:0 93:0 94:0 95:0 96:0 97:0 98:0 99:0 100:0 101:0 102:0 103:0 104:0 105:0 106:4 107:0 108:0 109:0 110:0 111:0 112:0 113:0 114:0 115:0 116:0 117:0 118:0 119:0 120:0 121:17 122:5 123:15 124:26 125:24 126:20 127:22 128:18 129:0 130:0 131:5 132:17 133:11 134:0 135:8 136:7 137:0 138:0 139:0 140:0 141:0 142:0 143:0 144:1 145:1 146:0 147:0 148:9 149:6 150:22 151:26 152:35 153:38 154:26 155:22 156:25 157:15 158:7 159:10 160:29 161:58 162:19 163:18 164:37 165:36 166:16 167:35 168:42 169:7 170:5 171:0 172:0 173:0 174:0 175:0 176:0 177:0 178:0 179:0 180:0 181:0 182:0 183:0 184:0 185:0 186:0 187:0 188:0 189:0 190:0 191:0 192:0 
1 0 1:0 2:0 3:0 4:18 5:47 6:16 7:16 8:8 9:0 10:0 11:0 12:4 13:4 14:12 15:0 16:0 17:0 18:0 19:0 20:0 21:21 22:17 23:29 24:13 25:3 26:1 27:12 28:3 29:24 30:11 31:11 32:2 33:2 34:66 35:73 36:24 37:0 38:0 39:0 40:0 41:0 42:0 43:0 44:0 45:0 46:0 47:0 48:0 49:3 50:0 51:0 52:0 53:0 54:0 55:0 56:0 57:0 58:0 59:0 60:0 61:0 62:0 63:0 64:0 65:0 66:0 67:0 68:0 69:48 70:40 71:50 72:9 73:0 74:0 75:0 76:0 77:0 78:0 79:0 80:0 81:0 82:0 83:0 84:0 85:0 86:0 87:0 88:0 89:0 90:0 91:0 92:0 93:0 94:0 95:0 96:0 97:0 98:0 99:0 100:0 101:0 102:0 103:0 104:0 105:0 106:5 107:0 108:0 109:0 110:0 111:0 112:0 113:0 114:0 115:0 116:0 117:0 118:0 119:0 120:0 121:16 122:6 123:17 124:27 125:25 126:21 127:23 128:19 129:0 130:0 131:5 132:17 133:9 134:2 135:11 136:9 137:0 138:0 139:0 140:0 141:0 142:0 143:0 144:1 145:1 146:0 147:0 148:11 149:6 150:22 151:30 152:36 153:37 154:25 155:24 156:26 157:16 158:7 159:11 160:31 161:63 162:19 163:20 164:37 165:36 166:18 167:33 168:44 169:8 170:4 171:1 172:0 173:0 174:0 175:0 176:0 177:0 178:0 179:0 180:0 181:0 182:0 183:0 184:0 185:0 186:0 187:0 188:0 189:0 190:0 191:0 192:0 
1 0 1:2 2:0 3:0 4:28 5:52 6:19 7:20 8:0 9:0 10:0 11:0 12:0 13:9 14:8 15:7 16:0 17:0 18:0 19:0 20:0 21:0 22:0 23:35 24:16 25:7 26:0 27:13 28:2 29:1 30:11 31:9 32:0 33:0 34:80 35:84 36:0 37:6 38:22 39:25 40:0 41:0 42:0 43:0 44:0 45:0 46:0 47:0 48:0 49:18 50:0 51:7 52:14 53:0 54:0 55:0 56:0 57:0 58:0 59:0 60:0 61:4 62:0 63:0 64:0 65:0 66:0 67:0 68:0 69:0 70:45 71:52 72:0 73:0 74:0 75:0 76:0 77:0 78:0 79:0 80:0 81:0 82:0 83:0 84:0 85:0 86:0 87:0 88:0 89:0 90:0 91:0 92:0 93:0 94:0 95:0 96:0 97:0 98:0 99:0 100:0 101:0 102:0 103:0 104:2 105:18 106:16 107:0 108:0 109:0 110:0 111:0 112:0 113:0 114:0 115:0 116:0 117:0 118:0 119:0 120:0 121:25 122:0 123:27 124:29 125:26 126:24 127:0 128:0 129:2 130:0 131:8 132:20 133:0 134:0 135:0 136:18 137:1 138:0 139:0 140:0 141:0 142:0 143:0 144:0 145:0 146:0 147:0 148:0 149:0 150:0 151:62 152:0 153:0 154:0 155:0 156:0 157:0 158:9 159:0 160:42 161:74 162:29 163:0 164:1 165:42 166:22 167:39 168:50 169:0 170:0 171:7 172:0 173:0 174:0 175:0 176:0 177:0 178:0 179:0 180:0 181:0 182:0 183:0 184:0 185:0 186:0 187:0 188:0 189:0 190:0 191:0 192:0 
1 1 1:0 2:0 3:0 4:18 5:9 6:10 7:8 8:6 9:0 10:0 11:0 12:0 13:4 14:0 15:0 16:0 17:0 18:0 19:0 20:0 21:35 22:27 23:24 24:11 25:0 26:0 27:0 28:19 29:19 30:18 31:19 32:32 33:28 34:21 35:29 36:6 37:0 38:7 39:8 40:0 41:0 42:0 43:0 44:0 45:0 46:0 47:0 48:0 49:0 50:0 51:0 52:0 53:0 54:0 55:0 56:0 57:0 58:0 59:0 60:16 61:0 62:0 63:0 64:0 65:0 66:0 67:0 68:0 69:7 70:5 71:5 72:0 73:0 74:0 75:0 76:0 77:0 78:0 79:0 80:0 81:0 82:0 83:0 84:0 85:0 86:0 87:0 88:0 89:0 90:0 91:0 92:0 93:0 94:0 95:0 96:0 97:0 98:0 99:0 100:0 101:0 102:0 103:0 104:0 105:7 106:12 107:0 108:0 109:0 110:0 111:0 112:0 113:0 114:0 115:0 116:0 117:0 118:0 119:0 120:0 121:2 122:3 123:4 124:4 125:4 126:0 127:0 128:0 129:0 130:0 131:0 132:6 133:0 134:0 135:0 136:0 137:0 138:0 139:0 140:0 141:0 142:0 143:0 144:0 145:0 146:0 147:0 148:15 149:9 150:13 151:15 152:19 153:8 154:2 155:7 156:14 157:0 158:5 159:0 160:4 161:6 162:25 163:1 164:5 165:2 166:10 167:4 168:4 169:2 170:0 171:2 172:0 173:0 174:0 175:0 176:0 177:0 178:0 179:0 180:0 181:0 182:0 183:0 184:0 185:0 186:0 187:0 188:0 189:0 190:0 191:0 192:0 
1 1 1:0 2:0 3:4 4:27 5:15 6:11 7:9 8:8 9:0 10:0 11:0 12:1 13:10 14:3 15:8 16:11 17:3 18:0 19:0 20:5 21:48 22:34 23:27 24:13 25:0 26:0 27:0 28:19 29:23 30:18 31:16 32:31 33:29 34:35 35:44 36:7 37:0 38:18 39:18 40:0 41:0 42:0 43:0 44:0 45:0 46:0 47:0 48:0 49:18 50:0 51:6 52:8 53:0 54:0 55:0 56:0 57:0 58:0 59:0 60:25 61:0 62:0 63:0 64:0 65:0 66:0 67:0 68:0 69:11 70:7 71:8 72:0 73:0 74:0 75:0 76:0 77:0 78:0 79:0 80:0 81:0 82:0 83:0 84:0 85:0 86:0 87:0 88:0 89:0 90:0 91:0 92:0 93:0 94:0 95:0 96:0 97:0 98:0 99:0 100:0 101:0 102:0 103:0 104:0 105:14 106:20 107:0 108:0 109:0 110:0 111:0 112:0 113:0 114:0 115:0 116:0 117:0 118:0 119:0 120:0 121:11 122:9 123:13 124:12 125:12 126:5 127:0 128:0 129:0 130:0 131:0 132:8 133:4 134:0 135:2 136:0 137:0 138:0 139:0 140:0 141:0 142:0 143:0 144:0 145:0 146:0 147:0 148:23 149:12 150:22 151:24 152:28 153:14 154:5 155:12 156:23 157:6 158:8 159:1 160:11 161:16 162:30 163:5 164:5 165:5 166:22 167:0 168:11 169:11 170:4 171:9 172:0 173:4 174:0 175:0 176:0 177:0 178:0 179:0 180:0 181:0 182:0 183:0 184:0 185:0 186:0 187:0 188:0 189:0 190:0 191:0 192:0 
1 1 1:0 2:0 3:4 4:27 5:15 6:11 7:9 8:8 9:0 10:0 11:0 12:1 13:9 14:5 15:8 16:12 17:6 18:0 19:0 20:5 21:48 22:34 23:27 24:13 25:0 26:0 27:0 28:21 29:27 30:16 31:18 32:30 33:29 34:32 35:46 36:6 37:0 38:24 39:23 40:0 41:0 42:0 43:0 44:0 45:0 46:0 47:0 48:0 49:18 50:0 51:6 52:9 53:0 54:0 55:0 56:0 57:0 58:0 59:0 60:25 61:0 62:0 63:0 64:0 65:0 66:0 67:0 68:0 69:13 70:10 71:8 72:0 73:0 74:0 75:0 76:0 77:0 78:0 79:0 80:0 81:0 82:0 83:0 84:0 85:0 86:0 87:0 88:0 89:0 90:0 91:0 92:0 93:0 94:0 95:0 96:0 97:0 98:0 99:0 100:0 101:0 102:0 103:0 104:0 105:14 106:20 107:0 108:0 109:0 110:0 111:0 112:0 113:0 114:0 115:0 116:0 117:0 118:0 119:0 120:0 121:11 122:9 123:13 124:13 125:12 126:5 127:0 128:0 129:0 130:0 131:0 132:8 133:3 134:2 135:4 136:0 137:0 138:0 139:0 140:0 141:0 142:0 143:0 144:0 145:1 146:0 147:0 148:26 149:14 150:26 151:27 152:30 153:16 154:4 155:11 156:25 157:7 158:7 159:3 160:10 161:22 162:29 163:7 164:6 165:2 166:22 167:3 168:0 169:7 170:4 171:9 172:0 173:3 174:0 175:0 176:0 177:0 178:0 179:0 180:0 181:0 182:0 183:0 184:0 185:0 186:0 187:0 188:0 189:0 190:0 191:0 192:0 
1 1 1:0 2:0 3:5 4:28 5:16 6:10 7:9 8:8 9:0 10:0 11:0 12:2 13:8 14:6 15:7 16:12 17:7 18:0 19:0 20:5 21:48 22:33 23:28 24:13 25:0 26:0 27:0 28:24 29:27 30:17 31:16 32:33 33:27 34:26 35:42 36:8 37:0 38:27 39:21 40:0 41:0 42:0 43:0 44:0 45:0 46:0 47:0 48:0 49:17 50:0 51:6 52:9 53:0 54:0 55:0 56:0 57:0 58:0 59:0 60:25 61:0 62:0 63:0 64:0 65:0 66:0 67:0 68:0 69:14 70:11 71:8 72:0 73:0 74:0 75:0 76:0 77:0 78:0 79:0 80:0 81:0 82:0 83:0 84:0 85:0 86:0 87:0 88:0 89:0 90:0 91:0 92:0 93:0 94:0 95:0 96:0 97:0 98:0 99:0 100:0 101:0 102:0 103:0 104:0 105:14 106:20 107:0 108:0 109:0 110:0 111:0 112:0 113:0 114:0 115:0 116:0 117:0 118:0 119:0 120:0 121:11 122:9 123:13 124:13 125:12 126:5 127:0 128:0 129:0 130:0 131:0 132:8 133:3 134:2 135:4 136:0 137:0 138:0 139:0 140:0 141:0 142:0 143:0 144:0 145:1 146:0 147:0 148:26 149:14 150:26 151:27 152:30 153:16 154:4 155:11 156:25 157:7 158:7 159:3 160:10 161:22 162:29 163:7 164:6 165:2 166:22 167:3 168:0 169:7 170:4 171:9 172:0 173:3 174:0 175:0 176:0 177:0 178:0 179:0 180:0 181:0 182:0 183:0 184:0 185:0 186:0 187:0 188:0 189:0 190:0 191:0 192:0 
1 1 1:0 2:0 3:5 4:29 5:17 6:11 7:10 8:7 9:0 10:0 11:0 12:1 13:8 14:4 15:8 16:13 17:9 18:0 19:0 20:5 21:50 22:36 23:28 24:14 25:0 26:0 27:0 28:24 29:26 30:17 31:15 32:29 33:30 34:38 35:51 36:7 37:0 38:25 39:22 40:0 41:0 42:0 43:0 44:0 45:0 46:0 47:0 48:0 49:18 50:0 51:7 52:10 53:0 54:0 55:0 56:0 57:0 58:0 59:0 60:30 61:0 62:0 63:0 64:0 65:0 66:0 67:0 68:0 69:13 70:12 71:9 72:0 73:0 74:0 75:0 76:0 77:0 78:0 79:0 80:0 81:0 82:0 83:0 84:0 85:0 86:0 87:0 88:0 89:0 90:0 91:0 92:0 93:0 94:0 95:0 96:0 97:0 98:0 99:0 100:0 101:0 102:0 103:0 104:0 105:15 106:20 107:0 108:0 109:0 110:0 111:0 112:0 113:0 114:0 115:0 116:0 117:0 118:0 119:0 120:0 121:12 122:9 123:13 124:12 125:12 126:6 127:0 128:0 129:0 130:0 131:0 132:9 133:5 134:1 135:2 136:0 137:0 138:0 139:0 140:0 141:0 142:0 143:0 144:0 145:2 146:0 147:0 148:26 149:17 150:25 151:29 152:35 153:17 154:7 155:14 156:30 157:6 158:6 159:3 160:11 161:16 162:32 163:5 164:7 165:4 166:21 167:6 168:0 169:10 170:4 171:10 172:0 173:5 174:0 175:0 176:0 177:0 178:0 179:0 180:0 181:0 182:0 183:0 184:0 185:0 186:0 187:0 188:0 189:0 190:0 191:0 192:0 
1 1 1:0 2:0 3:7 4:33 5:13 6:10 7:7 8:5 9:0 10:0 11:0 12:1 13:8 14:4 15:14 16:25 17:36 18:2 19:17 20:10 21:56 22:45 23:30 24:17 25:0 26:0 27:0 28:26 29:21 30:20 31:18 32:0 33:35 34:41 35:59 36:9 37:0 38:22 39:22 40:0 41:0 42:0 43:0 44:0 45:0 46:0 47:0 48:0 49:20 50:0 51:9 52:15 53:0 54:0 55:0 56:0 57:0 58:0 59:0 60:41 61:0 62:0 63:0 64:0 65:0 66:0 67:0 68:0 69:19 70:0 71:11 72:1 73:0 74:0 75:0 76:0 77:0 78:0 79:0 80:0 81:0 82:0 83:0 84:0 85:0 86:0 87:0 88:0 89:0 90:0 91:0 92:0 93:0 94:0 95:0 96:0 97:0 98:0 99:0 100:0 101:0 102:0 103:0 104:0 105:19 106:27 107:0 108:0 109:0 110:0 111:0 112:0 113:0 114:0 115:0 116:0 117:0 118:0 119:0 120:0 121:17 122:10 123:17 124:15 125:18 126:9 127:0 128:0 129:0 130:0 131:0 132:9 133:8 134:3 135:7 136:0 137:0 138:0 139:0 140:0 141:0 142:0 143:0 144:0 145:0 146:0 147:0 148:0 149:0 150:43 151:42 152:0 153:0 154:0 155:0 156:0 157:14 158:7 159:5 160:15 161:26 162:33 163:9 164:7 165:0 166:0 167:0 168:0 169:21 170:8 171:17 172:0 173:9 174:0 175:0 176:0 177:0 178:0 179:0 180:0 181:0 182:0 183:0 184:0 185:0 186:0 187:0 188:0 189:0 190:0 191:0 192:0 
1 1 1:0 2:0 3:0 4:0 5:0 6:0 7:0 8:0 9:0 10:0 11:0 12:0 13:0 14:0 15:0 16:0 17:0 18:0 19:0 20:0 21:20 22:21 23:8 24:0 25:0 26:0 27:0 28:0 29:0 30:10 31:0 32:0 33:0 34:0 35:0 36:10 37:0 38:0 39:0 40:0 41:0 42:0 43:0 44:0 45:0 46:0 47:0 48:0 49:0 50:0 51:0 52:0 53:0 54:0 55:0 56:0 57:0 58:0 59:0 60:0 61:0 62:0 63:0 64:0 65:0 66:0 67:0 68:0 69:0 70:0 71:0 72:0 73:0 74:0 75:0 76:0 77:0 78:0 79:0 80:0 81:0 82:0 83:0 84:0 85:0 86:0 87:0 88:0 89:0 90:0 91:0 92:0 93:0 94:0 95:0 96:0 97:0 98:0 99:0 100:0 101:0 102:0 103:0 104:0 105:0 106:0 107:0 108:0 109:0 110:0 111:0 112:0 113:0 114:0 115:0 116:0 117:0 118:0 119:0 120:0 121:0 122:0 123:0 124:0 125:0 126:0 127:0 128:0 129:0 130:0 131:0 132:0 133:0 134:0 135:0 136:0 137:0 138:0 139:0 140:0 141:0 142:0 143:0 144:0 145:0 146:0 147:0 148:0 149:0 150:0 151:0 152:0 153:0 154:0 155:0 156:0 157:0 158:0 159:0 160:0 161:0 162:0 163:0 164:0 165:12 166:17 167:0 168:0 169:76 170:65 171:65 172:54 173:19 174:0 175:0 176:21 177:0 178:0 179:33 180:66 181:0 182:0 183:0 184:0 185:0 186:0 187:0 188:0 189:0 190:0 191:0 192:0 
1 1 1:0 2:0 3:0 4:0 5:0 6:0 7:0 8:0 9:0 10:0 11:0 12:0 13:15 14:13 15:0 16:0 17:0 18:0 19:0 20:0 21:26 22:22 23:9 24:2 25:15 26:0 27:8 28:0 29:0 30:12 31:0 32:0 33:0 34:5 35:4 36:19 37:0 38:0 39:0 40:0 41:0 42:0 43:0 44:0 45:0 46:0 47:0 48:0 49:13 50:0 51:0 52:0 53:0 54:0 55:0 56:0 57:0 58:0 59:0 60:0 61:0 62:0 63:0 64:0 65:0 66:0 67:0 68:0 69:0 70:0 71:0 72:0 73:0 74:0 75:0 76:0 77:0 78:0 79:0 80:0 81:0 82:0 83:0 84:0 85:0 86:0 87:0 88:0 89:0 90:0 91:0 92:0 93:0 94:0 95:0 96:0 97:0 98:0 99:0 100:0 101:0 102:0 103:0 104:0 105:0 106:0 107:0 108:0 109:0 110:0 111:0 112:0 113:0 114:0 115:0 116:0 117:0 118:0 119:0 120:0 121:0 122:0 123:0 124:0 125:0 126:0 127:0 128:0 129:0 130:0 131:0 132:0 133:0 134:0 135:0 136:0 137:0 138:0 139:0 140:0 141:0 142:0 143:0 144:0 145:0 146:0 147:0 148:0 149:0 150:0 151:0 152:0 153:0 154:0 155:0 156:0 157:0 158:0 159:0 160:0 161:0 162:0 163:0 164:0 165:8 166:15 167:0 168:0 169:80 170:69 171:67 172:62 173:28 174:0 175:4 176:34 177:0 178:3 179:45 180:74 181:0 182:0 183:0 184:0 185:0 186:0 187:0 188:0 189:0 190:0 191:0 192:0 
1 1 1:0 2:0 3:0 4:0 5:0 6:0 7:0 8:0 9:0 10:0 11:0 12:0 13:19 14:24 15:7 16:0 17:0 18:0 19:0 20:0 21:32 22:26 23:11 24:2 25:38 26:9 27:13 28:0 29:0 30:15 31:0 32:0 33:0 34:8 35:0 36:16 37:0 38:0 39:0 40:0 41:0 42:0 43:0 44:0 45:0 46:0 47:0 48:0 49:30 50:8 51:14 52:0 53:0 54:0 55:0 56:0 57:0 58:0 59:0 60:0 61:0 62:0 63:0 64:0 65:0 66:0 67:0 68:0 69:0 70:0 71:0 72:0 73:0 74:0 75:0 76:0 77:0 78:0 79:0 80:0 81:0 82:0 83:0 84:0 85:0 86:0 87:0 88:0 89:0 90:0 91:0 92:0 93:0 94:0 95:0 96:0 97:0 98:0 99:0 100:0 101:0 102:0 103:0 104:0 105:0 106:0 107:0 108:0 109:0 110:0 111:0 112:0 113:0 114:0 115:0 116:0 117:0 118:0 119:0 120:0 121:0 122:0 123:0 124:0 125:0 126:0 127:0 128:0 129:0 130:0 131:0 132:0 133:0 134:0 135:0 136:0 137:0 138:0 139:0 140:0 141:0 142:0 143:0 144:0 145:5 146:0 147:0 148:0 149:0 150:0 151:0 152:0 153:0 154:0 155:0 156:0 157:0 158:0 159:0 160:0 161:0 162:0 163:0 164:0 165:5 166:8 167:0 168:0 169:80 170:69 171:65 172:59 173:0 174:0 175:0 176:0 177:1 178:0 179:0 180:64 181:0 182:0 183:0 184:0 185:0 186:0 187:0 188:0 189:0 190:0 191:0 192:0 
1 1 1:0 2:0 3:0 4:0 5:0 6:0 7:0 8:0 9:0 10:0 11:0 12:0 13:0 14:0 15:0 16:0 17:0 18:0 19:0 20:0 21:12 22:13 23:17 24:11 25:0 26:0 27:0 28:0 29:0 30:0 31:0 32:0 33:0 34:40 35:54 36:16 37:0 38:0 39:0 40:0 41:0 42:0 43:0 44:0 45:0 46:0 47:0 48:0 49:0 50:0 51:0 52:0 53:0 54:0 55:0 56:0 57:0 58:0 59:0 60:0 61:0 62:0 63:0 64:0 65:0 66:0 67:0 68:0 69:0 70:0 71:0 72:0 73:0 74:0 75:0 76:0 77:0 78:0 79:0 80:0 81:0 82:0 83:0 84:0 85:0 86:0 87:0 88:0 89:0 90:0 91:0 92:0 93:0 94:0 95:0 96:0 97:0 98:0 99:0 100:0 101:0 102:0 103:0 104:0 105:0 106:0 107:0 108:0 109:0 110:0 111:0 112:0 113:0 114:0 115:0 116:0 117:0 118:0 119:0 120:0 121:0 122:0 123:0 124:0 125:0 126:0 127:0 128:0 129:0 130:0 131:0 132:0 133:0 134:0 135:0 136:0 137:0 138:0 139:0 140:0 141:0 142:0 143:0 144:0 145:0 146:0 147:11 148:0 149:0 150:0 151:0 152:0 153:0 154:0 155:0 156:0 157:0 158:0 159:0 160:0 161:0 162:13 163:30 164:0 165:3 166:0 167:10 168:13 169:0 170:0 171:0 172:0 173:0 174:0 175:0 176:0 177:0 178:0 179:0 180:0 181:0 182:0 183:0 184:0 185:0 186:0 187:0 188:0 189:0 190:0 191:0 192:0 
1 0 1:0 2:0 3:0 4:0 5:0 6:0 7:0 8:0 9:0 10:0 11:0 12:0 13:0 14:0 15:0 16:0 17:0 18:0 19:0 20:0 21:58 22:48 23:34 24:19 25:4 26:0 27:6 28:29 29:23 30:11 31:11 32:12 33:15 34:82 35:100 36:20 37:0 38:0 39:0 40:0 41:0 42:0 43:0 44:0 45:0 46:0 47:0 48:0 49:0 50:0 51:0 52:0 53:0 54:0 55:0 56:0 57:0 58:0 59:0 60:0 61:0 62:0 63:0 64:0 65:0 66:0 67:0 68:0 69:0 70:0 71:0 72:0 73:0 74:0 75:0 76:0 77:0 78:0 79:0 80:0 81:0 82:0 83:0 84:0 85:0 86:0 87:0 88:0 89:0 90:0 91:0 92:0 93:0 94:0 95:0 96:0 97:0 98:0 99:0 100:0 101:0 102:0 103:0 104:0 105:0 106:0 107:0 108:0 109:0 110:0 111:0 112:0 113:0 114:0 115:0 116:0 117:0 118:0 119:0 120:0 121:0 122:0 123:0 124:0 125:0 126:0 127:0 128:0 129:0 130:0 131:0 132:0 133:0 134:0 135:0 136:0 137:0 138:0 139:0 140:0 141:0 142:0 143:0 144:0 145:0 146:0 147:26 148:7 149:7 150:6 151:6 152:0 153:10 154:3 155:0 156:0 157:39 158:17 159:45 160:52 161:43 162:42 163:71 164:34 165:32 166:7 167:22 168:36 169:0 170:0 171:0 172:6 173:21 174:6 175:0 176:0 177:0 178:0 179:0 180:0 181:0 182:0 183:0 184:0 185:0 186:0 187:0 188:0 189:0 190:0 191:0 192:0 
1 0 1:0 2:0 3:0 4:0 5:0 6:0 7:0 8:0 9:0 10:0 11:0 12:0 13:0 14:0 15:0 16:0 17:0 18:0 19:0 20:0 21:0 22:0 23:29 24:18 25:6 26:4 27:18 28:0 29:16 30:7 31:9 32:9 33:8 34:72 35:80 36:18 37:0 38:0 39:0 40:0 41:0 42:0 43:0 44:8 45:0 46:0 47:28 48:0 49:0 50:6 51:0 52:0 53:0 54:0 55:0 56:0 57:0 58:0 59:0 60:0 61:0 62:0 63:0 64:0 65:0 66:0 67:0 68:0 69:0 70:0 71:0 72:0 73:0 74:0 75:0 76:0 77:0 78:0 79:0 80:0 81:0 82:0 83:0 84:0 85:0 86:0 87:0 88:0 89:0 90:0 91:0 92:0 93:0 94:0 95:0 96:0 97:0 98:0 99:0 100:0 101:0 102:0 103:0 104:0 105:0 106:0 107:0 108:0 109:0 110:0 111:0 112:0 113:0 114:0 115:0 116:0 117:0 118:0 119:0 120:0 121:0 122:3 123:0 124:0 125:0 126:0 127:0 128:0 129:0 130:0 131:0 132:0 133:0 134:0 135:0 136:0 137:0 138:0 139:0 140:0 141:0 142:0 143:0 144:0 145:3 146:0 147:29 148:10 149:12 150:9 151:0 152:0 153:0 154:10 155:7 156:0 157:52 158:53 159:107 160:55 161:53 162:0 163:70 164:32 165:34 166:6 167:23 168:33 169:0 170:0 171:4 172:5 173:23 174:9 175:0 176:0 177:0 178:0 179:0 180:0 181:0 182:0 183:0 184:0 185:0 186:0 187:0 188:0 189:0 190:0 191:0 192:0 
1 1 1:0 2:0 3:0 4:0 5:0 6:0 7:0 8:0 9:0 10:0 11:0 12:0 13:0 14:0 15:0 16:0 17:0 18:0 19:0 20:0 21:0 22:0 23:0 24:0 25:6 26:4 27:0 28:0 29:12 30:6 31:0 32:0 33:0 34:0 35:0 36:0 37:0 38:0 39:0 40:0 41:0 42:0 43:0 44:0 45:0 46:0 47:0 48:0 49:0 50:0 51:0 52:0 53:0 54:0 55:0 56:0 57:0 58:0 59:0 60:0 61:0 62:0 63:0 64:0 65:0 66:0 67:0 68:0 69:0 70:0 71:0 72:0 73:0 74:0 75:0 76:0 77:0 78:0 79:0 80:0 81:0 82:0 83:0 84:0 85:0 86:0 87:0 88:0 89:0 90:0 91:0 92:0 93:0 94:0 95:0 96:0 97:0 98:0 99:0 100:0 101:0 102:0 103:0 104:0 105:0 106:0 107:0 108:0 109:0 110:0 111:0 112:0 113:0 114:0 115:0 116:0 117:0 118:0 119:0 120:0 121:0 122:3 123:0 124:0 125:0 126:0 127:0 128:0 129:0 130:0 131:0 132:0 133:0 134:0 135:0 136:0 137:0 138:0 139:0 140:0 141:0 142:0 143:0 144:0 145:2 146:0 147:0 148:6 149:4 150:7 151:0 152:0 153:0 154:0 155:0 156:0 157:52 158:0 159:83 160:52 161:0 162:0 163:60 164:32 165:0 166:5 167:20 168:30 169:0 170:0 171:0 172:0 173:22 174:6 175:0 176:0 177:0 178:0 179:0 180:0 181:0 182:0 183:0 184:0 185:0 186:0 187:0 188:0 189:0 190:0 191:0 192:0 
1 1 1:0 2:0 3:0 4:0 5:0 6:0 7:0 8:0 9:0 10:0 11:0 12:0 13:0 14:0 15:0 16:0 17:0 18:0 19:0 20:0 21:0 22:0 23:0 24:0 25:0 26:0 27:0 28:0 29:14 30:26 31:19 32:15 33:27 34:4 35:17 36:17 37:0 38:0 39:0 40:0 41:0 42:0 43:0 44:0 45:0 46:0 47:0 48:0 49:0 50:0 51:0 52:0 53:0 54:0 55:0 56:0 57:0 58:0 59:0 60:0 61:0 62:0 63:0 64:0 65:0 66:0 67:0 68:0 69:0 70:0 71:0 72:0 73:0 74:0 75:0 76:0 77:0 78:0 79:0 80:0 81:0 82:0 83:0 84:0 85:0 86:0 87:0 88:0 89:0 90:0 91:0 92:0 93:0 94:0 95:0 96:0 97:0 98:0 99:0 100:0 101:0 102:0 103:0 104:0 105:0 106:0 107:0 108:0 109:0 110:0 111:0 112:0 113:0 114:0 115:0 116:0 117:0 118:0 119:0 120:0 121:0 122:5 123:0 124:0 125:0 126:0 127:0 128:0 129:0 130:0 131:0 132:0 133:0 134:0 135:0 136:0 137:0 138:0 139:0 140:0 141:0 142:0 143:0 144:0 145:0 146:0 147:0 148:0 149:0 150:0 151:0 152:0 153:0 154:0 155:0 156:0 157:13 158:14 159:14 160:7 161:7 162:12 163:18 164:12 165:10 166:3 167:3 168:5 169:0 170:0 171:0 172:0 173:7 174:4 175:0 176:0 177:0 178:0 179:0 180:0 181:0 182:0 183:0 184:0 185:0 186:0 187:0 188:0 189:0 190:0 191:0 192:0 
1 1 1:0 2:0 3:0 4:0 5:0 6:0 7:0 8:0 9:0 10:0 11:0 12:0 13:0 14:0 15:0 16:0 17:0 18:0 19:0 20:0 21:0 22:0 23:0 24:0 25:0 26:0 27:0 28:0 29:14 30:29 31:20 32:16 33:26 34:9 35:14 36:15 37:0 38:0 39:0 40:0 41:0 42:0 43:0 44:0 45:0 46:0 47:0 48:0 49:0 50:0 51:0 52:0 53:0 54:0 55:0 56:0 57:0 58:0 59:0 60:0 61:0 62:0 63:0 64:0 65:0 66:0 67:0 68:0 69:0 70:0 71:0 72:0 73:0 74:0 75:0 76:0 77:0 78:0 79:0 80:0 81:0 82:0 83:0 84:0 85:0 86:0 87:0 88:0 89:0 90:0 91:0 92:0 93:0 94:0 95:0 96:0 97:0 98:0 99:0 100:0 101:0 102:0 103:0 104:0 105:0 106:0 107:0 108:0 109:0 110:0 111:0 112:0 113:0 114:0 115:0 116:0 117:0 118:0 119:0 120:0 121:0 122:4 123:0 124:0 125:0 126:0 127:0 128:0 129:0 130:0 131:0 132:0 133:0 134:0 135:0 136:0 137:0 138:0 139:0 140:0 141:0 142:0 143:0 144:0 145:0 146:0 147:0 148:0 149:0 150:2 151:0 152:0 153:0 154:4 155:0 156:0 157:0 158:0 159:9 160:12 161:15 162:16 163:23 164:11 165:13 166:2 167:3 168:8 169:0 170:0 171:0 172:5 173:18 174:10 175:0 176:0 177:0 178:0 179:0 180:0 181:0 182:0 183:0 184:0 185:0 186:0 187:0 188:0 189:0 190:0 191:0 192:0 
1 1 1:0 2:0 3:0 4:0 5:0 6:0 7:0 8:0 9:0 10:0 11:0 12:0 13:0 14:0 15:0 16:0 17:0 18:0 19:0 20:0 21:0 22:0 23:0 24:0 25:0 26:0 27:0 28:0 29:14 30:30 31:21 32:15 33:33 34:20 35:14 36:14 37:0 38:0 39:0 40:0 41:0 42:0 43:0 44:0 45:0 46:0 47:0 48:0 49:0 50:0 51:0 52:0 53:0 54:0 55:0 56:0 57:0 58:0 59:0 60:0 61:0 62:0 63:0 64:0 65:0 66:0 67:0 68:0 69:0 70:0 71:0 72:0 73:0 74:0 75:0 76:0 77:0 78:0 79:0 80:0 81:0 82:0 83:0 84:0 85:0 86:0 87:0 88:0 89:0 90:0 91:0 92:0 93:0 94:0 95:0 96:0 97:0 98:0 99:0 100:0 101:0 102:0 103:0 104:0 105:0 106:0 107:0 108:0 109:0 110:0 111:0 112:0 113:0 114:0 115:0 116:0 117:0 118:0 119:0 120:0 121:0 122:0 123:0 124:0 125:0 126:0 127:0 128:0 129:0 130:0 131:0 132:0 133:0 134:0 135:0 136:0 137:0 138:0 139:0 140:0 141:0 142:0 143:0 144:0 145:0 146:0 147:0 148:0 149:0 150:4 151:0 152:0 153:4 154:8 155:0 156:0 157:0 158:0 159:9 160:17 161:20 162:21 163:21 164:12 165:9 166:0 167:0 168:0 169:0 170:0 171:0 172:7 173:20 174:12 175:0 176:0 177:0 178:0 179:0 180:0 181:0 182:0 183:0 184:0 185:0 186:0 187:0 188:0 189:0 190:0 191:0 192:0 
1 1 1:0 2:0 3:0 4:0 5:0 6:0 7:0 8:0 9:0 10:0 11:0 12:0 13:0 14:0 15:0 16:0 17:0 18:0 19:0 20:0 21:0 22:0 23:0 24:0 25:0 26:0 27:0 28:0 29:13 30:29 31:21 32:16 33:41 34:31 35:15 36:12 37:0 38:0 39:0 40:0 41:0 42:0 43:0 44:0 45:0 46:0 47:0 48:0 49:0 50:0 51:0 52:0 53:0 54:0 55:0 56:0 57:0 58:0 59:0 60:0 61:0 62:0 63:0 64:0 65:0 66:0 67:0 68:0 69:0 70:0 71:0 72:0 73:0 74:0 75:0 76:0 77:0 78:0 79:0 80:0 81:0 82:0 83:0 84:0 85:0 86:0 87:0 88:0 89:0 90:0 91:0 92:0 93:0 94:0 95:0 96:0 97:0 98:0 99:0 100:0 101:0 102:0 103:0 104:0 105:0 106:0 107:0 108:0 109:0 110:0 111:0 112:0 113:0 114:0 115:0 116:0 117:0 118:0 119:0 120:0 121:0 122:0 123:0 124:0 125:0 126:0 127:0 128:0 129:0 130:0 131:0 132:0 133:0 134:0 135:0 136:0 137:0 138:0 139:0 140:0 141:0 142:0 143:0 144:0 145:0 146:0 147:0 148:0 149:0 150:11 151:6 152:0 153:17 154:14 155:5 156:0 157:0 158:0 159:7 160:18 161:23 162:26 163:18 164:11 165:0 166:1 167:0 168:0 169:0 170:0 171:0 172:5 173:19 174:11 175:0 176:0 177:0 178:0 179:0 180:0 181:0 182:0 183:0 184:0 185:0 186:0 187:0 188:0 189:0 190:0 191:0 192:0 
1 1 1:0 2:0 3:0 4:0 5:0 6:0 7:0 8:0 9:0 10:0 11:0 12:0 13:0 14:0 15:0 16:0 17:0 18:0 19:0 20:0 21:0 22:0 23:0 24:0 25:7 26:11 27:0 28:0 29:11 30:30 31:21 32:21 33:55 34:66 35:25 36:18 37:0 38:0 39:0 40:0 41:0 42:0 43:0 44:0 45:0 46:0 47:0 48:0 49:0 50:0 51:0 52:0 53:0 54:0 55:0 56:0 57:0 58:0 59:0 60:0 61:0 62:0 63:0 64:0 65:0 66:0 67:0 68:0 69:0 70:0 71:0 72:0 73:0 74:0 75:0 76:0 77:0 78:0 79:0 80:0 81:0 82:0 83:0 84:0 85:0 86:0 87:0 88:0 89:0 90:0 91:0 92:0 93:0 94:0 95:0 96:0 97:0 98:0 99:0 100:0 101:0 102:0 103:0 104:0 105:0 106:0 107:0 108:0 109:0 110:0 111:0 112:0 113:0 114:0 115:0 116:0 117:0 118:0 119:0 120:0 121:0 122:0 123:0 124:0 125:0 126:0 127:0 128:0 129:0 130:0 131:0 132:0 133:0 134:0 135:0 136:0 137:0 138:0 139:0 140:0 141:0 142:0 143:0 144:0 145:39 146:0 147:0 148:18 149:10 150:33 151:33 152:55 153:82 154:30 155:45 156:53 157:0 158:0 159:10 160:27 161:37 162:35 163:22 164:8 165:0 166:0 167:1 168:0 169:0 170:0 171:0 172:11 173:27 174:21 175:9 176:0 177:0 178:0 179:0 180:0 181:0 182:0 183:0 184:0 185:0 186:0 187:0 188:0 189:0 190:0 191:0 192:0 
1 1 1:0 2:0 3:0 4:0 5:0 6:0 7:0 8:0 9:0 10:0 11:0 12:0 13:0 14:7 15:0 16:0 17:0 18:0 19:0 20:0 21:0 22:0 23:0 24:0 25:0 26:75 27:0 28:0 29:12 30:27 31:23 32:21 33:54 34:54 35:21 36:13 37:0 38:0 39:0 40:0 41:0 42:0 43:0 44:0 45:0 46:0 47:0 48:0 49:0 50:0 51:0 52:0 53:0 54:0 55:0 56:0 57:0 58:0 59:0 60:0 61:0 62:0 63:0 64:0 65:0 66:0 67:0 68:0 69:0 70:0 71:0 72:0 73:0 74:0 75:0 76:0 77:0 78:0 79:0 80:0 81:0 82:0 83:0 84:0 85:0 86:0 87:0 88:0 89:0 90:0 91:0 92:0 93:0 94:0 95:0 96:0 97:0 98:0 99:0 100:0 101:0 102:0 103:0 104:0 105:0 106:0 107:0 108:0 109:0 110:0 111:0 112:0 113:0 114:0 115:0 116:0 117:0 118:0 119:0 120:0 121:0 122:0 123:0 124:0 125:0 126:0 127:0 128:0 129:0 130:0 131:0 132:0 133:0 134:0 135:0 136:0 137:0 138:0 139:0 140:0 141:0 142:0 143:0 144:0 145:120 146:0 147:0 148:0 149:0 150:0 151:0 152:74 153:105 154:33 155:60 156:69 157:2 158:3 159:13 160:0 161:35 162:39 163:25 164:0 165:3 166:2 167:3 168:6 169:0 170:0 171:0 172:0 173:36 174:0 175:0 176:0 177:0 178:0 179:0 180:0 181:0 182:0 183:0 184:0 185:2 186:2 187:0 188:0 189:0 190:0 191:0 192:0 
1 1 1:0 2:0 3:0 4:0 5:0 6:0 7:0 8:0 9:0 10:0 11:0 12:0 13:0 14:0 15:0 16:0 17:0 18:0 19:0 20:0 21:0 22:0 23:0 24:0 25:0 26:0 27:0 28:0 29:12 30:24 31:20 32:0 33:0 34:0 35:0 36:0 37:0 38:0 39:0 40:0 41:0 42:0 43:0 44:0 45:0 46:0 47:0 48:0 49:0 50:0 51:0 52:0 53:0 54:0 55:0 56:0 57:0 58:0 59:0 60:0 61:0 62:0 63:0 64:0 65:0 66:0 67:0 68:0 69:0 70:0 71:0 72:0 73:0 74:0 75:0 76:0 77:0 78:0 79:0 80:0 81:0 82:0 83:0 84:0 85:0 86:0 87:0 88:0 89:0 90:0 91:0 92:0 93:0 94:0 95:0 96:0 97:0 98:0 99:0 100:0 101:0 102:0 103:0 104:0 105:0 106:0 107:0 108:0 109:0 110:0 111:0 112:0 113:0 114:0 115:0 116:0 117:0 118:0 119:0 120:0 121:0 122:0 123:0 124:0 125:0 126:0 127:0 128:0 129:0 130:0 131:0 132:0 133:0 134:0 135:0 136:0 137:0 138:0 139:0 140:0 141:0 142:0 143:0 144:0 145:85 146:0 147:0 148:0 149:0 150:0 151:0 152:57 153:100 154:36 155:55 156:0 157:3 158:5 159:16 160:0 161:33 162:0 163:25 164:0 165:4 166:2 167:3 168:4 169:0 170:0 171:0 172:0 173:0 174:0 175:0 176:0 177:0 178:0 179:0 180:0 181:0 182:0 183:0 184:0 185:0 186:0 187:0 188:0 189:0 190:0 191:0 192:0 
1 1 1:0 2:0 3:0 4:0 5:0 6:0 7:0 8:0 9:0 10:0 11:0 12:0 13:0 14:0 15:0 16:0 17:0 18:0 19:0 20:0 21:0 22:0 23:0 24:0 25:0 26:0 27:0 28:0 29:0 30:0 31:0 32:0 33:0 34:0 35:0 36:0 37:0 38:0 39:0 40:0 41:0 42:0 43:0 44:0 45:0 46:0 47:0 48:0 49:0 50:0 51:0 52:0 53:0 54:0 55:0 56:0 57:0 58:0 59:0 60:0 61:0 62:0 63:0 64:0 65:0 66:0 67:0 68:0 69:0 70:0 71:0 72:0 73:0 74:0 75:0 76:0 77:0 78:0 79:0 80:0 81:0 82:0 83:0 84:0 85:0 86:0 87:0 88:0 89:0 90:0 91:0 92:0 93:0 94:0 95:0 96:0 97:0 98:0 99:0 100:0 101:0 102:0 103:0 104:0 105:0 106:0 107:0 108:0 109:0 110:0 111:0 112:0 113:0 114:0 115:0 116:0 117:0 118:0 119:0 120:0 121:0 122:0 123:0 124:0 125:47 126:54 127:67 128:64 129:52 130:8 131:0 132:0 133:0 134:0 135:0 136:0 137:0 138:0 139:0 140:0 141:0 142:0 143:0 144:0 145:0 146:0 147:0 148:0 149:0 150:0 151:131 152:0 153:0 154:0 155:0 156:0 157:0 158:0 159:58 160:0 161:16 162:0 163:0 164:0 165:0 166:50 167:0 168:0 169:57 170:52 171:58 172:0 173:0 174:0 175:0 176:0 177:0 178:0 179:0 180:0 181:0 182:0 183:0 184:0 185:0 186:0 187:0 188:0 189:0 190:0 191:0 192:0 
1 1 1:0 2:0 3:0 4:55 5:0 6:0 7:0 8:0 9:0 10:0 11:0 12:0 13:0 14:17 15:14 16:0 17:0 18:0 19:0 20:0 21:0 22:0 23:0 24:15 25:2 26:37 27:0 28:0 29:0 30:0 31:0 32:0 33:0 34:1 35:0 36:0 37:77 38:34 39:0 40:41 41:0 42:0 43:0 44:0 45:0 46:0 47:0 48:0 49:0 50:0 51:0 52:0 53:0 54:0 55:0 56:0 57:0 58:0 59:0 60:0 61:0 62:0 63:0 64:0 65:0 66:0 67:0 68:0 69:78 70:0 71:70 72:0 73:2 74:0 75:78 76:0 77:0 78:0 79:0 80:0 81:0 82:0 83:0 84:0 85:0 86:0 87:0 88:0 89:0 90:0 91:0 92:0 93:0 94:0 95:0 96:0 97:0 98:0 99:0 100:0 101:0 102:0 103:0 104:0 105:0 106:0 107:0 108:0 109:51 110:61 111:91 112:0 113:0 114:0 115:0 116:0 117:0 118:0 119:0 120:0 121:0 122:0 123:0 124:53 125:50 126:0 127:56 128:62 129:81 130:61 131:0 132:0 133:0 134:0 135:0 136:0 137:0 138:0 139:0 140:0 141:0 142:0 143:0 144:0 145:0 146:0 147:0 148:0 149:0 150:0 151:0 152:0 153:0 154:0 155:0 156:0 157:0 158:0 159:0 160:0 161:0 162:0 163:0 164:0 165:0 166:0 167:0 168:0 169:0 170:0 171:0 172:0 173:0 174:0 175:0 176:0 177:0 178:0 179:0 180:0 181:0 182:0 183:0 184:0 185:0 186:0 187:0 188:0 189:0 190:0 191:0 192:0 
1 1 1:0 2:0 3:0 4:0 5:0 6:0 7:0 8:0 9:0 10:0 11:0 12:0 13:0 14:0 15:0 16:0 17:0 18:0 19:0 20:0 21:0 22:0 23:0 24:0 25:0 26:0 27:0 28:0 29:0 30:0 31:0 32:0 33:0 34:0 35:0 36:0 37:0 38:0 39:0 40:0 41:0 42:0 43:0 44:0 45:0 46:0 47:11 48:15 49:0 50:0 51:0 52:0 53:0 54:0 55:0 56:0 57:0 58:0 59:0 60:0 61:0 62:0 63:0 64:0 65:0 66:0 67:0 68:0 69:0 70:0 71:0 72:0 73:0 74:0 75:0 76:0 77:0 78:0 79:0 80:0 81:0 82:0 83:0 84:0 85:0 86:0 87:0 88:0 89:0 90:0 91:0 92:0 93:0 94:0 95:0 96:0 97:0 98:0 99:0 100:0 101:0 102:0 103:0 104:0 105:0 106:0 107:0 108:0 109:0 110:0 111:0 112:0 113:0 114:0 115:0 116:0 117:29 118:41 119:63 120:23 121:15 122:8 123:12 124:0 125:0 126:0 127:0 128:0 129:0 130:10 131:7 132:7 133:0 134:9 135:0 136:0 137:12 138:22 139:10 140:0 141:0 142:9 143:8 144:0 145:5 146:0 147:0 148:12 149:24 150:11 151:23 152:16 153:0 154:0 155:0 156:8 157:8 158:5 159:7 160:16 161:15 162:6 163:10 164:9 165:0 166:0 167:3 168:16 169:0 170:0 171:0 172:0 173:0 174:0 175:0 176:0 177:0 178:0 179:0 180:0 181:0 182:0 183:0 184:0 185:0 186:0 187:0 188:0 189:0 190:0 191:0 192:0 
1 0.3166593514008932 1:0 2:0 3:0 4:0 5:0 6:0 7:0 8:0 9:0 10:11 11:0 12:0 13:0 14:0 15:0 16:0 17:0 18:0 19:0 20:0 21:0 22:0 23:0 24:13 25:16 26:9 27:0 28:0 29:0 30:0 31:0 32:0 33:0 34:0 35:0 36:0 37:12 38:0 39:0 40:20 41:16 42:21 43:27 44:32 45:14 46:0 47:15 48:17 49:0 50:0 51:0 52:0 53:20 54:21 55:0 56:0 57:0 58:0 59:0 60:0 61:0 62:0 63:0 64:0 65:0 66:0 67:0 68:0 69:0 70:0 71:0 72:0 73:0 74:0 75:0 76:0 77:0 78:0 79:0 80:0 81:0 82:0 83:0 84:0 85:0 86:0 87:0 88:0 89:0 90:0 91:0 92:0 93:0 94:0 95:20 96:0 97:16 98:0 99:22 100:34 101:38 102:23 103:0 104:23 105:0 106:0 107:10 108:14 109:49 110:14 111:12 112:22 113:0 114:0 115:26 116:53 117:65 118:52 119:75 120:61 121:40 122:18 123:36 124:17 125:0 126:0 127:0 128:17 129:17 130:55 131:53 132:41 133:6 134:11 135:12 136:19 137:38 138:66 139:37 140:15 141:10 142:44 143:41 144:11 145:17 146:0 147:0 148:25 149:32 150:13 151:0 152:26 153:3 154:2 155:0 156:12 157:32 158:9 159:21 160:47 161:38 162:17 163:29 164:34 165:9 166:4 167:16 168:38 169:0 170:0 171:0 172:0 173:0 174:0 175:0 176:0 177:0 178:0 179:0 180:0 181:0 182:0 183:0 184:0 185:0 186:0 187:0 188:0 189:0 190:0 191:0 192:0 
1 1 1:0 2:0 3:0 4:0 5:0 6:0 7:0 8:0 9:0 10:0 11:0 12:0 13:0 14:0 15:0 16:0 17:0 18:0 19:0 20:0 21:0 22:0 23:0 24:0 25:0 26:0 27:0 28:0 29:0 30:0 31:0 32:0 33:0 34:0 35:0 36:0 37:0 38:0 39:0 40:0 41:0 42:20 43:0 44:0 45:0 46:0 47:0 48:0 49:0 50:0 51:0 52:0 53:0 54:0 55:0 56:0 57:0 58:0 59:0 60:0 61:0 62:0 63:0 64:0 65:0 66:0 67:0 68:0 69:0 70:0 71:0 72:0 73:0 74:0 75:0 76:0 77:0 78:0 79:0 80:0 81:0 82:0 83:0 84:0 85:0 86:0 87:0 88:0 89:0 90:0 91:0 92:0 93:0 94:0 95:0 96:0 97:23 98:0 99:24 100:0 101:0 102:0 103:0 104:0 105:0 106:0 107:0 108:0 109:0 110:0 111:0 112:0 113:0 114:0 115:0 116:0 117:64 118:0 119:68 120:0 121:0 122:0 123:0 124:0 125:0 126:0 127:0 128:0 129:0 130:0 131:0 132:0 133:0 134:0 135:0 136:0 137:0 138:57 139:0 140:0 141:0 142:0 143:0 144:0 145:10 146:0 147:0 148:0 149:0 150:9 151:0 152:0 153:0 154:0 155:0 156:0 157:0 158:0 159:0 160:0 161:0 162:0 163:0 164:0 165:0 166:1 167:0 168:0 169:0 170:0 171:0 172:0 173:0 174:0 175:0 176:0 177:0 178:0 179:0 180:0 181:0 182:0 183:0 184:0 185:0 186:0 187:0 188:0 189:0 190:0 191:0 192:0 
1 1 1:0 2:0 3:0 4:0 5:0 6:0 7:13 8:0 9:9 10:22 11:0 12:0 13:0 14:0 15:0 16:0 17:0 18:0 19:0 20:0 21:0 22:0 23:0 24:14 25:0 26:0 27:0 28:0 29:0 30:0 31:0 32:0 33:0 34:0 35:18 36:0 37:0 38:0 39:20 40:31 41:20 42:20 43:18 44:32 45:0 46:0 47:0 48:30 49:0 50:0 51:0 52:0 53:0 54:0 55:0 56:0 57:0 58:0 59:0 60:0 61:0 62:0 63:0 64:0 65:0 66:0 67:0 68:0 69:0 70:0 71:0 72:0 73:0 74:0 75:0 76:0 77:0 78:0 79:0 80:0 81:0 82:0 83:0 84:0 85:0 86:0 87:0 88:0 89:0 90:0 91:0 92:0 93:0 94:0 95:0 96:0 97:0 98:0 99:0 100:0 101:0 102:0 103:0 104:0 105:0 106:0 107:0 108:0 109:14 110:0 111:19 112:49 113:44 114:28 115:60 116:54 117:30 118:14 119:13 120:22 121:19 122:7 123:10 124:14 125:0 126:0 127:0 128:29 129:16 130:33 131:50 132:41 133:14 134:10 135:8 136:9 137:17 138:12 139:22 140:13 141:12 142:0 143:0 144:5 145:18 146:0 147:9 148:35 149:9 150:6 151:14 152:32 153:17 154:9 155:31 156:53 157:5 158:4 159:8 160:5 161:7 162:3 163:0 164:0 165:0 166:0 167:0 168:3 169:0 170:0 171:0 172:0 173:0 174:0 175:0 176:0 177:0 178:0 179:0 180:0 181:0 182:0 183:0 184:0 185:0 186:0 187:0 188:0 189:0 190:0 191:0 192:0 
1 1 1:0 2:0 3:0 4:0 5:0 6:0 7:0 8:0 9:0 10:0 11:0 12:0 13:7 14:19 15:27 16:0 17:0 18:0 19:0 20:0 21:0 22:0 23:0 24:0 25:17 26:11 27:10 28:0 29:8 30:0 31:0 32:0 33:6 34:18 35:0 36:0 37:0 38:0 39:0 40:0 41:0 42:0 43:0 44:0 45:0 46:0 47:0 48:0 49:9 50:0 51:8 52:0 53:0 54:0 55:0 56:0 57:0 58:0 59:0 60:0 61:0 62:0 63:0 64:0 65:0 66:0 67:0 68:0 69:0 70:0 71:0 72:0 73:0 74:0 75:0 76:0 77:0 78:0 79:0 80:0 81:0 82:0 83:0 84:0 85:0 86:0 87:0 88:0 89:0 90:0 91:0 92:0 93:0 94:0 95:0 96:0 97:0 98:0 99:0 100:0 101:0 102:0 103:0 104:0 105:0 106:0 107:0 108:0 109:0 110:0 111:0 112:62 113:58 114:0 115:64 116:55 117:29 118:0 119:0 120:0 121:0 122:0 123:0 124:0 125:0 126:1 127:0 128:0 129:42 130:44 131:60 132:51 133:0 134:0 135:20 136:23 137:34 138:32 139:42 140:0 141:0 142:0 143:0 144:0 145:0 146:0 147:0 148:0 149:0 150:0 151:0 152:0 153:0 154:0 155:0 156:0 157:0 158:0 159:75 160:0 161:0 162:0 163:0 164:0 165:0 166:2 167:0 168:0 169:0 170:0 171:0 172:0 173:0 174:0 175:0 176:0 177:0 178:0 179:0 180:0 181:0 182:0 183:0 184:0 185:0 186:0 187:0 188:0 189:0 190:0 191:0 192:0 
1 1 1:0 2:0 3:0 4:0 5:0 6:0 7:0 8:0 9:0 10:0 11:0 12:0 13:0 14:0 15:0 16:0 17:0 18:0 19:0 20:0 21:0 22:0 23:0 24:0 25:0 26:0 27:0 28:0 29:0 30:0 31:0 32:0 33:0 34:0 35:0 36:0 37:0 38:0 39:0 40:13 41:0 42:0 43:19 44:28 45:16 46:0 47:8 48:12 49:0 50:0 51:0 52:0 53:0 54:0 55:0 56:0 57:0 58:0 59:0 60:0 61:0 62:0 63:0 64:0 65:0 66:0 67:0 68:0 69:0 70:0 71:0 72:0 73:0 74:0 75:0 76:0 77:0 78:0 79:0 80:0 81:0 82:0 83:0 84:0 85:0 86:0 87:0 88:0 89:0 90:0 91:0 92:0 93:0 94:0 95:0 96:0 97:0 98:0 99:0 100:0 101:0 102:0 103:0 104:23 105:0 106:0 107:16 108:26 109:37 110:12 111:7 112:6 113:3 114:0 115:15 116:7 117:15 118:34 119:34 120:14 121:7 122:7 123:0 124:0 125:0 126:0 127:0 128:0 129:0 130:5 131:4 132:0 133:6 134:0 135:2 136:11 137:17 138:41 139:23 140:13 141:4 142:9 143:9 144:6 145:5 146:0 147:0 148:15 149:15 150:10 151:15 152:0 153:0 154:3 155:0 156:0 157:8 158:5 159:6 160:6 161:11 162:3 163:0 164:0 165:0 166:0 167:0 168:2 169:0 170:0 171:0 172:0 173:0 174:0 175:0 176:0 177:0 178:0 179:0 180:0 181:0 182:0 183:0 184:0 185:0 186:0 187:0 188:0 189:0 190:0 191:0 192:0 
1 1 1:0 2:0 3:0 4:0 5:0 6:0 7:0 8:0 9:0 10:0 11:0 12:0 13:0 14:0 15:0 16:0 17:0 18:0 19:0 20:0 21:0 22:0 23:0 24:0 25:0 26:0 27:0 28:0 29:0 30:0 31:0 32:0 33:0 34:0 35:0 36:0 37:0 38:0 39:0 40:0 41:11 42:3 43:0 44:0 45:0 46:0 47:0 48:0 49:0 50:0 51:0 52:0 53:0 54:0 55:0 56:0 57:0 58:0 59:0 60:0 61:0 62:0 63:0 64:0 65:0 66:0 67:0 68:0 69:0 70:0 71:0 72:0 73:0 74:0 75:0 76:0 77:0 78:0 79:0 80:0 81:0 82:0 83:0 84:0 85:0 86:0 87:0 88:0 89:0 90:0 91:0 92:0 93:0 94:0 95:0 96:0 97:0 98:0 99:3 100:0 101:0 102:0 103:0 104:0 105:0 106:0 107:0 108:0 109:48 110:0 111:0 112:34 113:0 114:0 115:0 116:18 117:23 118:42 119:40 120:16 121:0 122:0 123:0 124:0 125:0 126:0 127:0 128:0 129:0 130:0 131:0 132:0 133:0 134:0 135:12 136:24 137:25 138:57 139:0 140:0 141:0 142:0 143:0 144:0 145:0 146:0 147:0 148:0 149:0 150:0 151:0 152:0 153:0 154:0 155:0 156:0 157:0 158:0 159:0 160:0 161:0 162:0 163:0 164:0 165:0 166:0 167:0 168:0 169:0 170:0 171:0 172:0 173:0 174:0 175:0 176:0 177:0 178:0 179:0 180:0 181:0 182:0 183:0 184:0 185:0 186:0 187:0 188:0 189:0 190:0 191:0 192:0 
1 1 1:0 2:0 3:0 4:0 5:0 6:0 7:0 8:0 9:0 10:0 11:0 12:0 13:0 14:0 15:0 16:0 17:0 18:0 19:0 20:0 21:0 22:0 23:0 24:0 25:0 26:0 27:0 28:0 29:0 30:0 31:0 32:0 33:0 34:0 35:0 36:0 37:0 38:0 39:0 40:0 41:0 42:0 43:0 44:0 45:0 46:0 47:0 48:0 49:0 50:0 51:0 52:0 53:0 54:0 55:0 56:0 57:0 58:0 59:0 60:0 61:0 62:0 63:0 64:0 65:0 66:0 67:0 68:0 69:0 70:0 71:0 72:0 73:0 74:0 75:0 76:0 77:0 78:0 79:0 80:0 81:0 82:0 83:0 84:0 85:0 86:0 87:0 88:0 89:0 90:0 91:0 92:0 93:0 94:0 95:0 96:0 97:0 98:0 99:0 100:0 101:0 102:0 103:0 104:0 105:0 106:0 107:0 108:0 109:0 110:0 111:0 112:0 113:52 114:49 115:43 116:0 117:0 118:1 119:0 120:0 121:14 122:3 123:6 124:0 125:0 126:10 127:8 128:0 129:8 130:3 131:16 132:15 133:0 134:0 135:0 136:0 137:3 138:0 139:0 140:0 141:0 142:0 143:0 144:0 145:0 146:0 147:0 148:0 149:0 150:0 151:0 152:0 153:0 154:0 155:0 156:0 157:0 158:0 159:0 160:0 161:0 162:0 163:0 164:0 165:0 166:3 167:0 168:0 169:0 170:0 171:0 172:0 173:0 174:0 175:0 176:0 177:0 178:0 179:0 180:0 181:0 182:0 183:0 184:0 185:0 186:0 187:0 188:0 189:0 190:0 191:0 192:0 
