svm_type c_svc
kernel_type rbf
gamma 0.0208333
nr_class 3
total_sv 99
rho -0.663499 0.745813 0.808053
label -1 1 0
nr_sv 33 30 36
SV
1 1 1:0.38609 2:0.68723 3:0.88902 4:0.51627 5:0.17577 6:0.78818 7:0.41386 8:0.42857 9:0.80161 10:0.43015 11:0.71926 12:0.059747 13:0.037327 14:0.19393 15:0.90155 16:0.37013 17:0.44547 18:0.52452 19:0.64141 20:0.8521 21:0.4761 22:0.38298 23:0.93268 24:0.45377 25:0.4704 26:0.58242 27:0.92832 28:0.40123 29:0.4623 30:0.15221 31:0.20963 32:0.93697 33:0.68231 34:0.99116 35:0.34456 36:0.48291 37:0.86928 38:0.56545 39:0.85449 40:0.69063 41:0.61659 42:0.991 43:0.91964 44:0.62434 45:0.16303 46:0.030363 47:0.39739 48:0.29074 
0.8291225362006773 1 1:0.37405 2:0.16495 3:0.81449 4:0.15583 5:0.20889 6:0.31887 7:0.13844 8:0.64724 9:0.95652 10:0.89642 11:0.68812 12:0.32882 13:0.09771 14:0.47569 15:0.384 16:0.55988 17:0.74265 18:0.5281 19:0.64466 20:0.69815 21:0.79518 22:0.1586 23:0.87328 24:0.47957 25:0.89778 26:0.5666 27:0.9881 28:0.3811 29:0.060525 30:0.82657 31:0.028589 32:0.94747 33:0.60873 34:0.2442 35:0.56198 36:0.47792 37:0.3253 38:0.2514 39:0.92752 40:0.48926 41:0.16267 42:0.33951 43:0.50958 44:0.74922 45:0.64624 46:0.82136 47:0.90945 48:0.98617 
1 1 1:0.27243 2:0.85788 3:0.55254 4:0.045025 5:0.16112 6:0.61642 7:0.89111 8:0.63391 9:0.66245 10:0.65842 11:0.14695 12:0.38001 13:0.68979 14:0.89334 15:0.84115 16:0.56546 17:0.21198 18:0.90693 19:0.51045 20:0.37152 21:0.36763 22:0.073897 23:0.3094 24:0.61348 25:0.79189 26:0.78242 27:0.94464 28:0.20621 29:0.26807 30:0.026986 31:0.41121 32:0.8545 33:0.86897 34:0.01667 35:0.36427 36:0.08838 37:0.85267 38:0.88661 39:0.21609 40:0.38659 41:0.72778 42:0.57205 43:0.57249 44:0.74516 45:0.22853 46:0.82821 47:0.32889 48:0.93168 
1 1 1:0.67589 2:0.74744 3:0.04847 4:0.37912 5:0.1256 6:0.50219 7:0.034527 8:0.98639 9:0.5787 10:0.19897 11:0.60152 12:0.28342 13:0.026184 14:0.56833 15:0.80522 16:0.98549 17:0.08218 18:0.24687 19:0.14567 20:0.67517 21:0.96725 22:0.61098 23:0.3473 24:0.548 25:0.17258 26:0.49122 27:0.80207 28:0.037496 29:0.4257 30:0.51948 31:0.23588 32:0.081448 33:0.80123 34:0.43352 35:0.14292 36:0.31858 37:0.92262 38:0.2854 39:0.45645 40:0.51411 41:0.57285 42:0.70422 43:0.72383 44:0.66725 45:0.65402 46:0.37067 47:0.53988 48:0.26234 
1 1 1:0.52239 2:0.23652 3:0.3061 4:0.23366 5:0.8403 6:0.32714 7:0.81264 8:0.79072 9:0.39908 10:0.53136 11:0.37268 12:0.92639 13:0.0060565 14:0.92633 15:0.07071 16:0.4357 17:0.43265 18:0.061224 19:0.68598 20:0.97964 21:0.76569 22:0.30983 23:0.67824 24:0.39318 25:0.82633 26:0.86439 27:0.72346 28:0.027009 29:0.56964 30:0.36285 31:0.31032 32:0.25578 33:0.040943 34:0.6951 35:0.65102 36:0.74196 37:0.2387 38:0.94459 39:0.13608 40:0.58161 41:0.026094 42:0.99989 43:0.13864 44:0.77161 45:0.058691 46:0.42136 47:0.83101 48:0.32534 
1 1 1:0.31648 2:0.57459 3:0.46185 4:0.002643 5:0.92197 6:0.3581 7:0.30379 8:0.42901 9:0.39706 10:0.66994 11:0.47408 12:0.23881 13:0.35658 14:0.44266 15:0.13199 16:0.84996 17:0.39335 18:0.27917 19:0.70985 20:0.38189 21:0.29457 22:0.8622 23:0.62574 24:0.30867 25:0.32034 26:0.30046 27:0.11416 28:0.47996 29:0.55275 30:0.9267 31:0.055602 32:0.55864 33:0.67297 34:0.11848 35:0.3415 36:0.10355 37:0.56991 38:0.9383 39:0.6769 40:0.36289 41:0.74788 42:0.63902 43:0.21021 44:0.31897 45:0.57966 46:0.46845 47:0.71564 48:0.48595 
1 1 1:0.39606 2:0.19198 3:0.12716 4:0.46134 5:0.49763 6:0.67338 7:0.77176 8:0.34469 9:0.82484 10:0.37401 11:0.075475 12:0.3642 13:0.41893 14:0.071202 15:0.65318 16:0.31399 17:0.54114 18:0.2621 19:0.84996 20:0.58768 21:0.17232 22:0.61744 23:0.12508 24:0.20333 25:0.34387 26:0.51325 27:0.28478 28:0.35873 29:0.50622 30:0.76878 31:0.14353 32:0.68439 33:0.79589 34:0.33393 35:0.55631 36:0.50977 37:0.20635 38:0.39514 39:0.2984 40:0.51649 41:0.074024 42:0.39682 43:0.76876 44:0.81567 45:0.86265 46:0.43644 47:0.53255 48:0.12375 
1 1 1:0.65938 2:0.169 3:0.53115 4:0.8793 5:0.95378 6:0.91593 7:0.74527 8:0.46728 9:0.81136 10:0.057708 11:0.87867 12:0.30874 13:0.70197 14:0.020588 15:0.54939 16:0.78959 17:0.6123 18:0.24192 19:0.52817 20:0.034669 21:0.36225 22:0.41125 23:0.80175 24:0.44763 25:0.39641 26:0.05038 27:0.18932 28:0.6329 29:0.91431 30:0.4716 31:0.76433 32:0.95383 33:0.84815 34:0.81047 35:0.44435 36:0.3224 37:0.7241 38:0.41311 39:0.97093 40:0.68703 41:0.27072 42:0.51968 43:0.75345 44:0.78928 45:0.070217 46:0.54679 47:0.17333 48:0.73062 
1 1 1:0.8775 2:0.60144 3:0.45526 4:0.4765 5:0.48229 6:0.24034 7:0.44175 8:0.15027 9:0.87385 10:0.86592 11:0.42458 12:0.93639 13:0.71302 14:0.24491 15:0.9334 16:0.96308 17:0.34385 18:0.70506 19:0.25589 20:0.37156 21:0.52586 22:0.55938 23:0.044137 24:0.013643 25:0.017879 26:0.68401 27:0.31117 28:0.47842 29:0.8622 30:0.70053 31:0.59086 32:0.01102 33:0.1148 34:0.5107 35:0.79118 36:0.091779 37:0.066525 38:0.25544 39:0.652 40:0.10252 41:0.70105 42:0.57179 43:0.54634 44:0.4368 45:0.45107 46:0.54044 47:0.37935 48:0.11363 
0.8534578502112147 1 1:0.64307 2:0.90229 3:0.55419 4:0.99825 5:0.004859 6:0.4055 7:0.0026919 8:0.80113 9:0.52448 10:0.77003 11:0.97927 12:0.23612 13:0.063024 14:0.17095 15:0.12142 16:0.21008 17:0.83159 18:0.23343 19:0.031759 20:0.29503 21:0.74704 22:0.64834 23:0.43736 24:0.24935 25:0.41771 26:0.5137 27:0.77371 28:0.029579 29:0.84232 30:0.86106 31:0.35956 32:0.50092 33:0.77345 34:0.52218 35:0.90675 36:0.57657 37:0.095561 38:0.40779 39:0.61918 40:0.6339 41:0.79998 42:0.43871 43:0.97738 44:0.75728 45:0.97997 46:0.81552 47:0.9136 48:0.871 
1 1 1:0.50339 2:0.083509 3:0.31185 4:0.91583 5:0.25948 6:0.1313 7:0.5631 8:0.68187 9:0.14606 10:0.99538 11:0.46547 12:0.17763 13:0.017494 14:0.92346 15:0.17156 16:0.031368 17:0.82245 18:0.21663 19:0.14922 20:0.35199 21:0.65941 22:0.30964 23:0.61703 24:0.98003 25:0.75625 26:0.44569 27:0.032717 28:0.46824 29:0.92101 30:0.33146 31:0.84495 32:0.92103 33:0.94926 34:0.32055 35:0.42333 36:0.0062187 37:0.88811 38:0.31898 39:0.46042 40:0.063365 41:0.86401 42:0.36129 43:0.67924 44:0.46574 45:0.28807 46:0.35694 47:0.93466 48:0.24781 
1 1 1:0.75785 2:0.36127 3:0.069089 4:0.856 5:0.06288 6:0.73052 7:0.22285 8:0.40109 9:0.82575 10:0.76418 11:0.7537 12:0.58196 13:0.41836 14:0.98086 15:0.66814 16:0.99078 17:0.52397 18:0.11208 19:0.98747 20:0.22886 21:0.074661 22:0.8393 23:0.42186 24:0.12174 25:0.20104 26:0.48038 27:0.46685 28:0.23964 29:0.95576 30:0.42688 31:0.44951 32:0.37819 33:0.017174 34:0.22227 35:0.58026 36:0.87702 37:0.56954 38:0.64015 39:0.20313 40:0.94413 41:0.28134 42:0.45841 43:0.83467 44:0.86147 45:0.5524 46:0.87567 47:0.77761 48:0.81164 
0.791870146760654 1 1:0.7741 2:0.17836 3:0.014613 4:0.3879 5:0.84483 6:0.61439 7:0.47459 8:0.057332 9:0.86625 10:0.27944 11:0.12101 12:0.62927 13:0.56232 14:0.53707 15:0.17492 16:0.062068 17:0.69505 18:0.14446 19:0.51181 20:0.29792 21:0.23063 22:0.2579 23:0.017666 24:0.040779 25:0.60102 26:0.10754 27:0.095275 28:0.47629 29:0.18665 30:0.35709 31:0.43113 32:0.36566 33:0.42095 34:0.96216 35:0.54033 36:0.093908 37:0.93576 38:0.74772 39:0.027718 40:0.67885 41:0.15661 42:0.86959 43:0.77193 44:0.77325 45:0.30038 46:0.1156 47:0.70304 48:0.13226 
1 1 1:0.14819 2:0.029719 3:0.15976 4:0.19186 5:0.30485 6:0.6951 7:0.27121 8:0.07012 9:0.57663 10:0.68984 11:0.52383 12:0.059032 13:0.4825 14:0.1815 15:0.15413 16:0.92566 17:0.56052 18:0.93696 19:0.27043 20:0.53773 21:0.63524 22:0.036131 23:0.57784 24:0.61902 25:0.87831 26:0.081442 27:0.12673 28:0.0006905 29:0.62593 30:0.69007 31:0.46804 32:0.13793 33:0.23735 34:0.50549 35:0.40764 36:0.66976 37:0.0090472 38:0.11172 39:0.47984 40:0.68611 41:0.62992 42:0.40095 43:0.016927 44:0.045129 45:0.43298 46:0.41282 47:0.49322 48:0.59146 
0.9949462506995937 1 1:0.59488 2:0.11347 3:0.22355 4:0.78705 5:0.81497 6:0.90447 7:0.61803 8:0.41286 9:0.69109 10:0.90939 11:0.45308 12:0.22792 13:0.051738 14:0.82793 15:0.21332 16:0.15216 17:0.31319 18:0.77994 19:0.12442 20:0.62221 21:0.86501 22:0.67867 23:0.13072 24:0.59404 25:0.13173 26:0.10851 27:0.31687 28:0.067699 29:0.33398 30:0.42286 31:0.63699 32:0.6766 33:0.38729 34:0.50575 35:0.41616 36:0.6761 37:0.57789 38:0.077775 39:0.13442 40:0.41367 41:0.69025 42:0.11245 43:0.78925 44:0.74797 45:0.25032 46:0.84232 47:0.80106 48:0.93787 
1 1 1:0.53785 2:0.30006 3:0.75418 4:0.73976 5:0.59058 6:0.96036 7:0.36371 8:0.71082 9:0.61323 10:0.1678 11:0.12546 12:0.29106 13:0.96859 14:0.22661 15:0.035828 16:0.087952 17:0.71902 18:0.62785 19:0.69576 20:0.71114 21:0.40622 22:0.15894 23:0.075732 24:0.32686 25:0.10762 26:0.48848 27:0.97255 28:0.93613 29:0.47817 30:0.62264 31:0.87005 32:0.53621 33:0.58004 34:0.66965 35:0.98252 36:0.52827 37:0.24046 38:0.28884 39:0.86654 40:0.027176 41:0.074816 42:0.055926 43:0.059589 44:0.28599 45:0.61474 46:0.81925 47:0.46627 48:0.54259 
0.4956848906992687 1 1:0.14932 2:0.06223 3:0.34297 4:0.07457 5:0.01082 6:0.065676 7:0.81904 8:0.37045 9:0.94273 10:0.42265 11:0.16977 12:0.11613 13:0.26721 14:0.35873 15:0.44801 16:0.21922 17:0.14528 18:0.15351 19:0.31556 20:0.90629 21:0.46668 22:0.96038 23:0.41509 24:0.86886 25:0.50488 26:0.64153 27:0.30376 28:0.716 29:0.26754 30:0.5538 31:0.72487 32:0.52259 33:0.91493 34:0.32087 35:0.53939 36:0.85387 37:0.6664 38:0.20684 39:0.18108 40:0.26134 41:0.61577 42:0.29254 43:0.7141 44:0.31352 45:0.65186 46:0.41899 47:0.7463 48:0.37644 
1 1 1:0.74428 2:0.79761 3:0.56191 4:0.15256 5:0.42216 6:0.10519 7:0.73829 8:0.21057 9:0.6139 10:0.23959 11:0.96882 12:0.60832 13:0.7807 14:0.92478 15:0.74775 16:0.018854 17:0.48703 18:0.81722 19:0.90586 20:0.23247 21:0.088381 22:0.62703 23:0.63811 24:0.17138 25:0.56307 26:0.33443 27:0.0714 28:0.44939 29:0.29513 30:0.3229 31:0.81192 32:0.0071935 33:0.87057 34:0.42361 35:0.71158 36:0.70742 37:0.69137 38:0.15768 39:0.77938 40:0.8669 41:0.093864 42:0.57221 43:0.37742 44:0.96762 45:0.37784 46:0.4494 47:0.49448 48:0.50042 
0.626200434773861 1 1:0.57867 2:0.050177 3:0.64843 4:0.26897 5:0.16239 6:0.25841 7:0.24684 8:0.7076 9:0.88809 10:0.13278 11:0.16385 12:0.73545 13:0.69139 14:0.40542 15:0.96389 16:0.87804 17:0.84193 18:0.13443 19:0.95665 20:0.99892 21:0.91237 22:0.76709 23:0.62376 24:0.45232 25:0.81392 26:0.25848 27:0.41016 28:0.83326 29:0.68249 30:0.86574 31:0.57135 32:0.38502 33:0.54468 34:0.035679 35:0.7953 36:0.14061 37:0.3649 38:0.052952 39:0.77706 40:0.66765 41:0.71623 42:0.86977 43:0.11216 44:0.57585 45:0.044395 46:0.17783 47:0.47077 48:0.24515 
1 1 1:0.074123 2:0.79373 3:0.59306 4:0.49514 5:0.79675 6:0.95019 7:0.67136 8:0.86331 9:0.77573 10:0.46048 11:0.89242 12:0.77553 13:0.21977 14:0.95525 15:0.43424 16:0.56107 17:0.81828 18:0.28771 19:0.16672 20:0.63048 21:0.38519 22:0.054811 23:0.75013 24:0.357 25:0.59477 26:0.43114 27:0.83147 28:0.21198 29:0.65544 30:0.4972 31:0.51856 32:0.46037 33:0.63993 34:0.11435 35:0.46606 36:0.90554 37:0.65454 38:0.80012 39:0.89421 40:0.0341 41:0.13563 42:0.46178 43:0.72681 44:0.48215 45:0.83884 46:0.31164 47:0.51372 48:0.17628 
1 1 1:0.83794 2:0.7884 3:0.10639 4:0.58623 5:0.23895 6:0.85211 7:0.89249 8:0.59719 9:0.42021 10:0.92229 11:0.77666 12:0.42922 13:0.54976 14:0.42092 15:0.53185 16:0.67495 17:0.54748 18:0.66274 19:0.35098 20:0.070555 21:0.28521 22:0.55559 23:0.83494 24:0.36273 25:0.34842 26:0.22981 27:0.25172 28:0.75009 29:0.99531 30:0.77957 31:0.11165 32:0.50787 33:0.33604 34:0.56347 35:0.45716 36:0.089457 37:0.64721 38:0.7825 39:0.94987 40:0.81797 41:0.66367 42:0.80267 43:0.36034 44:0.4767 45:0.60997 46:0.63689 47:0.33089 48:0.94324 
1 1 1:0.87039 2:0.88949 3:0.53915 4:0.49166 5:0.28339 6:0.58314 7:0.84199 8:0.73213 9:0.4519 10:0.1924 11:0.16114 12:0.83031 13:0.80139 14:0.1935 15:0.15307 16:0.0033631 17:0.1768 18:0.12032 19:0.097658 20:0.13355 21:0.74746 22:0.84984 23:0.1928 24:0.84779 25:0.43484 26:0.88952 27:0.68443 28:0.1931 29:0.9302 30:0.81059 31:0.25148 32:0.3485 33:0.22983 34:0.26791 35:0.5622 36:0.14334 37:0.039207 38:0.86318 39:0.009982 40:0.27278 41:0.21421 42:0.89588 43:0.87607 44:0.77368 45:0.94686 46:0.075039 47:0.78546 48:0.22899 
0.2815368827275351 1 1:0.99269 2:0.47389 3:0.08187 4:0.18882 5:0.84471 6:0.10378 7:0.17903 8:0.16936 9:0.95787 10:0.13544 11:0.6324 12:0.24268 13:0.43077 14:0.63263 15:0.25693 16:0.96192 17:0.40655 18:0.10974 19:0.34839 20:0.15019 21:0.68805 22:0.056302 23:0.13334 24:0.61876 25:0.61917 26:0.713 27:0.6533 28:0.54879 29:0.98078 30:0.38066 31:0.47122 32:0.38782 33:0.34448 34:0.14519 35:0.0044771 36:0.87087 37:0.91653 38:0.41745 39:0.48738 40:0.93629 41:0.95799 42:0.30648 43:0.60515 44:0.64014 45:0.19018 46:0.56852 47:0.79832 48:0.25814 
1 1 1:0.090579 2:0.49455 3:0.86961 4:0.44261 5:0.78808 6:0.14356 7:0.81756 8:0.45199 9:0.47968 10:0.52278 11:0.342 12:0.12642 13:0.74359 14:0.38541 15:0.62676 16:0.41035 17:0.020946 18:0.33235 19:0.14764 20:0.026949 21:0.3208 22:0.178 23:0.22361 24:0.20102 25:0.59344 26:0.91846 27:0.89207 28:0.11935 29:0.17854 30:0.0020325 31:0.37683 32:0.86102 33:0.12137 34:0.10925 35:0.32325 36:0.98595 37:0.076103 38:0.84788 39:0.14136 40:0.2031 41:0.50871 42:0.35163 43:0.28362 44:0.95529 45:0.66544 46:0.38941 47:0.90648 48:0.95865 
1 1 1:0.41129 2:0.52445 3:0.38358 4:0.029467 5:0.82641 6:0.1037 7:0.52251 8:0.40136 9:0.50147 10:0.29184 11:0.02559 12:0.701 13:0.56218 14:0.77825 15:0.51784 16:0.53483 17:0.98514 18:0.85104 19:0.82266 20:0.16373 21:0.84845 22:0.93438 23:0.28115 24:0.21952 25:0.63529 26:0.021865 27:0.70679 28:0.30236 29:0.072337 30:0.22343 31:0.96275 32:0.05227 33:0.73974 34:0.55219 35:0.85644 36:0.19058 37:0.72226 38:0.36257 39:0.91709 40:0.31454 41:0.39495 42:0.35819 43:0.95432 44:0.27564 45:0.21339 46:0.68997 47:0.64802 48:0.27226 
1 1 1:0.49063 2:0.10393 3:0.79253 4:0.22161 5:0.84994 6:0.0061972 7:0.73374 8:0.3216 9:0.44289 10:0.18754 11:0.48585 12:0.075745 13:0.16089 14:0.815 15:0.76603 16:0.48032 17:0.042312 18:0.11588 19:0.43073 20:0.25561 21:0.43504 22:0.093155 23:0.68129 24:0.54385 25:0.74071 26:0.44455 27:0.50329 28:0.93818 29:0.51162 30:0.038355 31:0.60519 32:0.09769 33:0.98883 34:0.41841 35:0.77866 36:0.85659 37:0.018272 38:0.22679 39:0.746 40:0.33856 41:0.97193 42:0.18613 43:0.99725 44:0.85419 45:0.15188 46:0.78185 47:0.14968 48:0.65525 
1 1 1:0.69983 2:0.040107 3:0.75121 4:0.37833 5:0.48158 6:0.27265 7:0.49738 8:0.96719 9:0.62586 10:0.70481 11:0.13442 12:0.72837 13:0.22042 14:0.71366 15:0.29844 16:0.67823 17:0.65661 18:0.47617 19:0.13689 20:0.45006 21:0.32595 22:0.91013 23:0.46091 24:0.55162 25:0.84035 26:0.0093006 27:0.49924 28:0.78427 29:0.049478 30:0.070308 31:0.94607 32:0.51645 33:0.73551 34:0.2405 35:0.11984 36:0.24992 37:0.2066 38:0.70252 39:0.32736 40:0.262 41:0.73578 42:0.98013 43:0.2336 44:0.32462 45:0.41297 46:0.19166 47:0.43666 48:0.34495 
0.3357664296599783 1 1:0.50685 2:0.12377 3:0.39911 4:0.22644 5:0.29666 6:0.72855 7:0.62523 8:0.40339 9:0.16344 10:0.50231 11:0.35535 12:0.56292 13:0.36123 14:0.59478 15:0.25474 16:0.60033 17:0.99975 18:0.47791 19:0.62143 20:0.68749 21:0.93083 22:0.9919 23:0.050593 24:0.7401 25:0.29992 26:0.26219 27:0.64726 28:0.075128 29:0.82748 30:0.99406 31:0.29386 32:0.41905 33:0.60629 34:0.22208 35:0.55075 36:0.46215 37:0.68039 38:0.0074302 39:0.33479 40:0.25585 41:0.21675 42:0.98784 43:0.69926 44:0.96452 45:0.066604 46:0.76771 47:0.48054 48:0.42932 
1 1 1:0.91104 2:0.39062 3:0.51894 4:0.41925 5:0.18762 6:0.5854 7:0.18764 8:0.63902 9:0.5957 10:0.41474 11:0.20234 12:0.36812 13:0.87036 14:0.63925 15:0.069964 16:0.61957 17:0.4095 18:0.37947 19:0.50608 20:0.17779 21:0.80699 22:0.37505 23:0.87036 24:0.84189 25:0.41933 26:0.94614 27:0.0043049 28:0.6867 29:0.066782 30:0.21898 31:0.88259 32:0.23422 33:0.8483 34:0.0069633 35:0.30938 36:0.58819 37:0.44316 38:0.36789 39:0.55388 40:0.33676 41:0.80314 42:0.53891 43:0.13831 44:0.73355 45:0.98127 46:0.94223 47:0.27755 48:0.965 
1 1 1:0.60326 2:0.48911 3:0.24543 4:0.091529 5:0.8753 6:0.39936 7:0.11192 8:0.52137 9:0.29986 10:0.14759 11:0.51319 12:0.63251 13:0.8315 14:0.23871 15:0.80484 16:0.55426 17:0.57604 18:0.17919 19:0.14603 20:0.52313 21:0.73886 22:0.53239 23:0.030742 24:0.02229 25:0.8437 26:0.93803 27:0.028162 28:0.36198 29:0.82465 30:0.69635 31:0.24906 32:0.52923 33:0.040513 34:0.78128 35:0.4144 36:0.022608 37:0.22262 38:0.87505 39:0.53851 40:0.71803 41:0.096045 42:0.55271 43:0.44997 44:0.72574 45:0.87962 46:0.61706 47:0.64614 48:0.30502 
0.7914145782672171 1 1:0.43692 2:0.44727 3:0.76527 4:0.63353 5:0.33185 6:0.36885 7:0.0090304 8:0.59377 9:0.55614 10:0.81249 11:0.23882 12:0.38579 13:0.22531 14:0.10707 15:0.30944 16:0.29184 17:0.93435 18:0.79773 19:0.7363 20:0.8676 21:0.6274 22:0.03845 23:0.1092 24:0.37418 25:0.58585 26:0.57221 27:0.72366 28:0.79663 29:0.76179 30:0.62001 31:0.38863 32:0.69036 33:0.9485 34:0.69249 35:0.91706 36:0.3598 37:0.84136 38:0.23775 39:0.45178 40:0.44102 41:0.11443 42:0.89237 43:0.64639 44:0.8523 45:0.49224 46:0.413 47:0.041815 48:0.58718 
1 1 1:0.23281 2:0.195 3:0.092338 4:0.42137 5:0.27099 6:0.8095 7:0.39122 8:0.16618 9:0.96509 10:0.58529 11:0.78131 12:0.098736 13:0.042047 14:0.23254 15:0.47764 16:0.090724 17:0.88395 18:0.18216 19:0.27311 20:0.31054 21:0.038477 22:0.90807 23:0.76445 24:0.33881 25:0.33056 26:0.8861 27:0.67684 28:0.17327 29:0.21308 30:0.35801 31:0.017917 32:0.77543 33:0.78536 34:0.70944 35:0.90068 36:0.36332 37:0.34418 38:0.079343 39:0.44986 40:0.71707 41:0.57969 42:0.92182 43:0.034247 44:0.22993 45:0.92958 46:0.35277 47:0.63274 48:0.2141 
1 1 1:0.097304 2:0.18776 3:0.48053 4:0.068273 5:0.58846 6:0.030588 7:0.62167 8:0.73526 9:0.9535 10:0.1271 11:0.7008 12:0.8101 13:0.73073 14:0.85242 15:0.50431 16:0.93524 17:0.67588 18:0.61175 19:0.17502 20:0.56651 21:0.36097 22:0.53578 23:0.26063 24:0.87095 25:0.72995 26:0.085557 27:0.4865 28:0.11064 29:0.35359 30:0.4923 31:0.68056 32:0.64014 33:0.41702 34:0.95079 35:0.76871 36:0.61331 37:0.6922 38:0.10742 39:0.7385 40:0.98919 41:0.066527 42:0.37398 43:0.4338 44:0.13685 45:0.50287 46:0.30697 47:0.75647 48:0.1738 
-1 1 1:0.2438 2:0.51812 3:0.13513 4:0.51737 5:0.93764 6:0.91848 7:0.80537 8:0.6561 9:0.050157 10:0.96851 11:0.61597 12:0.72323 13:0.3138 14:0.52402 15:0.54663 16:0.42734 17:0.52051 18:0.53175 19:0.85132 20:0.23151 21:0.0082949 22:0.32304 23:0.13433 24:0.18431 25:0.63344 26:0.598 27:0.61937 28:0.84423 29:0.095057 30:0.023452 31:0.60124 32:0.34918 33:0.25469 34:0.45223 35:0.50689 36:0.24108 37:0.11555 38:0.23413 39:0.87823 40:0.20577 41:0.4318 42:0.91556 43:0.37042 44:0.29418 45:0.24934 46:0.95804 47:0.83542 48:0.10151 
-1 1 1:0.13788 2:0.011891 3:0.22617 4:0.26167 5:0.20718 6:0.77353 7:0.0088793 8:0.97414 9:0.84952 10:0.43781 11:0.47272 12:0.85408 13:0.71103 14:0.047755 15:0.82547 16:0.61762 17:0.1295 18:0.56166 19:0.49848 20:0.063027 21:0.63628 22:0.067494 23:0.1914 24:0.024481 25:0.84718 26:0.33163 27:0.75571 28:0.23421 29:0.21757 30:0.25315 31:0.77698 32:0.13671 33:0.63018 34:0.2582 35:0.93359 36:0.020122 37:0.42938 38:0.34775 39:0.22668 40:0.73446 41:0.26198 42:0.42183 43:0.0036335 44:0.86556 45:0.65988 46:0.71322 47:0.14491 48:0.99706 
-1 1 1:0.53134 2:0.662 3:0.47446 4:0.33818 5:0.16168 6:0.56483 7:0.52253 8:0.12108 9:0.86483 10:0.59499 11:0.88545 12:0.56331 13:0.30263 14:0.80929 15:0.92961 16:0.29742 17:0.4152 18:0.69636 19:0.045714 20:0.73122 21:0.56053 22:0.72773 23:0.15989 24:0.85534 25:0.094275 26:0.66461 27:0.33108 28:0.22922 29:0.46332 30:0.90534 31:0.65276 32:0.66035 33:0.017202 34:0.71734 35:0.068614 36:0.16837 37:0.77157 38:0.53837 39:0.92781 40:0.87714 41:0.10219 42:0.63672 43:0.36945 44:0.94422 45:0.99037 46:0.17612 47:0.53486 48:0.65668 
-1 1 1:0.90475 2:0.081796 3:0.2606 4:0.079708 5:0.51436 6:0.48641 7:0.18758 8:0.17379 9:0.45619 10:0.80635 11:0.87793 12:0.78071 13:0.96711 14:0.87678 15:0.72453 16:0.89788 17:0.65318 18:0.33326 19:0.15603 20:0.74609 21:0.15699 22:0.40273 23:0.80192 24:0.24005 25:0.71409 26:0.69824 27:0.69465 28:0.39587 29:0.37071 30:0.0049929 31:0.13873 32:0.40734 33:0.3772 34:0.37856 35:0.098931 36:0.58573 37:0.050443 38:0.75588 39:0.31212 40:0.51159 41:0.71778 42:0.82737 43:0.33305 44:0.049229 45:0.29093 46:0.93277 47:0.67245 48:0.44046 
-1 1 1:0.78749 2:0.0022105 3:0.90871 4:0.85957 5:0.41846 6:0.77201 7:0.85962 8:0.85258 9:0.036565 10:0.76377 11:0.3837 12:0.29308 13:0.20071 14:0.91966 15:0.1403 16:0.30594 17:0.80326 18:0.80693 19:0.062207 20:0.1191 21:0.19171 22:0.15258 23:0.43683 24:0.22887 25:0.46822 26:0.77548 27:0.19919 28:0.65173 29:0.85293 30:0.24173 31:0.13169 32:0.55052 33:0.30026 34:0.6275 35:0.42691 36:0.12589 37:0.0077306 38:0.38395 39:0.21972 40:0.06508 41:0.85683 42:0.069611 43:0.44454 44:0.31401 45:0.37523 46:0.74983 47:0.7999 48:0.040796 
-1 1 1:0.74749 2:0.13796 3:0.25891 4:0.31071 5:0.52363 6:0.56876 7:0.73996 8:0.19355 9:0.076132 10:0.97614 11:0.029261 12:0.51151 13:0.085686 14:0.69737 15:0.79548 16:0.31838 17:0.8677 18:0.53902 19:0.23748 20:0.68536 21:0.26991 22:0.49274 23:0.051235 24:0.86587 25:0.86144 26:0.24961 27:0.30969 28:0.29301 29:0.96504 30:0.7411 31:0.19538 32:0.47816 33:0.98464 34:0.2452 35:0.24448 36:0.048485 37:0.3062 38:0.74631 39:0.22604 40:0.34414 41:0.20876 42:0.65812 43:0.060985 44:0.76201 45:0.72653 46:0.60654 47:0.40015 48:0.6656 
-1 1 1:0.48312 2:0.93918 3:0.72612 4:0.93133 5:0.45157 6:0.86421 7:0.5146 8:0.74266 9:0.6549 10:0.8094 11:0.54746 12:0.51054 13:0.60511 14:0.69474 15:0.69971 16:0.8268 17:0.22676 18:0.33673 19:0.66016 20:0.2482 21:0.1785 22:0.11095 23:0.43898 24:0.53263 25:0.75057 26:0.6214 27:0.77586 28:0.51076 29:0.59343 30:0.7163 31:0.14596 32:0.079259 33:0.28141 34:0.64222 35:0.52648 36:0.587 37:0.44212 38:0.78503 39:0.89685 40:0.084715 41:0.54337 42:0.93825 43:0.80226 44:0.17886 45:0.42454 46:0.64738 47:0.4514 48:0.23805 
-1 1 1:0.77356 2:0.18018 3:0.68177 4:0.21999 5:0.023625 6:0.36064 7:0.23718 8:0.7467 9:0.77545 10:0.57265 11:0.53663 12:0.91582 13:0.20853 14:0.55746 15:0.33378 16:0.1656 17:0.063033 18:0.737 19:0.058174 20:0.20158 21:0.98253 22:0.35017 23:0.78249 24:0.51085 25:0.25082 26:0.34557 27:0.66891 28:0.85502 29:0.76884 30:0.56194 31:0.79109 32:0.22769 33:0.70356 34:0.1646 35:0.87955 36:0.9762 37:0.047202 38:0.57589 39:0.79381 40:0.87627 41:0.14035 42:0.018791 43:0.24636 44:0.091455 45:0.78734 46:0.60994 47:0.79246 48:0.74096 
-1 1 1:0.016202 2:0.57641 3:0.92306 4:0.022694 5:0.74564 6:0.69672 7:0.9249 8:0.28326 9:0.71612 10:0.52205 11:0.015389 12:0.42956 13:0.57762 14:0.79555 15:0.44474 16:0.12689 17:0.70404 18:0.064958 19:0.98578 20:0.23578 21:0.093127 22:0.55576 23:0.31474 24:0.67429 25:0.22229 26:0.96889 27:0.41247 28:0.64727 29:0.95595 30:0.30993 31:0.56108 32:0.48585 33:0.67651 34:0.23111 35:0.83468 36:0.6591 37:0.47258 38:0.69905 39:0.1163 40:0.90113 41:0.10694 42:0.76041 43:0.98249 44:0.85214 45:0.27755 46:0.054849 47:0.51028 48:0.13946 
-1 1 1:0.88367 2:0.46661 3:0.80907 4:0.28216 5:0.38357 6:0.25022 7:0.23668 8:0.93556 9:0.89656 10:0.26786 11:0.2794 12:0.79685 13:0.35051 14:0.64361 15:0.10881 16:0.87363 17:0.50425 18:0.48973 19:0.53933 20:0.89471 21:0.18122 22:0.7865 23:0.80354 24:0.80441 25:0.81649 26:0.67842 27:0.54411 28:0.95818 29:0.882 30:0.55637 31:0.12331 32:0.36904 33:0.69558 34:0.73684 35:0.2491 36:0.13381 37:0.54956 38:0.7912 39:0.87681 40:0.65939 41:0.26311 42:0.66727 43:0.035373 44:0.16998 45:0.28949 46:0.20327 47:0.68478 48:0.07858 
-1 1 1:0.26856 2:0.89517 3:0.24227 4:0.43598 5:0.40337 6:0.61872 7:0.56644 8:0.32557 9:0.51944 10:0.27173 11:0.42787 12:0.32944 13:0.89541 14:0.96924 15:0.61323 16:0.64404 17:0.069979 18:0.13011 19:0.42667 20:0.36966 21:0.49712 22:0.53035 23:0.60961 24:0.92146 25:0.56121 26:0.98898 27:0.73751 28:0.20885 29:0.52496 30:0.40384 31:0.46086 32:0.761 33:0.099496 34:0.29912 35:0.37563 36:0.42233 37:0.92725 38:0.57742 39:0.52178 40:0.84085 41:0.047586 42:0.67475 43:0.55829 44:0.89514 45:0.67191 46:0.62084 47:0.20346 48:0.5356 
-1 1 1:0.8814 2:0.80145 3:0.95969 4:0.88412 5:0.11028 6:0.72643 7:0.80871 8:0.093993 9:0.45531 10:0.29146 11:0.4784 12:0.63266 13:0.96251 14:0.15303 15:0.92126 16:0.64131 17:0.092642 18:0.9467 19:0.56768 20:0.084379 21:0.43513 22:0.49782 23:0.12202 24:0.40018 25:0.51882 26:0.92304 27:0.53469 28:0.11782 29:0.22905 30:0.445 31:0.47721 32:0.95564 33:0.73597 34:0.20332 35:0.10632 36:0.54616 37:0.90708 38:0.8337 39:0.21566 40:0.51226 41:0.66256 42:0.40222 43:0.13211 44:0.25641 45:0.20982 46:0.3311 47:0.16752 48:0.8398 
-1 1 1:0.5925 2:0.22283 3:0.043967 4:0.80911 5:0.0020507 6:0.11626 7:0.92445 8:0.89693 9:0.12828 10:0.29863 11:0.37508 12:0.21496 13:0.82925 14:0.1592 15:0.95276 16:0.29987 17:0.64923 18:0.63861 19:0.30999 20:0.23299 21:0.16851 22:0.95271 23:0.9873 24:0.66652 25:0.41703 26:0.67653 27:0.79676 28:0.93691 29:0.17335 30:0.078146 31:0.17228 32:0.82377 33:0.58317 34:0.6255 35:0.40849 36:0.17782 37:0.58029 38:0.51187 39:0.96911 40:0.53128 41:0.73613 42:0.2801 43:0.69184 44:0.72632 45:0.51649 46:0.88463 47:0.86529 48:0.27299 
-1 1 1:0.30792 2:0.078109 3:0.58501 4:0.30567 5:0.63439 6:0.53025 7:0.54591 8:0.13002 9:0.21313 10:0.69417 11:0.049435 12:0.85259 13:0.84298 14:0.64213 15:0.81929 16:0.085744 17:0.72585 18:0.42149 19:0.61159 20:0.33369 21:0.13203 22:0.39062 23:0.092073 24:0.0698 25:0.16318 26:0.042953 27:0.57367 28:0.55145 29:0.91585 30:0.39511 31:0.49322 32:0.5715 33:0.44176 34:0.4847 35:0.91654 36:0.6018 37:0.56401 38:0.78609 39:0.91447 40:0.36336 41:0.37487 42:0.70955 43:0.82781 44:0.78946 45:0.17203 46:0.35448 47:0.15844 48:0.71856 
-1 1 1:0.46664 2:0.46975 3:0.46036 4:0.68241 5:0.67947 6:0.014015 7:0.74205 8:0.10661 9:0.10144 10:0.048271 11:0.77221 12:0.016064 13:0.65461 14:0.27889 15:0.64978 16:0.87293 17:0.66224 18:0.13283 19:0.0040593 20:0.02203 21:0.29316 22:0.46298 23:0.8361 24:0.36596 25:0.3416 26:0.52957 27:0.12111 28:0.10929 29:0.38855 30:0.19142 31:0.033872 32:0.14964 33:0.25842 34:0.95687 35:0.14583 36:0.64392 37:0.43439 38:0.72922 39:0.61265 40:0.43928 41:0.76705 42:0.65655 43:0.6352 44:0.38622 45:0.8982 46:0.7686 47:0.64737 48:0.8259 
-1 1 1:0.32962 2:0.57827 3:0.2054 4:0.22474 5:0.73407 6:0.7719 7:0.55435 8:0.63654 9:0.029282 10:0.075439 11:0.38375 12:0.47066 13:0.43584 14:0.30467 15:0.8657 16:0.63403 17:0.95808 18:0.61326 19:0.29912 20:0.017928 21:0.64012 22:0.40773 23:0.98257 24:0.764 25:0.46162 26:0.92318 27:0.67793 28:0.2176 29:0.63699 30:0.67928 31:0.051819 32:0.88687 33:0.28287 34:0.36296 35:0.68515 36:0.1569 37:0.41413 38:0.72487 39:0.64371 40:0.10061 41:0.03268 42:0.46883 43:0.073157 44:0.15096 45:0.81356 46:0.30936 47:0.0072184 48:0.668 
-1 1 1:0.59872 2:0.81155 3:0.021041 4:0.39674 5:0.49745 6:0.1041 7:0.78908 8:0.23414 9:0.19124 10:0.84711 11:0.81225 12:0.94321 13:0.51051 14:0.20076 15:0.34667 16:0.36694 17:0.67108 18:0.20865 19:0.27364 20:0.53023 21:0.10572 22:0.90452 23:0.76487 24:0.86566 25:0.41094 26:0.45646 27:0.11598 28:0.42997 29:0.64351 30:0.14722 31:0.76355 32:0.17222 33:0.14581 34:0.036228 35:0.57559 36:0.91204 37:0.073095 38:0.87185 39:0.54732 40:0.23009 41:0.97708 42:0.99422 43:0.7218 44:0.32036 45:0.8398 46:0.9064 47:0.36859 48:0.19885 
-1 1 1:0.16877 2:0.073641 3:0.14857 4:0.3537 5:0.23379 6:0.61551 7:0.34452 8:0.54914 9:0.48319 10:0.94273 11:0.53735 12:0.46266 13:0.84436 14:0.70203 15:0.59659 16:0.39456 17:0.98105 18:0.43377 19:0.86969 20:0.15095 21:0.2509 22:0.24148 23:0.6988 24:0.021234 25:0.36092 26:0.98398 27:0.35681 28:0.35164 29:0.60188 30:0.14091 31:0.23421 32:0.65817 33:0.05468 34:0.35239 35:0.45405 36:0.70258 37:0.609 38:0.14289 39:0.93517 40:0.066031 41:0.05325 42:0.20933 43:0.71356 44:0.78733 45:0.021681 46:0.030026 47:0.89266 48:0.85743 
-1 1 1:0.13096 2:0.36926 3:0.44543 4:0.76261 5:0.40578 6:0.41336 7:0.19487 8:0.038203 9:0.63749 10:0.62473 11:0.1696 12:0.30048 13:0.41882 14:0.85967 15:0.68324 16:0.78294 17:0.50197 18:0.51513 19:0.54849 20:0.33078 21:0.32639 22:0.21861 23:0.77088 24:0.66365 25:0.50829 26:0.12737 27:0.49123 28:0.79286 29:0.7154 30:0.32336 31:0.18152 32:0.64623 33:0.49326 34:0.435 35:0.33619 36:0.099425 37:0.40323 38:0.79362 39:0.51473 40:0.25228 41:0.91557 42:0.50253 43:0.84931 44:0.44732 45:0.80264 46:0.44516 47:0.72466 48:0.07244 
-1 1 1:0.59089 2:0.96637 3:0.039503 4:0.55468 5:0.96266 6:0.38172 7:0.68844 8:0.34752 9:0.66399 10:0.95665 11:0.79013 12:0.55489 13:0.2796 14:0.93151 15:0.016369 16:0.88911 17:0.99238 18:0.9239 19:0.10551 20:0.5903 21:0.064204 22:0.72592 23:0.50544 24:0.30975 25:0.79436 26:0.10825 27:0.077199 28:0.86787 29:0.50511 30:0.93335 31:0.5696 32:0.20144 33:0.46084 34:0.14868 35:0.27368 36:0.41162 37:0.11149 38:0.92268 39:0.61935 40:0.46576 41:0.065527 42:0.43251 43:0.77512 44:0.20571 45:0.33503 46:0.68356 47:0.10193 48:0.71948 
-1 1 1:0.45326 2:0.3638 3:0.06508 4:0.63006 5:0.8946 6:0.46477 7:0.45378 8:0.34896 9:0.38502 10:0.84832 11:0.69036 12:0.0074875 13:0.1687 14:0.47729 15:0.63964 16:0.65157 17:0.46289 18:0.24731 19:0.79653 20:0.33827 21:0.62083 22:0.90084 23:0.30942 24:0.16962 25:0.6434 26:0.87193 27:0.82073 28:0.11807 29:0.032544 30:0.77277 31:0.20783 32:0.37773 33:0.071589 34:0.057721 35:0.8171 36:0.10716 37:0.15645 38:0.34243 39:0.97705 40:0.64096 41:0.38924 42:0.59425 43:0.01915 44:0.74699 45:0.8233 46:0.89196 47:0.17785 48:0.29168 
-1 1 1:0.46541 2:0.055572 3:0.59468 4:0.65184 5:0.84295 6:0.31511 7:0.64246 8:0.97311 9:0.12681 10:0.25057 11:0.98942 12:0.41629 13:0.64023 14:0.56017 15:0.91582 16:0.92702 17:0.64432 18:0.2547 19:0.59826 20:0.82222 21:0.46671 22:0.64353 23:0.88881 24:0.29076 25:0.94949 26:0.6091 27:0.83298 28:0.92032 29:0.14727 30:0.32319 31:0.6805 32:0.48705 33:0.51614 34:0.96412 35:0.9825 36:0.95168 37:0.8494 38:0.89488 39:0.061343 40:0.94919 41:0.11931 42:0.62386 43:0.91625 44:0.81454 45:0.046417 46:0.629 47:0.68517 48:0.46017 
-1 1 1:0.55218 2:0.1712 3:0.59129 4:0.58137 5:0.52173 6:0.75497 7:0.93467 8:0.62411 9:0.64641 10:0.15899 11:0.8248 12:0.86214 13:0.075191 14:0.61087 15:0.2292 16:0.21003 17:0.26876 18:0.32062 19:0.15898 20:0.75927 21:0.81706 22:0.74874 23:0.47211 24:0.035947 25:0.74277 26:0.77334 27:0.81241 28:0.81827 29:0.86591 30:0.27245 31:0.36322 32:0.31656 33:0.19267 34:0.84736 35:0.77554 36:0.48768 37:0.027295 38:0.51825 39:0.61464 40:0.071308 41:0.27659 42:0.64129 43:0.85537 44:0.66908 45:0.082319 46:0.61884 47:0.13855 48:0.75423 
-1 1 1:0.99745 2:0.8468 3:0.032921 4:0.066459 5:0.51569 6:0.4296 7:0.30065 8:0.88463 9:0.31341 10:0.71175 11:0.85327 12:0.79689 13:0.19871 14:0.81032 15:0.67777 16:0.39138 17:0.14922 18:0.98901 19:0.094513 20:0.74378 21:0.42554 22:0.96373 23:0.04788 24:0.61675 25:0.26837 26:0.57709 27:0.050491 28:0.064089 29:0.66051 30:0.19255 31:0.92237 32:0.64828 33:0.9673 34:0.19268 35:0.48085 36:0.50823 37:0.22386 38:0.11311 39:0.27721 40:0.53474 41:0.87923 42:0.42142 43:0.62431 44:0.30141 45:0.81282 46:0.90441 47:0.64483 48:0.81763 
-1 1 1:0.6203 2:0.2699 3:0.011001 4:0.073995 5:0.67808 6:0.92398 7:0.09827 8:0.84492 9:0.80417 10:0.24243 11:0.63082 12:0.91913 13:0.77657 14:0.17877 15:0.39423 16:0.24282 17:0.53019 18:0.48598 19:0.73644 20:0.39816 21:0.69819 22:0.42409 23:0.75614 24:0.98689 25:0.91806 26:0.79414 27:0.20496 28:0.63677 29:0.36278 30:0.88795 31:0.84044 32:0.52647 33:0.7962 34:0.63626 35:0.27147 36:0.14035 37:0.14319 38:0.90387 39:0.56382 40:0.9227 41:0.3203 42:0.24244 43:0.58133 44:0.12435 45:0.43811 46:0.54115 47:0.68088 48:0.44616 
-1 1 1:0.46938 2:0.3145 3:0.44239 4:0.51506 5:0.014254 6:0.99271 7:0.4169 8:0.29715 9:0.48728 10:0.8295 11:0.84301 12:0.41474 13:0.74175 14:0.25493 15:0.26825 16:0.58301 17:0.85207 18:0.36172 19:0.43251 20:0.25605 21:0.46596 22:0.57103 23:0.70812 24:0.34723 25:0.42394 26:0.70354 27:0.5594 28:0.20877 29:0.6232 30:0.11294 31:0.97636 32:0.31322 33:0.86957 34:0.93874 35:0.40704 36:0.3817 37:0.44019 38:0.065118 39:0.71983 40:0.77386 41:0.48223 42:0.6809 43:0.97428 44:0.33494 45:0.72268 46:0.72569 47:0.31805 48:0.80656 
-1 1 1:0.21673 2:0.27749 3:0.43215 4:0.30285 5:0.55294 6:0.80972 7:0.5256 8:0.049035 9:0.4072 10:0.51629 11:0.32532 12:0.59324 13:0.59364 14:0.25307 15:0.98404 16:0.025546 17:0.01013 18:0.16636 19:0.48565 20:0.91712 21:0.95615 22:0.62946 23:0.097089 24:0.9617 25:0.67405 26:0.80522 27:0.88016 28:0.61474 29:0.058443 30:0.99363 31:0.074843 32:0.88447 33:0.74454 34:0.012948 35:0.32707 36:0.12645 37:0.040869 38:0.556 39:0.72632 40:0.14456 41:0.65012 42:0.4634 43:0.53079 44:0.38976 45:0.72527 46:0.5466 47:0.13764 48:0.011506 
-1 1 1:0.093267 2:0.26415 3:0.26859 4:0.27647 5:0.73698 6:0.16568 7:0.92986 8:0.23362 9:0.26078 10:0.66316 11:0.79246 12:0.24892 13:0.47942 14:0.1184 15:0.4779 16:0.7306 17:0.5862 18:0.88554 19:0.42527 20:0.89719 21:0.12274 22:0.81428 23:0.85762 24:0.12457 25:0.29645 26:0.12565 27:0.58079 28:0.6723 29:0.35105 30:0.14127 31:0.088036 32:0.80815 33:0.99778 34:0.89465 35:0.53704 36:0.39385 37:0.72079 38:0.85366 39:0.18252 40:0.76875 41:0.93581 42:0.01938 43:0.58524 44:0.94711 45:0.37993 46:0.41012 47:0.10166 48:0.60073 
-1 1 1:0.78161 2:0.7518 3:0.47604 4:0.92946 5:0.48874 6:0.13904 7:0.82104 8:0.09172 9:0.56674 10:0.80859 11:0.63065 12:0.040083 13:0.38402 14:0.206 15:0.40928 16:0.86768 17:0.29922 18:0.58006 19:0.14763 20:0.72687 21:0.57467 22:0.72274 23:0.89655 24:0.42928 25:0.054222 26:0.36646 27:0.65917 28:0.69467 29:0.48984 30:0.15743 31:0.95332 32:0.10647 33:0.44993 34:0.95284 35:0.68802 36:0.4787 37:0.82352 38:0.43331 39:0.3956 40:0.50988 41:0.46242 42:0.70808 43:0.85985 44:0.28314 45:0.63377 46:0.78213 47:0.61711 48:0.68735 
-1 1 1:0.32405 2:0.84426 3:0.32535 4:0.95648 5:0.68832 6:0.88575 7:0.74055 8:0.55031 9:0.40452 10:0.32535 11:0.30801 12:0.30115 13:0.49115 14:0.97426 15:0.42235 16:0.86588 17:0.77875 18:0.33551 19:0.8012 20:0.58406 21:0.51447 22:0.94993 23:0.40409 24:0.27087 25:0.94999 26:0.92623 27:0.60367 28:0.15939 29:0.24905 30:0.21833 31:0.78329 32:0.028843 33:0.25466 34:0.23088 35:0.69913 36:0.47393 37:0.63047 38:0.5137 39:0.37632 40:0.94481 41:0.37333 42:0.78176 43:0.19988 44:0.27309 45:0.8606 46:0.038643 47:0.80975 48:0.52095 
-1 -0.895710169340255 1:0.39371 2:0.35594 3:0.38741 4:0.57251 5:0.49212 6:0.78501 7:0.89145 8:0.6935 9:0.17836 10:0.93398 11:0.6954 12:0.056328 13:0.90292 14:0.89852 15:0.49433 16:0.019603 17:0.094672 18:0.51072 19:0.64965 20:0.53518 21:0.70275 22:0.79099 23:0.63945 24:0.71546 25:0.21783 26:0.025063 27:0.21893 28:0.019348 29:0.71711 30:0.77036 31:0.31496 32:0.66154 33:0.19898 34:0.51057 35:0.65029 36:0.22787 37:0.2913 38:0.094019 39:0.14156 40:0.59435 41:0.27539 42:0.89362 43:0.12141 44:0.50495 45:0.15336 46:0.93799 47:0.43757 48:0.77234 
-1 -0.2893740345030285 1:0.78278 2:0.87917 3:0.64207 4:0.57933 5:0.45555 6:0.41652 7:0.35643 8:0.49705 9:0.41689 10:0.27032 11:0.45635 12:0.10864 13:0.99578 14:0.49352 15:0.30679 16:0.89076 17:0.6076 18:0.60598 19:0.71931 20:0.49179 21:0.99652 22:0.32547 23:0.48273 24:0.96647 25:0.91688 26:0.6017 27:0.62844 28:0.53502 29:0.00057473 30:0.578 31:0.59128 32:0.94979 33:0.060753 34:0.026023 35:0.89956 36:0.45791 37:0.99014 38:0.0036638 39:0.47878 40:0.54582 41:0.71127 42:0.31794 43:0.41877 44:0.73806 45:0.30458 46:0.61118 47:0.58592 48:0.50772 
-0.9511398837014577 -1 1:0.88889 2:0.67184 3:0.86113 4:0.75713 5:0.65801 6:0.50352 7:0.9943 8:0.26364 9:0.033701 10:0.61948 11:0.87521 12:0.616 13:0.59952 14:0.24128 15:0.16088 16:0.24157 17:0.64852 18:0.62045 19:0.80141 20:0.59302 21:0.54281 22:0.45683 23:0.86466 24:0.15715 25:0.0293 26:0.71606 27:0.8215 28:0.96236 29:0.62169 30:0.30148 31:0.67443 32:0.29843 33:0.04659 34:0.41807 35:0.55646 36:0.71442 37:0.25401 38:0.37039 39:0.74982 40:0.61658 41:0.35508 42:0.70262 43:0.92116 44:0.62828 45:0.50522 46:0.44433 47:0.61426 48:0.302 
-1 -0.6689031268228699 1:0.14394 2:0.44562 3:0.29079 4:0.26037 5:0.26912 6:0.86918 7:0.18466 8:0.30282 9:0.41507 10:0.45769 11:0.57448 12:0.61781 13:0.53829 14:0.64525 15:0.64057 16:0.040456 17:0.67377 18:0.10598 19:0.86519 20:0.49799 21:0.5981 22:0.73642 23:0.54283 24:0.19134 25:0.12197 26:0.7775 27:0.03657 28:0.94952 29:0.1838 30:0.65147 31:0.87599 32:0.96047 33:0.17157 34:0.69037 35:0.78752 36:0.14566 37:0.56775 38:0.46291 39:0.59153 40:0.37729 41:0.053022 42:0.77742 43:0.68919 44:0.25092 45:0.12262 46:0.13291 47:0.69818 48:0.59835 
-1 -0.6673379089881739 1:0.26391 2:0.36095 3:0.59473 4:0.63751 5:0.081937 6:0.64284 7:0.92672 8:0.12933 9:0.92941 10:0.5178 11:0.58437 12:0.14845 13:0.67383 14:0.18374 15:0.30736 16:0.99231 17:0.3969 18:0.01763 19:0.41309 20:0.35756 21:0.71366 22:0.88299 23:0.10776 24:0.38962 25:0.066857 26:0.8465 27:0.27018 28:0.68951 29:0.30404 30:0.70103 31:0.512 32:0.17008 33:0.82207 34:0.93281 35:0.44257 36:0.76862 37:0.16136 38:0.35704 39:0.88897 40:0.27173 41:0.88009 42:0.76603 43:0.32497 44:0.44951 45:0.32681 46:0.21488 47:0.73361 48:0.69468 
-1 -0.3719382590614976 1:0.2794 2:0.71087 3:0.4583 4:0.51255 5:0.38671 6:0.83646 7:0.34839 8:0.55782 9:0.58053 10:0.58945 11:0.5408 12:0.1057 13:0.81365 14:0.2923 15:0.053885 16:0.16139 17:0.6017 18:0.77749 19:0.34864 20:0.1675 21:0.45072 22:0.79316 23:0.25238 24:0.59167 25:0.9944 26:0.47552 27:0.80769 28:0.012358 29:0.12367 30:0.42314 31:0.14573 32:0.7099 33:0.65107 34:0.43917 35:0.99633 36:0.58788 37:0.29681 38:0.1082 39:0.5854 40:0.16815 41:0.58021 42:0.59099 43:0.93423 44:0.22474 45:0.37745 46:0.067354 47:0.36244 48:0.19711 
-0.4197039019773143 -1 1:0.11422 2:0.70785 3:0.062081 4:0.64433 5:0.93987 6:0.73117 7:0.53227 8:0.13666 9:0.25315 10:0.85991 11:0.6247 12:0.21961 13:0.56581 14:0.62579 15:0.37345 16:0.1342 17:0.32599 18:0.51642 19:0.77032 20:0.578 21:0.48536 22:0.98902 23:0.56984 24:0.7507 25:0.30771 26:0.58725 27:0.42223 28:0.41451 29:0.00342 30:0.3669 31:0.2085 32:0.94051 33:0.99858 34:0.37403 35:0.68505 36:0.0083337 37:0.15791 38:0.29398 39:0.025672 40:0.13407 41:0.18081 42:0.85576 43:0.10732 44:0.26638 45:0.82042 46:0.12143 47:0.53592 48:0.5308 
-1 -1 1:0.29825 2:0.067271 3:0.29899 4:0.073873 5:0.37231 6:0.65219 7:0.24811 8:0.76482 9:0.77131 10:0.85306 11:0.51005 12:0.59692 13:0.83442 14:0.96866 15:0.31708 16:0.89854 17:0.53874 18:0.028057 19:0.091054 20:0.70518 21:0.90696 22:0.50441 23:0.25617 24:0.8427 25:0.016714 26:0.23554 27:0.36813 28:0.44455 29:0.38648 30:0.6476 31:0.98963 32:0.95366 33:0.29889 34:0.71484 35:0.59909 36:0.14633 37:0.15324 38:0.66058 39:0.51062 40:0.23246 41:0.94926 42:0.73123 43:0.81778 44:0.78579 45:0.58754 46:0.1001 47:0.41653 48:0.11082 
-1 -1 1:0.32171 2:0.21701 3:0.9789 4:0.98277 5:0.96577 6:0.023888 7:0.95767 8:0.6097 9:0.79743 10:0.31304 11:0.034663 12:0.19214 13:0.54242 14:0.46968 15:0.28761 16:0.52277 17:0.19049 18:0.23864 19:0.49526 20:0.3169 21:0.66609 22:0.4226 23:0.76699 24:0.90426 25:0.4044 26:0.80588 27:0.31239 28:0.62986 29:0.48869 30:0.9258 31:0.26964 32:0.57846 33:0.67421 34:0.12421 35:0.87324 36:0.7515 37:0.63599 38:0.49143 39:0.49669 40:0.41845 41:0.88151 42:0.68921 43:0.098045 44:0.29125 45:0.24399 46:0.9691 47:0.44401 48:0.34841 
-1 -0.2137778900579062 1:0.74839 2:0.77805 3:0.91983 4:0.8919 5:0.53132 6:0.61947 7:0.26608 8:0.74205 9:0.96265 10:0.21548 11:0.58748 12:0.11369 13:0.094066 14:0.10329 15:0.33705 16:0.73665 17:0.84118 18:0.91818 19:0.2485 20:0.062436 21:0.94824 22:0.76223 23:0.60053 24:0.076243 25:0.61165 26:0.041886 27:0.68711 28:0.7608 29:0.43492 30:0.36542 31:0.60894 32:0.83001 33:0.69937 34:0.32131 35:0.14855 36:0.96369 37:0.88548 38:0.18866 39:0.12064 40:0.19704 41:0.84477 42:0.31144 43:0.18798 44:0.47352 45:0.7559 46:0.5357 47:0.54651 48:0.48682 
-1 -1 1:0.8695 2:0.74411 3:0.070175 4:0.57681 5:0.054534 6:0.33051 7:0.80187 8:0.3289 9:0.8145 10:0.57738 11:0.33356 12:0.5903 13:0.41989 14:0.36208 15:0.63682 16:0.21503 17:0.91808 18:0.17875 19:0.29912 20:0.79961 21:0.44598 22:0.69673 23:0.78213 24:0.24812 25:0.3962 26:0.63855 27:0.011165 28:0.57547 29:0.22695 30:0.23144 31:0.47494 32:0.67863 33:0.591 34:0.9108 35:0.88996 36:0.86489 37:0.32672 38:0.52516 39:0.43146 40:0.59774 41:0.98176 42:0.32504 43:0.093453 44:0.4562 45:0.90856 46:0.4562 47:0.06422 48:0.47878 
-0.5793490526536366 -1 1:0.57491 2:0.29262 3:0.771 4:0.84123 5:0.68612 6:0.6796 7:0.73069 8:0.036838 9:0.10407 10:0.46164 11:0.17763 12:0.065707 13:0.94201 14:0.40995 15:0.49198 16:0.12334 17:0.197 18:0.6128 19:0.62478 20:0.87629 21:0.43552 22:0.87518 23:0.13186 24:0.44247 25:0.84785 26:0.6207 27:0.82688 28:0.074981 29:0.16455 30:0.42807 31:0.26499 32:0.83517 33:0.010284 34:0.93608 35:0.3329 36:0.41478 37:0.18273 38:0.68966 39:0.067982 40:0.34501 41:0.74671 42:0.12631 43:0.85618 44:0.38245 45:0.029763 46:0.45735 47:0.92174 48:0.17107 
-1 -1 1:0.61236 2:0.3328 3:0.67457 4:0.1948 5:0.535 6:0.31643 7:0.24561 8:0.028097 9:0.15207 10:0.64782 11:0.76197 12:0.35183 13:0.30846 14:0.20652 15:0.40355 16:0.98806 17:0.28671 18:0.48555 19:0.38193 20:0.90235 21:0.68751 22:0.61517 23:0.65657 24:0.29463 25:0.38934 26:0.77164 27:0.086406 28:0.64132 29:0.58833 30:0.92951 31:0.28281 32:0.76894 33:0.75164 34:0.22002 35:0.46748 36:0.41614 37:0.32717 38:0.44767 39:0.1202 40:0.052955 41:0.30921 42:0.6068 43:0.22128 44:0.27165 45:0.99282 46:0.11595 47:0.89648 48:0.5354 
-0.6074312442029408 -0.07670207317315818 1:0.92612 2:0.42741 3:0.62775 4:0.85772 5:0.58496 6:0.18504 7:0.35209 8:0.97474 9:0.19902 10:0.96515 11:0.84277 12:0.023213 13:0.30753 14:0.025935 15:0.62901 16:0.81847 17:0.23321 18:0.17427 19:0.1026 20:0.96905 21:0.38844 22:0.083462 23:0.30177 24:0.55537 25:0.65968 26:0.061987 27:0.66282 28:0.98836 29:0.8815 30:0.31594 31:0.67086 32:0.94237 33:0.94467 34:0.74433 35:0.27576 36:0.25376 37:0.17259 38:0.13616 39:0.68062 40:0.17534 41:0.805 42:0.35207 43:0.43502 44:0.1304 45:0.092353 46:0.17308 47:0.096569 48:0.88236 
-1 -0.8312773520322572 1:0.99632 2:0.38193 3:0.021296 4:0.70325 5:0.44069 6:0.66532 7:0.61611 8:0.58524 9:0.22082 10:0.30147 11:0.32155 12:0.43571 13:0.67552 14:0.93319 15:0.45347 16:0.013413 17:0.66486 18:0.36306 19:0.89327 20:0.74296 21:0.86939 22:0.26591 23:0.13771 24:0.41291 25:0.51727 26:0.91924 27:0.12258 28:0.47515 29:0.68106 30:0.35971 31:0.054681 32:0.27845 33:0.81224 34:0.51914 35:0.59978 36:0.30948 37:0.77288 38:0.75766 39:0.53673 40:0.010458 41:0.23949 42:0.81243 43:0.37623 44:0.48849 45:0.4814 46:0.87018 47:0.94854 48:0.09685 
-1 -1 1:0.1113 2:0.068776 3:0.51342 4:0.48918 5:0.011365 6:0.80747 7:0.94376 8:0.77049 9:0.18228 10:0.0089931 11:0.94232 12:0.75153 13:0.25239 14:0.43192 15:0.90649 16:0.35115 17:0.70235 18:0.22689 19:0.73977 20:0.17494 21:0.013367 22:0.51091 23:0.85524 24:0.98239 25:0.99031 26:0.39837 27:0.37566 28:0.18949 29:0.57136 30:0.88062 31:0.6088 32:0.46027 33:0.55374 34:0.79703 35:0.69699 36:0.51301 37:0.75113 38:0.55868 39:0.29164 40:0.20153 41:0.9721 42:0.56744 43:0.12068 44:0.82305 45:0.64742 46:0.92477 47:0.15996 48:0.2529 
-1 -1 1:0.67325 2:0.12392 3:0.14234 4:0.026225 5:0.16891 6:0.34049 7:0.76624 8:0.97416 9:0.80919 10:0.66086 11:0.51542 12:0.77802 13:0.38544 14:0.9305 15:0.66655 16:0.62834 17:0.36771 18:0.091176 19:0.82443 20:0.58797 21:0.23442 22:0.79741 23:0.23705 24:0.95766 25:0.56237 26:0.24757 27:0.71381 28:0.50475 29:0.74461 30:0.28783 31:0.63631 32:0.10417 33:0.51294 34:0.38893 35:0.93332 36:0.089774 37:0.15606 38:0.68756 39:0.52503 40:0.50239 41:0.44009 42:0.071141 43:0.82468 44:0.13193 45:0.21966 46:0.33613 47:0.16992 48:0.72586 
-1 -1 1:0.89345 2:0.24105 3:0.17702 4:0.25188 5:0.070749 6:0.29009 7:0.063708 8:0.34669 9:0.9363 10:0.33852 11:0.06295 12:0.83375 13:0.4982 14:0.56392 15:0.42225 16:0.059984 17:0.68098 18:0.16615 19:0.43442 20:0.75108 21:0.43617 22:0.71241 23:0.93574 24:0.33074 25:0.52564 26:0.7541 27:0.69303 28:0.13798 29:0.21447 30:0.43359 31:0.70469 32:0.16189 33:0.9254 34:0.2727 35:0.4954 36:0.35305 37:0.59177 38:0.75707 39:0.67278 40:0.087672 41:0.028567 42:0.20784 43:0.86244 44:0.9016 45:0.57894 46:0.31768 47:0.79196 48:0.35017 
-1 -0.6572520531123804 1:0.8128 2:0.40321 3:0.43841 4:0.20954 5:0.76692 6:0.6926 7:0.65964 8:0.49546 9:0.16682 10:0.0063019 11:0.87174 12:0.17881 13:0.38317 14:0.66911 15:0.36293 16:0.59939 17:0.23709 18:0.88306 19:0.66361 20:0.96824 21:0.8717 22:0.23513 23:0.0040159 24:0.20245 25:0.74582 26:0.41844 27:0.45031 28:0.42312 29:0.083857 30:0.042108 31:0.79198 32:0.72324 33:0.46573 34:0.7341 35:0.24955 36:0.72705 37:0.67101 38:0.51139 39:0.36648 40:0.15023 41:0.46128 42:0.21694 43:0.56973 44:0.24176 45:0.14677 46:0.93899 47:0.32761 48:0.54147 
-1 -1 1:0.3221 2:0.69649 3:0.80451 4:0.83873 5:0.10656 6:0.71572 7:0.073998 8:0.48291 9:0.32022 10:0.88979 11:0.98566 12:0.15979 13:0.27312 14:0.1114 15:0.88859 16:0.65092 17:0.16817 18:0.63476 19:0.14251 20:0.33057 21:0.20886 22:0.93802 23:0.32967 24:0.71132 25:0.93685 26:0.38556 27:0.56026 28:0.53226 29:0.0087495 30:0.061518 31:0.16385 32:0.32793 33:0.64706 34:0.47846 35:0.23285 36:0.45559 37:0.57248 38:0.1377 39:0.9867 40:0.24705 41:0.099959 42:0.54366 43:0.2038 44:0.87639 45:0.40259 46:0.21827 47:0.90723 48:0.56705 
-1 -1 1:0.65606 2:0.4491 3:0.24584 4:0.71477 5:0.084698 6:0.61799 7:0.89771 8:0.91893 9:0.86126 10:0.83148 11:0.070917 12:0.74482 13:0.025272 14:0.94918 15:0.27184 16:0.89083 17:0.23613 18:0.63022 19:0.86364 20:0.90927 21:0.05875 22:0.1457 23:0.36585 24:0.35969 25:0.25469 26:0.056855 27:0.35667 28:0.71021 29:0.64508 30:0.83068 31:0.29219 32:0.51546 33:0.57821 34:0.67549 35:0.65687 36:0.034755 37:0.7472 38:0.54238 39:0.48045 40:0.80231 41:0.27009 42:0.12472 43:0.23806 44:0.35587 45:0.63068 46:0.05588 47:0.57699 48:0.83736 
-1 -1 1:0.80871 2:0.61537 3:0.38671 4:0.22257 5:0.89827 6:0.64855 7:0.29027 8:0.40588 9:0.072993 10:0.4129 11:0.76645 12:0.13928 13:0.45175 14:0.095824 15:0.17905 16:0.47381 17:0.47384 18:0.46942 19:0.17263 20:0.59251 21:0.20484 22:0.12722 23:0.60004 24:0.55004 25:0.51339 26:0.45099 27:0.94157 28:0.31994 29:0.99416 30:0.10634 31:0.84496 32:0.11724 33:0.5446 34:0.47635 35:0.71397 36:0.21316 37:0.0099496 38:0.47953 39:0.68292 40:0.044972 41:0.95209 42:0.37473 43:0.76994 44:0.95282 45:0.65912 46:0.62448 47:0.86416 48:0.96434 
-1 -0.9459029730667419 1:0.28276 2:0.9737 3:0.87065 4:0.35609 5:0.55966 6:0.54448 7:0.11026 8:0.20267 9:0.89387 10:0.36468 11:0.69231 12:0.90815 13:0.99293 14:0.9042 15:0.25974 16:0.16721 17:0.39346 18:0.31595 19:0.39438 20:0.20038 21:0.43389 22:0.10211 23:0.48711 24:0.19861 25:0.78453 26:0.26686 27:0.92282 28:0.84708 29:0.77134 30:0.43859 31:0.1052 32:0.11182 33:0.8315 34:0.099642 35:0.9205 36:0.92544 37:0.39054 38:0.070467 39:0.46652 40:0.31202 41:0.2087 42:0.20376 43:0.43839 44:0.14286 45:0.42776 46:0.57551 47:0.9808 48:0.066244 
-0.8586739949382459 -1 1:0.8479 2:0.66766 3:0.23893 4:0.18978 5:0.49026 6:0.97413 7:0.6484 8:0.17527 9:0.0014497 10:0.016837 11:0.43065 12:0.35149 13:0.011424 14:0.67554 15:0.97203 16:0.27064 17:0.10501 18:0.83571 19:0.89298 20:0.59404 21:0.63008 22:0.68835 23:0.28928 24:0.48998 25:0.14431 26:0.020859 27:0.43549 28:0.70884 29:0.81362 30:0.014416 31:0.073589 32:0.43375 33:0.95814 34:0.39924 35:0.67836 36:0.24572 37:0.8634 38:0.24582 39:0.40864 40:0.74899 41:0.15266 42:0.64315 43:0.39773 44:0.23605 45:0.98479 46:0.77468 47:0.4442 48:0.73897 
-0.879070349268673 -1 1:0.71621 2:0.66466 3:0.78163 4:0.62144 5:0.11282 6:0.19674 7:0.55176 8:0.65495 9:0.15894 10:0.55871 11:0.36836 12:0.61923 13:0.11214 14:0.15336 15:0.88385 16:0.27276 17:0.92155 18:0.39433 19:0.45662 20:0.92547 21:0.67393 22:0.54021 23:0.65999 24:0.58248 25:0.23068 26:0.72644 27:0.37204 28:0.53318 29:0.24645 30:0.3313 31:0.0013138 32:0.18174 33:0.087891 34:0.68399 35:0.61584 36:0.31652 37:0.17355 38:0.6384 39:0.78968 40:0.70283 41:0.84098 42:0.40678 43:0.57808 44:0.10447 45:0.72302 46:0.086608 47:0.58799 48:0.85023 
-1 -1 1:0.060344 2:0.62278 3:0.096911 4:0.4377 5:0.89829 6:0.17081 7:0.02807 8:0.29357 9:0.74403 10:0.23542 11:0.97819 12:0.92555 13:0.35968 14:0.60166 15:0.19551 16:0.56839 17:0.70068 18:0.53673 19:0.27509 20:0.19891 21:0.52967 22:0.98563 23:0.23958 24:0.0025164 25:0.061973 26:0.27138 27:0.78651 28:0.89358 29:0.62168 30:0.75513 31:0.78847 32:0.022916 33:0.44078 34:0.54846 35:0.55668 36:0.3788 37:0.387 38:0.65407 39:0.90589 40:0.82258 41:0.67431 42:0.50473 43:0.26306 44:0.62056 45:0.45902 46:0.053443 47:0.90868 48:0.7604 
-1 -0.7924236091317942 1:0.86867 2:0.44004 3:0.576 4:0.87238 5:0.17127 6:0.25412 7:0.027229 8:0.35253 9:0.49748 10:0.77145 11:0.10998 12:0.091635 13:0.38283 14:0.26348 15:0.81403 16:0.46639 17:0.68316 18:0.30289 19:0.81124 20:0.27439 21:0.27867 22:0.2396 23:0.089221 24:0.52889 25:0.33822 26:0.95935 27:0.097836 28:0.20789 29:0.19516 30:0.65607 31:0.66247 32:0.44632 33:0.61194 34:0.26961 35:0.28095 36:0.46122 37:0.063903 38:0.13091 39:0.72297 40:0.3325 41:0.67208 42:0.0085033 43:0.72138 44:0.10019 45:0.57495 46:0.90879 47:0.68372 48:0.14875 
-1 -0.9577501424551416 1:0.32842 2:0.16327 3:0.028334 4:0.62383 5:0.45837 6:0.7164 7:0.16878 8:0.72841 9:0.59698 10:0.15973 11:0.10881 12:0.76108 13:0.38675 14:0.19115 15:0.59023 16:0.3901 17:0.24394 18:0.36087 19:0.7286 20:0.22656 21:0.53522 22:0.70741 23:0.6471 24:0.9575 25:0.64109 26:0.39332 27:0.26423 28:0.20561 29:0.94188 30:0.015882 31:0.15384 32:0.25367 33:0.48249 34:0.62668 35:0.87853 36:0.81482 37:0.8351 38:0.29307 39:0.94267 40:0.65043 41:0.111 42:0.9045 43:0.82997 44:0.1066 45:0.70431 46:0.093335 47:0.25727 48:0.60492 
-0.6988670048612488 -0 1:0.88985 2:0.78711 3:0.62621 4:0.32116 5:0.68841 6:0.88936 7:0.514 8:0.091683 9:0.94954 10:0.86087 11:0.78461 12:0.015963 13:0.95995 14:0.21497 15:0.5749 16:0.12447 17:0.53068 18:0.78107 19:0.41543 20:0.99137 21:0.61585 22:0.69707 23:0.50424 24:0.75019 25:0.44318 26:0.013825 27:0.1879 28:0.58535 29:0.96926 30:0.2223 31:0.26415 32:0.24894 33:0.90337 34:0.12657 35:0.82021 36:0.1894 37:0.91211 38:0.052587 39:0.054037 40:0.274 41:0.60461 42:0.722 43:0.56057 44:0.26692 45:0.33021 46:0.17492 47:0.12096 48:0.65842 
-1 -1 1:0.56813 2:0.27669 3:0.17366 4:0.018791 5:0.87445 6:0.52353 7:0.80635 8:0.8969 9:0.66013 10:0.70776 11:0.75902 12:0.68979 13:0.42964 14:0.68308 15:0.31046 16:0.87911 17:0.80344 18:0.92696 19:0.34151 20:0.17634 21:0.58415 22:0.65888 23:0.97977 24:0.12683 25:0.15574 26:0.1337 27:0.16961 28:0.6398 29:0.44323 30:0.15272 31:0.74375 32:0.71237 33:0.66223 34:0.91749 35:0.41759 36:0.088876 37:0.61653 38:0.08204 39:0.57781 40:0.94761 41:0.61825 42:0.37125 43:0.76331 44:0.10538 45:0.46885 46:0.58241 47:0.75511 48:0.38777 
-0.9445199087995741 -1 1:0.62023 2:0.6804 3:0.29716 4:0.63525 5:0.09383 6:0.6255 7:0.016039 8:0.54538 9:0.59453 10:0.56698 11:0.7781 12:0.90929 13:0.25105 14:0.6953 15:0.83614 16:0.91829 17:0.15075 18:0.0095404 19:0.85486 20:0.83991 21:0.98431 22:0.96311 23:0.83891 24:0.47085 25:0.32904 26:0.43332 27:0.26901 28:0.36078 29:0.82971 30:0.55723 31:0.83415 32:0.79651 33:0.0092234 34:0.058715 35:0.749 36:0.17182 37:0.64669 38:0.67852 39:0.49478 40:0.0024484 41:0.22922 42:0.49755 43:0.95037 44:0.32883 45:0.15627 46:0.92947 47:0.054371 48:0.24835 
-0.06124465959690886 -1 1:0.80398 2:0.23543 3:0.38961 4:0.98881 5:0.98702 6:0.22991 7:0.46081 8:0.76368 9:0.048709 10:0.6837 11:0.43558 12:0.53925 13:0.46019 14:0.17478 15:0.96337 16:0.32934 17:0.12688 18:0.86662 19:0.058751 20:0.43004 21:0.36272 22:0.59337 23:0.42622 24:0.50162 25:0.77134 26:0.85858 27:0.69318 28:0.66548 29:0.46078 30:0.35968 31:0.081266 32:0.26929 33:0.49442 34:0.81521 35:0.13095 36:0.8181 37:0.056343 38:0.44819 39:0.062842 40:0.20529 41:0.57526 42:0.89647 43:0.1048 44:0.26283 45:0.077879 46:0.30879 47:0.1585 48:0.038978 
-1 -1 1:0.64952 2:0.37189 3:0.58099 4:0.26095 5:0.99887 6:0.5682 7:0.86608 8:0.43135 9:0.63015 10:0.47578 11:0.32623 12:0.95347 13:0.953 14:0.85448 15:0.61116 16:0.43073 17:0.052519 18:0.59997 19:0.4973 20:0.20452 21:0.043068 22:0.54693 23:0.14153 24:0.34511 25:0.84632 26:0.96366 27:0.033113 28:0.48962 29:0.63428 30:0.3175 31:0.55492 32:0.17858 33:0.57083 34:0.22241 35:0.48423 36:0.58516 37:0.75361 38:0.14187 39:0.4735 40:0.70324 41:0.081574 42:0.21492 43:0.83985 44:0.21111 45:0.06649 46:0.76592 47:0.30652 48:0.19936 
-1 -1 1:0.2758 2:0.56775 3:0.18118 4:0.78824 5:0.47363 6:0.64159 7:0.42367 8:0.84685 9:0.53038 10:0.60857 11:0.3289 12:0.79892 13:0.19828 14:0.32231 15:0.82277 16:0.70196 17:0.63622 18:0.47548 19:0.34806 20:0.3138 21:0.77327 22:0.25842 23:0.54651 24:0.6387 25:0.44559 26:0.50421 27:0.51126 28:0.42373 29:0.73805 30:0.17358 31:0.62463 32:0.42233 33:0.48986 34:0.59714 35:0.34533 36:0.95439 37:0.72407 38:0.23927 39:0.91883 40:0.69329 41:0.60144 42:0.17066 43:0.89626 44:0.97226 45:0.28884 46:0.91351 47:0.1724 48:0.94841 
-1 -1 1:0.8164 2:0.49506 3:0.1714 4:0.079092 5:0.48897 6:0.97083 7:0.23477 8:0.086432 9:0.51575 10:0.79058 11:0.61355 12:0.78438 13:0.24891 14:0.5055 15:0.0026416 16:0.12026 17:0.42792 18:0.76054 19:0.71559 20:0.021585 21:0.05489 22:0.58132 23:0.20319 24:0.89222 25:0.66926 26:0.56169 27:0.8211 28:0.33879 29:0.8718 30:0.87905 31:0.60281 32:0.24961 33:0.67916 34:0.89099 35:0.23735 36:0.83906 37:0.091317 38:0.99736 39:0.39095 40:0.59259 41:0.81259 42:0.22315 43:0.69515 44:0.32291 45:0.28806 46:0.75939 47:0.17445 48:0.011288 
-1 -0.6316504082547955 1:0.56235 2:0.088272 3:0.1866 4:0.11233 5:0.79533 6:0.8605 7:0.43924 8:0.74182 9:0.197 10:0.21866 11:0.25569 12:0.16754 13:0.75043 14:0.98335 15:0.91805 16:0.82612 17:0.32238 18:0.94937 19:0.62332 20:0.75629 21:0.65431 22:0.018892 23:0.32153 24:0.87251 25:0.4629 26:0.88442 27:0.26384 28:0.54585 29:0.65138 30:0.90011 31:0.074704 32:0.43042 33:0.14606 34:0.88439 35:0.84051 36:0.71159 37:0.17374 38:0.018603 39:0.6913 40:0.74577 41:0.57686 42:0.89698 43:0.055149 44:0.89568 45:0.30941 46:0.2608 47:0.57264 48:0.2199 
